<?xml version="1.0"?>
<opencv_storage>
<stage2>
  <maxWeakCount>79</maxWeakCount>
  <stageThreshold>-2.0673835277557373e-01</stageThreshold>
  <weakClassifiers>
    <_>
      <internalNodes>
        0 -1 46402 1.6567513346672058e-01</internalNodes>
      <leafValues>
        -4.6901172399520874e-01 1.9607843458652496e-01</leafValues></_>
    <_>
      <internalNodes>
        0 -1 157723 3.9152268320322037e-02</internalNodes>
      <leafValues>
        -1.5941360592842102e-01 5.7164984941482544e-01</leafValues></_>
    <_>
      <internalNodes>
        0 -1 141000 -1.6817957162857056e-01</internalNodes>
      <leafValues>
        -1.4121848344802856e-01 4.2789509892463684e-01</leafValues></_>
    <_>
      <internalNodes>
        0 -1 97842 3.1978204846382141e-02</internalNodes>
      <leafValues>
        -6.8418204784393311e-02 7.6850080490112305e-01</leafValues></_>
    <_>
      <internalNodes>
        0 -1 133820 8.9577026665210724e-03</internalNodes>
      <leafValues>
        -1.2137608230113983e-01 4.0344351530075073e-01</leafValues></_>
    <_>
      <internalNodes>
        0 -1 121404 1.0999809019267559e-02</internalNodes>
      <leafValues>
        -1.0680096596479416e-01 4.9172559380531311e-01</leafValues></_>
    <_>
      <internalNodes>
        0 -1 35669 -1.0086278617382050e-01</internalNodes>
      <leafValues>
        4.1693979501724243e-01 -1.1724737286567688e-01</leafValues></_>
    <_>
      <internalNodes>
        0 -1 109150 4.7501446679234505e-03</internalNodes>
      <leafValues>
        -1.0813646763563156e-01 5.2275043725967407e-01</leafValues></_>
    <_>
      <internalNodes>
        0 -1 140702 -9.9014909937977791e-03</internalNodes>
      <leafValues>
        -7.2259503602981567e-01 7.9490162432193756e-02</leafValues></_>
    <_>
      <internalNodes>
        0 -1 130573 5.5266004055738449e-03</internalNodes>
      <leafValues>
        -1.3158029317855835e-01 4.1344258189201355e-01</leafValues></_>
    <_>
      <internalNodes>
        0 -1 155751 5.3547718562185764e-03</internalNodes>
      <leafValues>
        5.0978761166334152e-02 -9.2490416765213013e-01</leafValues></_>
    <_>
      <internalNodes>
        0 -1 151876 -7.0651643909513950e-04</internalNodes>
      <leafValues>
        2.3731344938278198e-01 -2.1387307345867157e-01</leafValues></_>
    <_>
      <internalNodes>
        0 -1 114789 1.0647675953805447e-03</internalNodes>
      <leafValues>
        -1.6830408573150635e-01 2.9416897892951965e-01</leafValues></_>
    <_>
      <internalNodes>
        0 -1 49931 1.0959582775831223e-01</internalNodes>
      <leafValues>
        -1.1644343286752701e-01 3.8370954990386963e-01</leafValues></_>
    <_>
      <internalNodes>
        0 -1 104940 -6.2661476433277130e-02</internalNodes>
      <leafValues>
        3.5852161049842834e-01 -1.7055961489677429e-01</leafValues></_>
    <_>
      <internalNodes>
        0 -1 13201 -7.1492060087621212e-03</internalNodes>
      <leafValues>
        3.0434036254882813e-01 -1.6050460934638977e-01</leafValues></_>
    <_>
      <internalNodes>
        0 -1 121896 -1.4695578720420599e-03</internalNodes>
      <leafValues>
        5.3694403171539307e-01 -8.5533596575260162e-02</leafValues></_>
    <_>
      <internalNodes>
        0 -1 158819 4.6176966279745102e-03</internalNodes>
      <leafValues>
        -1.2507073581218719e-01 3.6527198553085327e-01</leafValues></_>
    <_>
      <internalNodes>
        0 -1 87772 3.5978280007839203e-02</internalNodes>
      <leafValues>
        -1.4303405582904816e-01 3.5098397731781006e-01</leafValues></_>
    <_>
      <internalNodes>
        0 -1 7512 2.2098653018474579e-02</internalNodes>
      <leafValues>
        -1.2079323083162308e-01 4.4662928581237793e-01</leafValues></_>
    <_>
      <internalNodes>
        0 -1 29621 2.9004368931055069e-02</internalNodes>
      <leafValues>
        -8.2675419747829437e-02 5.7277840375900269e-01</leafValues></_>
    <_>
      <internalNodes>
        0 -1 145998 2.6976116001605988e-02</internalNodes>
      <leafValues>
        -8.0908954143524170e-02 5.2220535278320313e-01</leafValues></_>
    <_>
      <internalNodes>
        0 -1 144280 -3.6069400608539581e-02</internalNodes>
      <leafValues>
        4.2325738072395325e-01 -1.1683270335197449e-01</leafValues></_>
    <_>
      <internalNodes>
        0 -1 108015 -1.8330437596887350e-03</internalNodes>
      <leafValues>
        4.1245195269584656e-01 -1.0658714920282364e-01</leafValues></_>
    <_>
      <internalNodes>
        0 -1 101288 -2.4083189666271210e-02</internalNodes>
      <leafValues>
        -7.5370460748672485e-01 6.8653956055641174e-02</leafValues></_>
    <_>
      <internalNodes>
        0 -1 71045 -1.3365852646529675e-02</internalNodes>
      <leafValues>
        -5.6262046098709106e-01 7.2324000298976898e-02</leafValues></_>
    <_>
      <internalNodes>
        0 -1 22708 -5.4781190119683743e-03</internalNodes>
      <leafValues>
        3.6375048756599426e-01 -1.3884064555168152e-01</leafValues></_>
    <_>
      <internalNodes>
        0 -1 155213 -9.3262903392314911e-03</internalNodes>
      <leafValues>
        -1.7677220702171326e-01 2.7481552958488464e-01</leafValues></_>
    <_>
      <internalNodes>
        0 -1 115238 -4.9615025520324707e-02</internalNodes>
      <leafValues>
        -6.7857652902603149e-01 8.2846641540527344e-02</leafValues></_>
    <_>
      <internalNodes>
        0 -1 18265 6.4989426173269749e-03</internalNodes>
      <leafValues>
        3.8054801523685455e-02 -8.6165577173233032e-01</leafValues></_>
    <_>
      <internalNodes>
        0 -1 108024 -3.2443345990031958e-03</internalNodes>
      <leafValues>
        4.2485344409942627e-01 -1.3164009153842926e-01</leafValues></_>
    <_>
      <internalNodes>
        0 -1 60590 -4.3567247688770294e-02</internalNodes>
      <leafValues>
        5.4136526584625244e-01 -7.9284138977527618e-02</leafValues></_>
    <_>
      <internalNodes>
        0 -1 13316 -5.2553102374076843e-02</internalNodes>
      <leafValues>
        -8.3209711313247681e-01 6.2816143035888672e-02</leafValues></_>
    <_>
      <internalNodes>
        0 -1 162267 -1.6262602061033249e-02</internalNodes>
      <leafValues>
        -6.4648288488388062e-01 5.2178353071212769e-02</leafValues></_>
    <_>
      <internalNodes>
        0 -1 117446 2.2514625452458858e-03</internalNodes>
      <leafValues>
        -1.3867907226085663e-01 3.5733702778816223e-01</leafValues></_>
    <_>
      <internalNodes>
        0 -1 117870 -4.8339573550038040e-04</internalNodes>
      <leafValues>
        2.9251408576965332e-01 -1.8215349316596985e-01</leafValues></_>
    <_>
      <internalNodes>
        0 -1 10896 -7.8547388315200806e-02</internalNodes>
      <leafValues>
        4.2475721240043640e-01 -1.1313375085592270e-01</leafValues></_>
    <_>
      <internalNodes>
        0 -1 147833 -1.0955764446407557e-03</internalNodes>
      <leafValues>
        3.3017161488533020e-01 -1.5875691175460815e-01</leafValues></_>
    <_>
      <internalNodes>
        0 -1 113211 -1.6412623226642609e-02</internalNodes>
      <leafValues>
        5.9983605146408081e-01 -8.5377305746078491e-02</leafValues></_>
    <_>
      <internalNodes>
        0 -1 37946 6.2432467937469482e-02</internalNodes>
      <leafValues>
        -6.6814847290515900e-02 6.3535833358764648e-01</leafValues></_>
    <_>
      <internalNodes>
        0 -1 81542 5.8654551394283772e-03</internalNodes>
      <leafValues>
        -1.0441482812166214e-01 4.5315611362457275e-01</leafValues></_>
    <_>
      <internalNodes>
        0 -1 80921 -2.1151098189875484e-04</internalNodes>
      <leafValues>
        -2.7060601115226746e-01 1.8890042603015900e-01</leafValues></_>
    <_>
      <internalNodes>
        0 -1 140390 2.1178163588047028e-02</internalNodes>
      <leafValues>
        -7.6138235628604889e-02 7.2556436061859131e-01</leafValues></_>
    <_>
      <internalNodes>
        0 -1 137355 -1.4567553065717220e-02</internalNodes>
      <leafValues>
        2.7709811925888062e-01 -2.0546498894691467e-01</leafValues></_>
    <_>
      <internalNodes>
        0 -1 82230 -8.9263292029500008e-03</internalNodes>
      <leafValues>
        5.1252317428588867e-01 -8.6729124188423157e-02</leafValues></_>
    <_>
      <internalNodes>
        0 -1 60302 -6.0436908155679703e-02</internalNodes>
      <leafValues>
        -2.6614463329315186e-01 1.8428683280944824e-01</leafValues></_>
    <_>
      <internalNodes>
        0 -1 469 -9.5395505428314209e-01</internalNodes>
      <leafValues>
        4.4549119472503662e-01 -1.2065239250659943e-01</leafValues></_>
    <_>
      <internalNodes>
        0 -1 48509 -4.9239480867981911e-03</internalNodes>
      <leafValues>
        -5.3767532110214233e-01 9.2116348445415497e-02</leafValues></_>
    <_>
      <internalNodes>
        0 -1 162101 -2.1864911541342735e-03</internalNodes>
      <leafValues>
        -1.0123930126428604e-01 4.9597641825675964e-01</leafValues></_>
    <_>
      <internalNodes>
        0 -1 128102 -9.5659475773572922e-03</internalNodes>
      <leafValues>
        4.9767649173736572e-01 -9.2802748084068298e-02</leafValues></_>
    <_>
      <internalNodes>
        0 -1 97804 2.2886678576469421e-02</internalNodes>
      <leafValues>
        -7.1340925991535187e-02 6.4007258415222168e-01</leafValues></_>
    <_>
      <internalNodes>
        0 -1 133119 -7.3981797322630882e-04</internalNodes>
      <leafValues>
        3.0642735958099365e-01 -1.6647404432296753e-01</leafValues></_>
    <_>
      <internalNodes>
        0 -1 842 -6.4790233969688416e-02</internalNodes>
      <leafValues>
        2.7975535392761230e-01 -1.7755852639675140e-01</leafValues></_>
    <_>
      <internalNodes>
        0 -1 57963 1.2917347252368927e-01</internalNodes>
      <leafValues>
        -1.5515308082103729e-01 3.3406049013137817e-01</leafValues></_>
    <_>
      <internalNodes>
        0 -1 161126 1.0789182269945741e-03</internalNodes>
      <leafValues>
        -1.3419178128242493e-01 3.6869299411773682e-01</leafValues></_>
    <_>
      <internalNodes>
        0 -1 11308 -9.2896625399589539e-02</internalNodes>
      <leafValues>
        4.2751362919807434e-01 -1.1598318815231323e-01</leafValues></_>
    <_>
      <internalNodes>
        0 -1 121092 -4.9807382747530937e-03</internalNodes>
      <leafValues>
        4.1102460026741028e-01 -1.4022517204284668e-01</leafValues></_>
    <_>
      <internalNodes>
        0 -1 62870 -9.1506280004978180e-03</internalNodes>
      <leafValues>
        7.0144867897033691e-01 -7.9537510871887207e-02</leafValues></_>
    <_>
      <internalNodes>
        0 -1 121106 8.9127961546182632e-03</internalNodes>
      <leafValues>
        -1.2815991044044495e-01 4.4746679067611694e-01</leafValues></_>
    <_>
      <internalNodes>
        0 -1 10169 -3.6503729643300176e-04</internalNodes>
      <leafValues>
        2.0941276848316193e-01 -2.3451209068298340e-01</leafValues></_>
    <_>
      <internalNodes>
        0 -1 89265 -2.5658360682427883e-03</internalNodes>
      <leafValues>
        -6.4602017402648926e-01 7.1857810020446777e-02</leafValues></_>
    <_>
      <internalNodes>
        0 -1 125052 -1.2106868671253324e-03</internalNodes>
      <leafValues>
        4.9709904193878174e-01 -1.0583300888538361e-01</leafValues></_>
    <_>
      <internalNodes>
        0 -1 123388 -3.9109168574213982e-04</internalNodes>
      <leafValues>
        3.3574739098548889e-01 -1.4193689823150635e-01</leafValues></_>
    <_>
      <internalNodes>
        0 -1 161960 -7.5752665288746357e-03</internalNodes>
      <leafValues>
        5.0210851430892944e-01 -9.2292897403240204e-02</leafValues></_>
    <_>
      <internalNodes>
        0 -1 2171 5.6690936908125877e-03</internalNodes>
      <leafValues>
        -9.1188758611679077e-02 4.4731408357620239e-01</leafValues></_>
    <_>
      <internalNodes>
        0 -1 147617 1.0620189132168889e-03</internalNodes>
      <leafValues>
        1.0453370213508606e-01 -4.7136926651000977e-01</leafValues></_>
    <_>
      <internalNodes>
        0 -1 156692 -2.3612466175109148e-03</internalNodes>
      <leafValues>
        3.4041032195091248e-01 -1.3423804938793182e-01</leafValues></_>
    <_>
      <internalNodes>
        0 -1 97319 -4.6601004898548126e-02</internalNodes>
      <leafValues>
        5.7112902402877808e-01 -7.6998725533485413e-02</leafValues></_>
    <_>
      <internalNodes>
        0 -1 120130 -8.9517550077289343e-04</internalNodes>
      <leafValues>
        2.9634314775466919e-01 -1.7582388222217560e-01</leafValues></_>
    <_>
      <internalNodes>
        0 -1 95371 -3.0749017000198364e-01</internalNodes>
      <leafValues>
        -4.8997634649276733e-01 1.0456798970699310e-01</leafValues></_>
    <_>
      <internalNodes>
        0 -1 162250 -2.2060617804527283e-02</internalNodes>
      <leafValues>
        2.7844679355621338e-01 -1.8780897557735443e-01</leafValues></_>
    <_>
      <internalNodes>
        0 -1 135217 -7.8512698411941528e-02</internalNodes>
      <leafValues>
        -7.5045205652713776e-02 6.7817068099975586e-01</leafValues></_>
    <_>
      <internalNodes>
        0 -1 161263 -1.3074420858174562e-03</internalNodes>
      <leafValues>
        -8.9684647321701050e-01 5.9054724872112274e-02</leafValues></_>
    <_>
      <internalNodes>
        0 -1 148300 6.8685604492202401e-04</internalNodes>
      <leafValues>
        -1.3185945153236389e-01 3.7101781368255615e-01</leafValues></_>
    <_>
      <internalNodes>
        0 -1 20502 -7.5269132852554321e-02</internalNodes>
      <leafValues>
        -7.2566366195678711e-01 7.1709543466567993e-02</leafValues></_>
    <_>
      <internalNodes>
        0 -1 33359 -7.0266872644424438e-03</internalNodes>
      <leafValues>
        2.4614095687866211e-01 -2.1110042929649353e-01</leafValues></_>
    <_>
      <internalNodes>
        0 -1 136496 3.1928992830216885e-03</internalNodes>
      <leafValues>
        -1.0890935361385345e-01 4.5651960372924805e-01</leafValues></_>
    <_>
      <internalNodes>
        0 -1 65445 -6.7067239433526993e-03</internalNodes>
      <leafValues>
        -7.8381133079528809e-01 6.6262304782867432e-02</leafValues></_>
    <_>
      <internalNodes>
        0 -1 58553 -1.2908175587654114e-02</internalNodes>
      <leafValues>
        -7.9839724302291870e-01 3.7499368190765381e-02</leafValues></_></weakClassifiers></stage2>
</opencv_storage>
