<?xml version="1.0"?>
<opencv_storage>
<stage3>
  <maxWeakCount>86</maxWeakCount>
  <stageThreshold>-9.6673354506492615e-02</stageThreshold>
  <weakClassifiers>
    <_>
      <internalNodes>
        0 -1 63562 1.0755521059036255e-01</internalNodes>
      <leafValues>
        -4.6078431606292725e-01 2.3188406229019165e-01</leafValues></_>
    <_>
      <internalNodes>
        0 -1 71005 -2.8135016560554504e-02</internalNodes>
      <leafValues>
        3.4258913993835449e-01 -2.7336835861206055e-01</leafValues></_>
    <_>
      <internalNodes>
        0 -1 149531 -1.5794936567544937e-02</internalNodes>
      <leafValues>
        9.7175292670726776e-02 -7.2661495208740234e-01</leafValues></_>
    <_>
      <internalNodes>
        0 -1 120817 1.8065979704260826e-02</internalNodes>
      <leafValues>
        -5.6115571409463882e-02 7.9967981576919556e-01</leafValues></_>
    <_>
      <internalNodes>
        0 -1 121006 -3.6479081027209759e-03</internalNodes>
      <leafValues>
        5.2183419466018677e-01 -1.1469142884016037e-01</leafValues></_>
    <_>
      <internalNodes>
        0 -1 151080 -3.0460149049758911e-02</internalNodes>
      <leafValues>
        -5.2415412664413452e-01 1.0826187580823898e-01</leafValues></_>
    <_>
      <internalNodes>
        0 -1 104363 2.0993307232856750e-02</internalNodes>
      <leafValues>
        -7.1837186813354492e-02 6.3453322649002075e-01</leafValues></_>
    <_>
      <internalNodes>
        0 -1 119574 -3.2356912270188332e-03</internalNodes>
      <leafValues>
        3.6790940165519714e-01 -1.5988042950630188e-01</leafValues></_>
    <_>
      <internalNodes>
        0 -1 38892 2.0186167210340500e-02</internalNodes>
      <leafValues>
        -1.5595823526382446e-01 3.0156409740447998e-01</leafValues></_>
    <_>
      <internalNodes>
        0 -1 129113 -2.2101543843746185e-02</internalNodes>
      <leafValues>
        5.5125858634710312e-02 -7.9815810918807983e-01</leafValues></_>
    <_>
      <internalNodes>
        0 -1 108067 -9.7227236256003380e-03</internalNodes>
      <leafValues>
        5.0854969024658203e-01 -1.0988361388444901e-01</leafValues></_>
    <_>
      <internalNodes>
        0 -1 17324 -3.6881163716316223e-02</internalNodes>
      <leafValues>
        -1.0108065605163574e-01 5.5014449357986450e-01</leafValues></_>
    <_>
      <internalNodes>
        0 -1 31247 -2.2598225623369217e-03</internalNodes>
      <leafValues>
        1.9550536572933197e-01 -2.5927647948265076e-01</leafValues></_>
    <_>
      <internalNodes>
        0 -1 21163 8.9027851819992065e-02</internalNodes>
      <leafValues>
        8.0947473645210266e-02 -7.2671473026275635e-01</leafValues></_>
    <_>
      <internalNodes>
        0 -1 152706 5.1285801455378532e-03</internalNodes>
      <leafValues>
        -1.5457406640052795e-01 3.5844969749450684e-01</leafValues></_>
    <_>
      <internalNodes>
        0 -1 101173 -4.8229494132101536e-03</internalNodes>
      <leafValues>
        3.7150466442108154e-01 -1.2546755373477936e-01</leafValues></_>
    <_>
      <internalNodes>
        0 -1 98712 4.9509624950587749e-03</internalNodes>
      <leafValues>
        -1.4149759709835052e-01 4.4469597935676575e-01</leafValues></_>
    <_>
      <internalNodes>
        0 -1 114130 1.8379930406808853e-02</internalNodes>
      <leafValues>
        -5.8092709630727768e-02 8.0185282230377197e-01</leafValues></_>
    <_>
      <internalNodes>
        0 -1 79565 1.4141716063022614e-02</internalNodes>
      <leafValues>
        -1.0597217828035355e-01 4.7922670841217041e-01</leafValues></_>
    <_>
      <internalNodes>
        0 -1 88749 -1.2000140734016895e-02</internalNodes>
      <leafValues>
        5.2545970678329468e-01 -1.2911128997802734e-01</leafValues></_>
    <_>
      <internalNodes>
        0 -1 151336 1.4530487358570099e-02</internalNodes>
      <leafValues>
        9.4355106353759766e-02 -5.9331929683685303e-01</leafValues></_>
    <_>
      <internalNodes>
        0 -1 161233 9.0574249625205994e-03</internalNodes>
      <leafValues>
        -9.1860905289649963e-02 5.6483727693557739e-01</leafValues></_>
    <_>
      <internalNodes>
        0 -1 117886 3.7892053369432688e-03</internalNodes>
      <leafValues>
        -1.0536111891269684e-01 3.8164830207824707e-01</leafValues></_>
    <_>
      <internalNodes>
        0 -1 137259 -1.5670528635382652e-02</internalNodes>
      <leafValues>
        -4.1401597857475281e-01 1.2074963003396988e-01</leafValues></_>
    <_>
      <internalNodes>
        0 -1 107599 -2.3627310991287231e-02</internalNodes>
      <leafValues>
        -8.2043552398681641e-01 5.3612627089023590e-02</leafValues></_>
    <_>
      <internalNodes>
        0 -1 80800 3.1884845811873674e-03</internalNodes>
      <leafValues>
        -1.4190833270549774e-01 3.2952859997749329e-01</leafValues></_>
    <_>
      <internalNodes>
        0 -1 63792 2.8586644679307938e-02</internalNodes>
      <leafValues>
        9.7972996532917023e-02 -6.2991148233413696e-01</leafValues></_>
    <_>
      <internalNodes>
        0 -1 57550 -6.7708924412727356e-02</internalNodes>
      <leafValues>
        7.5555706024169922e-01 -7.9288639128208160e-02</leafValues></_>
    <_>
      <internalNodes>
        0 -1 149427 -3.9006883744150400e-03</internalNodes>
      <leafValues>
        4.3218833208084106e-01 -9.7687244415283203e-02</leafValues></_>
    <_>
      <internalNodes>
        0 -1 78079 -5.9217708185315132e-03</internalNodes>
      <leafValues>
        2.7931791543960571e-01 -1.4976797997951508e-01</leafValues></_>
    <_>
      <internalNodes>
        0 -1 50350 -9.0031668543815613e-02</internalNodes>
      <leafValues>
        6.9064593315124512e-01 -6.6864579916000366e-02</leafValues></_>
    <_>
      <internalNodes>
        0 -1 82494 -5.0537651404738426e-03</internalNodes>
      <leafValues>
        -8.9529412984848022e-01 6.5926194190979004e-02</leafValues></_>
    <_>
      <internalNodes>
        0 -1 123393 2.5537505280226469e-03</internalNodes>
      <leafValues>
        -1.1943449825048447e-01 3.9945960044860840e-01</leafValues></_>
    <_>
      <internalNodes>
        0 -1 159315 -4.4932411983609200e-03</internalNodes>
      <leafValues>
        4.2642828822135925e-01 -9.3734130263328552e-02</leafValues></_>
    <_>
      <internalNodes>
        0 -1 73596 1.0647341609001160e-02</internalNodes>
      <leafValues>
        -2.1561211347579956e-01 2.2214531898498535e-01</leafValues></_>
    <_>
      <internalNodes>
        0 -1 31624 -3.4190885722637177e-02</internalNodes>
      <leafValues>
        4.4506964087486267e-01 -1.2347890436649323e-01</leafValues></_>
    <_>
      <internalNodes>
        0 -1 22708 8.1992149353027344e-03</internalNodes>
      <leafValues>
        -8.4389664232730865e-02 5.4068207740783691e-01</leafValues></_>
    <_>
      <internalNodes>
        0 -1 45 -2.3466658312827349e-03</internalNodes>
      <leafValues>
        -3.0120369791984558e-01 1.7787244915962219e-01</leafValues></_>
    <_>
      <internalNodes>
        0 -1 86615 2.8002184629440308e-01</internalNodes>
      <leafValues>
        -8.5214979946613312e-02 5.7058614492416382e-01</leafValues></_>
    <_>
      <internalNodes>
        0 -1 140039 -1.8351981998421252e-04</internalNodes>
      <leafValues>
        2.1599358320236206e-01 -2.8027927875518799e-01</leafValues></_>
    <_>
      <internalNodes>
        0 -1 143247 -8.6894119158387184e-04</internalNodes>
      <leafValues>
        2.8784862160682678e-01 -2.1381175518035889e-01</leafValues></_>
    <_>
      <internalNodes>
        0 -1 88768 -3.9315903559327126e-03</internalNodes>
      <leafValues>
        3.8076150417327881e-01 -1.0227384418249130e-01</leafValues></_>
    <_>
      <internalNodes>
        0 -1 96388 4.3656811118125916e-02</internalNodes>
      <leafValues>
        -7.3788471519947052e-02 5.2851825952529907e-01</leafValues></_>
    <_>
      <internalNodes>
        0 -1 88229 5.9206248261034489e-04</internalNodes>
      <leafValues>
        9.5974624156951904e-02 -4.7012963891029358e-01</leafValues></_>
    <_>
      <internalNodes>
        0 -1 97033 -6.3551887869834900e-03</internalNodes>
      <leafValues>
        4.9070706963539124e-01 -9.3078583478927612e-02</leafValues></_>
    <_>
      <internalNodes>
        0 -1 160559 -3.7382133305072784e-02</internalNodes>
      <leafValues>
        2.9742047190666199e-01 -1.5122570097446442e-01</leafValues></_>
    <_>
      <internalNodes>
        0 -1 36065 -5.2409696578979492e-01</internalNodes>
      <leafValues>
        -3.9199930429458618e-01 1.2438076734542847e-01</leafValues></_>
    <_>
      <internalNodes>
        0 -1 147494 2.5715981610119343e-03</internalNodes>
      <leafValues>
        -1.6625711321830750e-01 2.5653046369552612e-01</leafValues></_>
    <_>
      <internalNodes>
        0 -1 159652 4.8570698709227145e-05</internalNodes>
      <leafValues>
        2.3041442036628723e-01 -2.0217250287532806e-01</leafValues></_>
    <_>
      <internalNodes>
        0 -1 159856 2.9807238024659455e-04</internalNodes>
      <leafValues>
        1.1554920673370361e-01 -4.1475108265876770e-01</leafValues></_>
    <_>
      <internalNodes>
        0 -1 113758 -2.0185280591249466e-03</internalNodes>
      <leafValues>
        -8.6081463098526001e-01 4.5328516513109207e-02</leafValues></_>
    <_>
      <internalNodes>
        0 -1 98130 -1.3802608475089073e-02</internalNodes>
      <leafValues>
        3.7614773958921432e-02 -7.8717768192291260e-01</leafValues></_>
    <_>
      <internalNodes>
        0 -1 31710 -2.8908667154610157e-03</internalNodes>
      <leafValues>
        4.1423320770263672e-01 -1.0937130451202393e-01</leafValues></_>
    <_>
      <internalNodes>
        0 -1 34394 -1.4219793956726789e-03</internalNodes>
      <leafValues>
        3.6623641848564148e-01 -1.3414649665355682e-01</leafValues></_>
    <_>
      <internalNodes>
        0 -1 37 -1.9979065284132957e-02</internalNodes>
      <leafValues>
        -8.1234291195869446e-02 5.7334619760513306e-01</leafValues></_>
    <_>
      <internalNodes>
        0 -1 158585 1.0730728507041931e-02</internalNodes>
      <leafValues>
        -9.2355370521545410e-02 5.1117449998855591e-01</leafValues></_>
    <_>
      <internalNodes>
        0 -1 48891 -2.6590868830680847e-02</internalNodes>
      <leafValues>
        7.2494670748710632e-02 -6.8664228916168213e-01</leafValues></_>
    <_>
      <internalNodes>
        0 -1 88744 -3.6438547074794769e-02</internalNodes>
      <leafValues>
        7.6206642389297485e-01 -7.5793616473674774e-02</leafValues></_>
    <_>
      <internalNodes>
        0 -1 86965 5.4892129264771938e-03</internalNodes>
      <leafValues>
        -1.6529804468154907e-01 2.7401229739189148e-01</leafValues></_>
    <_>
      <internalNodes>
        0 -1 137991 -9.0048471465706825e-03</internalNodes>
      <leafValues>
        -3.9633178710937500e-01 1.2963791191577911e-01</leafValues></_>
    <_>
      <internalNodes>
        0 -1 115223 2.7631325647234917e-02</internalNodes>
      <leafValues>
        4.4966138899326324e-02 -8.8154941797256470e-01</leafValues></_>
    <_>
      <internalNodes>
        0 -1 70479 5.8218088001012802e-02</internalNodes>
      <leafValues>
        -8.6796045303344727e-02 5.4352462291717529e-01</leafValues></_>
    <_>
      <internalNodes>
        0 -1 12326 7.2941081598401070e-03</internalNodes>
      <leafValues>
        8.7530396878719330e-02 -5.1222854852676392e-01</leafValues></_>
    <_>
      <internalNodes>
        0 -1 102482 5.2400231361389160e-02</internalNodes>
      <leafValues>
        7.9733878374099731e-02 -5.1967304944992065e-01</leafValues></_>
    <_>
      <internalNodes>
        0 -1 4094 -9.5282041002064943e-04</internalNodes>
      <leafValues>
        -3.4963378310203552e-01 1.2509956955909729e-01</leafValues></_>
    <_>
      <internalNodes>
        0 -1 157643 -1.3028709217905998e-02</internalNodes>
      <leafValues>
        7.5928086042404175e-01 -6.3948072493076324e-02</leafValues></_>
    <_>
      <internalNodes>
        0 -1 132071 3.4578487975522876e-04</internalNodes>
      <leafValues>
        -1.2255036085844040e-01 3.3964505791664124e-01</leafValues></_>
    <_>
      <internalNodes>
        0 -1 150262 -1.9610852003097534e-02</internalNodes>
      <leafValues>
        5.4097157716751099e-01 -7.7052667737007141e-02</leafValues></_>
    <_>
      <internalNodes>
        0 -1 157785 1.4561929274350405e-03</internalNodes>
      <leafValues>
        1.0742048919200897e-01 -4.2438802123069763e-01</leafValues></_>
    <_>
      <internalNodes>
        0 -1 156662 7.6123429462313652e-03</internalNodes>
      <leafValues>
        -1.2827503681182861e-01 4.1365316510200500e-01</leafValues></_>
    <_>
      <internalNodes>
        0 -1 140070 1.5052046626806259e-02</internalNodes>
      <leafValues>
        -7.3270961642265320e-02 5.3516370058059692e-01</leafValues></_>
    <_>
      <internalNodes>
        0 -1 142190 -1.9502473296597600e-03</internalNodes>
      <leafValues>
        2.9294559359550476e-01 -1.3970749080181122e-01</leafValues></_>
    <_>
      <internalNodes>
        0 -1 70068 -7.4365947511978447e-05</internalNodes>
      <leafValues>
        2.1946395933628082e-01 -2.0900294184684753e-01</leafValues></_>
    <_>
      <internalNodes>
        0 -1 40745 -5.9239286929368973e-03</internalNodes>
      <leafValues>
        -5.5239528417587280e-02 7.5728464126586914e-01</leafValues></_>
    <_>
      <internalNodes>
        0 -1 134227 4.6916059218347073e-03</internalNodes>
      <leafValues>
        -9.2805385589599609e-02 4.2080521583557129e-01</leafValues></_>
    <_>
      <internalNodes>
        0 -1 32607 4.0041059255599976e-03</internalNodes>
      <leafValues>
        -1.6177709400653839e-01 3.0521669983863831e-01</leafValues></_>
    <_>
      <internalNodes>
        0 -1 68783 -2.6244700420647860e-03</internalNodes>
      <leafValues>
        2.1514944732189178e-01 -1.9214393198490143e-01</leafValues></_>
    <_>
      <internalNodes>
        0 -1 149957 -4.0609698742628098e-02</internalNodes>
      <leafValues>
        -6.3076996803283691e-01 7.2352133691310883e-02</leafValues></_>
    <_>
      <internalNodes>
        0 -1 45414 -1.7673138529062271e-02</internalNodes>
      <leafValues>
        2.7398633956909180e-01 -1.5501943230628967e-01</leafValues></_>
    <_>
      <internalNodes>
        0 -1 86056 -2.7130790054798126e-02</internalNodes>
      <leafValues>
        4.2141252756118774e-01 -1.2548974156379700e-01</leafValues></_>
    <_>
      <internalNodes>
        0 -1 148909 3.4560491330921650e-03</internalNodes>
      <leafValues>
        -1.4578609168529510e-01 3.0386957526206970e-01</leafValues></_>
    <_>
      <internalNodes>
        0 -1 98418 -2.3120038677006960e-03</internalNodes>
      <leafValues>
        2.5982740521430969e-01 -1.7961607873439789e-01</leafValues></_>
    <_>
      <internalNodes>
        0 -1 80760 1.1121041607111692e-03</internalNodes>
      <leafValues>
        -8.8732339441776276e-02 4.9973675608634949e-01</leafValues></_>
    <_>
      <internalNodes>
        0 -1 35411 -1.4040949754416943e-03</internalNodes>
      <leafValues>
        3.6353620886802673e-01 -1.0992638766765594e-01</leafValues></_>
    <_>
      <internalNodes>
        0 -1 134376 -2.6540879160165787e-02</internalNodes>
      <leafValues>
        5.2558731287717819e-02 -8.1267154216766357e-01</leafValues></_>
    <_>
      <internalNodes>
        0 -1 159833 -5.3512337617576122e-03</internalNodes>
      <leafValues>
        -8.5774190723896027e-02 6.1025851964950562e-01</leafValues></_></weakClassifiers></stage3>
</opencv_storage>
