<?xml version="1.0"?>
<opencv_storage>
<cascade>
  <stageType>BOOST</stageType>
  <featureType>HAAR</featureType>
  <height>24</height>
  <width>24</width>
  <stageParams>
    <boostType>GAB</boostType>
    <minHitRate>9.9900001287460327e-01</minHitRate>
    <maxFalseAlarm>1.0000000474974513e-03</maxFalseAlarm>
    <weightTrimRate>9.4999999999999996e-01</weightTrimRate>
    <maxDepth>1</maxDepth>
    <maxWeakCount>100</maxWeakCount></stageParams>
  <featureParams>
    <maxCatCount>0</maxCatCount>
    <featSize>1</featSize>
    <mode>BASIC</mode></featureParams>
  <stageNum>10</stageNum>
  <stages>
    <!-- stage 0 -->
    <_>
      <maxWeakCount>1</maxWeakCount>
      <stageThreshold>1.</stageThreshold>
      <weakClassifiers>
        <_>
          <internalNodes>
            0 -1 6 -4.5915402472019196e-02</internalNodes>
          <leafValues>
            1. -1.</leafValues></_></weakClassifiers></_>
    <!-- stage 1 -->
    <_>
      <maxWeakCount>5</maxWeakCount>
      <stageThreshold>6.9822436571121216e-01</stageThreshold>
      <weakClassifiers>
        <_>
          <internalNodes>
            0 -1 36 -1.2611992657184601e-01</internalNodes>
          <leafValues>
            8.6538463830947876e-01 -9.6938776969909668e-01</leafValues></_>
        <_>
          <internalNodes>
            0 -1 10 1.2673251330852509e-02</internalNodes>
          <leafValues>
            -9.0827518701553345e-01 9.0274441242218018e-01</leafValues></_>
        <_>
          <internalNodes>
            0 -1 23 -7.1552187204360962e-02</internalNodes>
          <leafValues>
            8.9123857021331787e-01 -9.4107490777969360e-01</leafValues></_>
        <_>
          <internalNodes>
            0 -1 41 2.7930222451686859e-02</internalNodes>
          <leafValues>
            -9.0665757656097412e-01 7.8084224462509155e-01</leafValues></_>
        <_>
          <internalNodes>
            0 -1 0 1.0229483246803284e-01</internalNodes>
          <leafValues>
            -9.1701364517211914e-01 7.8028666973114014e-01</leafValues></_></weakClassifiers></_>
    <!-- stage 2 -->
    <_>
      <maxWeakCount>6</maxWeakCount>
      <stageThreshold>9.1705137491226196e-01</stageThreshold>
      <weakClassifiers>
        <_>
          <internalNodes>
            0 -1 53 -4.5206081122159958e-03</internalNodes>
          <leafValues>
            -8.4236454963684082e-01 7.3195874691009521e-01</leafValues></_>
        <_>
          <internalNodes>
            0 -1 15 -8.0497609451413155e-03</internalNodes>
          <leafValues>
            -9.0452206134796143e-01 7.2434061765670776e-01</leafValues></_>
        <_>
          <internalNodes>
            0 -1 33 -1.4234813861548901e-03</internalNodes>
          <leafValues>
            5.7590371370315552e-01 -9.1138744354248047e-01</leafValues></_>
        <_>
          <internalNodes>
            0 -1 2 3.3423744142055511e-02</internalNodes>
          <leafValues>
            -8.3206868171691895e-01 6.7991793155670166e-01</leafValues></_>
        <_>
          <internalNodes>
            0 -1 24 -5.3618866950273514e-02</internalNodes>
          <leafValues>
            -8.7068450450897217e-01 6.5336185693740845e-01</leafValues></_>
        <_>
          <internalNodes>
            0 -1 42 -1.1080149561166763e-02</internalNodes>
          <leafValues>
            7.0657879114151001e-01 -8.7410831451416016e-01</leafValues></_></weakClassifiers></_>
    <!-- stage 3 -->
    <_>
      <maxWeakCount>7</maxWeakCount>
      <stageThreshold>4.0394663810729980e-01</stageThreshold>
      <weakClassifiers>
        <_>
          <internalNodes>
            0 -1 55 -3.1096558086574078e-03</internalNodes>
          <leafValues>
            5.8095240592956543e-01 -8.2564103603363037e-01</leafValues></_>
        <_>
          <internalNodes>
            0 -1 1 1.2699830112978816e-03</internalNodes>
          <leafValues>
            -8.5168987512588501e-01 6.0667854547500610e-01</leafValues></_>
        <_>
          <internalNodes>
            0 -1 19 4.1787829104578122e-05</internalNodes>
          <leafValues>
            -7.2383934259414673e-01 7.0863217115402222e-01</leafValues></_>
        <_>
          <internalNodes>
            0 -1 29 2.2180081577971578e-04</internalNodes>
          <leafValues>
            -6.9129902124404907e-01 7.2493642568588257e-01</leafValues></_>
        <_>
          <internalNodes>
            0 -1 52 -4.7549228183925152e-03</internalNodes>
          <leafValues>
            5.9435409307479858e-01 -7.8213739395141602e-01</leafValues></_>
        <_>
          <internalNodes>
            0 -1 40 -2.2012451663613319e-03</internalNodes>
          <leafValues>
            7.0057100057601929e-01 -7.4304980039596558e-01</leafValues></_>
        <_>
          <internalNodes>
            0 -1 46 7.2194322943687439e-02</internalNodes>
          <leafValues>
            -6.2133806943893433e-01 8.2572489976882935e-01</leafValues></_></weakClassifiers></_>
    <!-- stage 4 -->
    <_>
      <maxWeakCount>5</maxWeakCount>
      <stageThreshold>6.4850628376007080e-01</stageThreshold>
      <weakClassifiers>
        <_>
          <internalNodes>
            0 -1 3 1.1771688237786293e-02</internalNodes>
          <leafValues>
            -9.5939087867736816e-01 8.6407768726348877e-01</leafValues></_>
        <_>
          <internalNodes>
            0 -1 4 4.3877946154680103e-05</internalNodes>
          <leafValues>
            -9.3363571166992188e-01 8.2501029968261719e-01</leafValues></_>
        <_>
          <internalNodes>
            0 -1 48 -3.6513002123683691e-04</internalNodes>
          <leafValues>
            7.3011976480484009e-01 -9.4609588384628296e-01</leafValues></_>
        <_>
          <internalNodes>
            0 -1 43 -6.3586409669369459e-04</internalNodes>
          <leafValues>
            9.6300810575485229e-01 -7.3771035671234131e-01</leafValues></_>
        <_>
          <internalNodes>
            0 -1 45 -3.6802061367779970e-04</internalNodes>
          <leafValues>
            7.9047745466232300e-01 -8.7272053956985474e-01</leafValues></_></weakClassifiers></_>
    <!-- stage 5 -->
    <_>
      <maxWeakCount>8</maxWeakCount>
      <stageThreshold>9.4346992671489716e-02</stageThreshold>
      <weakClassifiers>
        <_>
          <internalNodes>
            0 -1 27 -9.6865103114396334e-04</internalNodes>
          <leafValues>
            8.3999997377395630e-01 -7.2444444894790649e-01</leafValues></_>
        <_>
          <internalNodes>
            0 -1 7 9.4273628201335669e-04</internalNodes>
          <leafValues>
            -6.2999767065048218e-01 7.2366565465927124e-01</leafValues></_>
        <_>
          <internalNodes>
            0 -1 34 6.4003132283687592e-03</internalNodes>
          <leafValues>
            -7.6802128553390503e-01 6.6655069589614868e-01</leafValues></_>
        <_>
          <internalNodes>
            0 -1 49 -4.5898818643763661e-04</internalNodes>
          <leafValues>
            6.4547145366668701e-01 -5.8388048410415649e-01</leafValues></_>
        <_>
          <internalNodes>
            0 -1 21 -1.5434052329510450e-03</internalNodes>
          <leafValues>
            -9.3671941757202148e-01 4.2060336470603943e-01</leafValues></_>
        <_>
          <internalNodes>
            0 -1 39 1.5025210450403392e-04</internalNodes>
          <leafValues>
            -5.2131420373916626e-01 8.0540460348129272e-01</leafValues></_>
        <_>
          <internalNodes>
            0 -1 47 2.3881075321696699e-04</internalNodes>
          <leafValues>
            -4.6907031536102295e-01 8.1871372461318970e-01</leafValues></_>
        <_>
          <internalNodes>
            0 -1 26 -4.3662800453603268e-04</internalNodes>
          <leafValues>
            9.1373699903488159e-01 -5.0032728910446167e-01</leafValues></_></weakClassifiers></_>
    <!-- stage 6 -->
    <_>
      <maxWeakCount>5</maxWeakCount>
      <stageThreshold>5.7976585626602173e-01</stageThreshold>
      <weakClassifiers>
        <_>
          <internalNodes>
            0 -1 30 -2.9803368306602351e-05</internalNodes>
          <leafValues>
            7.3214286565780640e-01 -9.6808511018753052e-01</leafValues></_>
        <_>
          <internalNodes>
            0 -1 31 -3.2150942832231522e-02</internalNodes>
          <leafValues>
            -9.2063826322555542e-01 7.1700441837310791e-01</leafValues></_>
        <_>
          <internalNodes>
            0 -1 50 -2.4662917712703347e-04</internalNodes>
          <leafValues>
            9.8875510692596436e-01 -7.5177675485610962e-01</leafValues></_>
        <_>
          <internalNodes>
            0 -1 32 -2.3969997710082680e-04</internalNodes>
          <leafValues>
            8.4734928607940674e-01 -7.8132390975952148e-01</leafValues></_>
        <_>
          <internalNodes>
            0 -1 17 2.7421973645687103e-03</internalNodes>
          <leafValues>
            7.3527407646179199e-01 -9.2587125301361084e-01</leafValues></_></weakClassifiers></_>
    <!-- stage 7 -->
    <_>
      <maxWeakCount>7</maxWeakCount>
      <stageThreshold>5.7009333372116089e-01</stageThreshold>
      <weakClassifiers>
        <_>
          <internalNodes>
            0 -1 16 -3.9075057429727167e-05</internalNodes>
          <leafValues>
            -7.7251183986663818e-01 7.0786517858505249e-01</leafValues></_>
        <_>
          <internalNodes>
            0 -1 20 -7.2743967175483704e-03</internalNodes>
          <leafValues>
            9.5253413915634155e-01 -5.4911720752716064e-01</leafValues></_>
        <_>
          <internalNodes>
            0 -1 13 6.4650306012481451e-04</internalNodes>
          <leafValues>
            -6.7029350996017456e-01 5.9042590856552124e-01</leafValues></_>
        <_>
          <internalNodes>
            0 -1 44 -2.5373753160238266e-02</internalNodes>
          <leafValues>
            -6.0343348979949951e-01 6.7635267972946167e-01</leafValues></_>
        <_>
          <internalNodes>
            0 -1 51 -6.2368184444494545e-05</internalNodes>
          <leafValues>
            4.9131098389625549e-01 -8.4167987108230591e-01</leafValues></_>
        <_>
          <internalNodes>
            0 -1 35 -2.6782834902405739e-04</internalNodes>
          <leafValues>
            6.4380264282226563e-01 -6.3524466753005981e-01</leafValues></_>
        <_>
          <internalNodes>
            0 -1 5 1.1368329823017120e-01</internalNodes>
          <leafValues>
            -6.3778650760650635e-01 7.6887750625610352e-01</leafValues></_></weakClassifiers></_>
    <!-- stage 8 -->
    <_>
      <maxWeakCount>5</maxWeakCount>
      <stageThreshold>6.0945320129394531e-01</stageThreshold>
      <weakClassifiers>
        <_>
          <internalNodes>
            0 -1 38 -2.2637803107500076e-02</internalNodes>
          <leafValues>
            8.0392158031463623e-01 -9.1919189691543579e-01</leafValues></_>
        <_>
          <internalNodes>
            0 -1 25 -1.1835788190364838e-01</internalNodes>
          <leafValues>
            7.4587845802307129e-01 -9.3247765302658081e-01</leafValues></_>
        <_>
          <internalNodes>
            0 -1 11 2.5981366634368896e-03</internalNodes>
          <leafValues>
            -9.3619638681411743e-01 6.1839240789413452e-01</leafValues></_>
        <_>
          <internalNodes>
            0 -1 37 -2.4198450148105621e-02</internalNodes>
          <leafValues>
            8.2029813528060913e-01 -7.9959529638290405e-01</leafValues></_>
        <_>
          <internalNodes>
            0 -1 22 -2.8534736484289169e-03</internalNodes>
          <leafValues>
            9.9090892076492310e-01 -6.5592384338378906e-01</leafValues></_></weakClassifiers></_>
    <!-- stage 9 -->
    <_>
      <maxWeakCount>7</maxWeakCount>
      <stageThreshold>2.2302342951297760e-01</stageThreshold>
      <weakClassifiers>
        <_>
          <internalNodes>
            0 -1 9 4.4448846019804478e-03</internalNodes>
          <leafValues>
            -7.8431373834609985e-01 6.2500000000000000e-01</leafValues></_>
        <_>
          <internalNodes>
            0 -1 14 -1.4271506806835532e-03</internalNodes>
          <leafValues>
            8.4223705530166626e-01 -6.2115019559860229e-01</leafValues></_>
        <_>
          <internalNodes>
            0 -1 18 5.0889395177364349e-02</internalNodes>
          <leafValues>
            6.0660713911056519e-01 -7.1905887126922607e-01</leafValues></_>
        <_>
          <internalNodes>
            0 -1 28 -9.0551748871803284e-02</internalNodes>
          <leafValues>
            -9.3589520454406738e-01 4.4528636336326599e-01</leafValues></_>
        <_>
          <internalNodes>
            0 -1 12 1.4573712833225727e-03</internalNodes>
          <leafValues>
            -7.2497183084487915e-01 6.7564880847930908e-01</leafValues></_>
        <_>
          <internalNodes>
            0 -1 54 2.0221016893628985e-04</internalNodes>
          <leafValues>
            -7.3631751537322998e-01 5.4239356517791748e-01</leafValues></_>
        <_>
          <internalNodes>
            0 -1 8 1.2179600889794528e-04</internalNodes>
          <leafValues>
            -6.4144849777221680e-01 7.9329437017440796e-01</leafValues></_></weakClassifiers></_></stages>
  <features>
    <_>
      <rects>
        <_>
          0 0 10 24 -1.</_>
        <_>
          5 0 5 24 2.</_></rects>
      <tilted>0</tilted></_>
    <_>
      <rects>
        <_>
          0 0 21 3 -1.</_>
        <_>
          7 0 7 3 2.</_></rects>
      <tilted>0</tilted></_>
    <_>
      <rects>
        <_>
          0 0 10 10 -1.</_>
        <_>
          0 5 10 5 2.</_></rects>
      <tilted>0</tilted></_>
    <_>
      <rects>
        <_>
          0 1 6 9 -1.</_>
        <_>
          3 1 3 9 2.</_></rects>
      <tilted>0</tilted></_>
    <_>
      <rects>
        <_>
          0 8 7 4 -1.</_>
        <_>
          0 10 7 2 2.</_></rects>
      <tilted>0</tilted></_>
    <_>
      <rects>
        <_>
          0 8 18 14 -1.</_>
        <_>
          9 8 9 14 2.</_></rects>
      <tilted>0</tilted></_>
    <_>
      <rects>
        <_>
          0 14 22 3 -1.</_>
        <_>
          0 15 22 1 2.</_></rects>
      <tilted>0</tilted></_>
    <_>
      <rects>
        <_>
          0 16 1 8 -1.</_>
        <_>
          0 20 1 4 2.</_></rects>
      <tilted>0</tilted></_>
    <_>
      <rects>
        <_>
          0 20 6 4 -1.</_>
        <_>
          0 20 3 2 2.</_>
        <_>
          3 22 3 2 2.</_></rects>
      <tilted>0</tilted></_>
    <_>
      <rects>
        <_>
          0 20 7 4 -1.</_>
        <_>
          0 22 7 2 2.</_></rects>
      <tilted>0</tilted></_>
    <_>
      <rects>
        <_>
          0 20 18 1 -1.</_>
        <_>
          9 20 9 1 2.</_></rects>
      <tilted>0</tilted></_>
    <_>
      <rects>
        <_>
          1 3 8 4 -1.</_>
        <_>
          1 5 8 2 2.</_></rects>
      <tilted>0</tilted></_>
    <_>
      <rects>
        <_>
          1 6 5 4 -1.</_>
        <_>
          1 8 5 2 2.</_></rects>
      <tilted>0</tilted></_>
    <_>
      <rects>
        <_>
          1 8 8 8 -1.</_>
        <_>
          1 8 4 4 2.</_>
        <_>
          5 12 4 4 2.</_></rects>
      <tilted>0</tilted></_>
    <_>
      <rects>
        <_>
          1 12 14 2 -1.</_>
        <_>
          1 12 7 1 2.</_>
        <_>
          8 13 7 1 2.</_></rects>
      <tilted>0</tilted></_>
    <_>
      <rects>
        <_>
          1 19 3 4 -1.</_>
        <_>
          2 19 1 4 2.</_></rects>
      <tilted>0</tilted></_>
    <_>
      <rects>
        <_>
          2 19 3 1 -1.</_>
        <_>
          3 19 1 1 2.</_></rects>
      <tilted>0</tilted></_>
    <_>
      <rects>
        <_>
          3 8 3 2 -1.</_>
        <_>
          3 9 3 1 2.</_></rects>
      <tilted>0</tilted></_>
    <_>
      <rects>
        <_>
          4 7 14 17 -1.</_>
        <_>
          11 7 7 17 2.</_></rects>
      <tilted>0</tilted></_>
    <_>
      <rects>
        <_>
          4 11 1 2 -1.</_>
        <_>
          4 12 1 1 2.</_></rects>
      <tilted>0</tilted></_>
    <_>
      <rects>
        <_>
          5 17 10 1 -1.</_>
        <_>
          10 17 5 1 2.</_></rects>
      <tilted>0</tilted></_>
    <_>
      <rects>
        <_>
          7 3 8 3 -1.</_>
        <_>
          11 3 4 3 2.</_></rects>
      <tilted>0</tilted></_>
    <_>
      <rects>
        <_>
          7 20 6 4 -1.</_>
        <_>
          7 20 3 2 2.</_>
        <_>
          10 22 3 2 2.</_></rects>
      <tilted>0</tilted></_>
    <_>
      <rects>
        <_>
          8 0 16 7 -1.</_>
        <_>
          16 0 8 7 2.</_></rects>
      <tilted>0</tilted></_>
    <_>
      <rects>
        <_>
          9 0 3 13 -1.</_>
        <_>
          10 0 1 13 2.</_></rects>
      <tilted>0</tilted></_>
    <_>
      <rects>
        <_>
          9 3 6 17 -1.</_>
        <_>
          11 3 2 17 2.</_></rects>
      <tilted>0</tilted></_>
    <_>
      <rects>
        <_>
          9 8 1 2 -1.</_>
        <_>
          9 9 1 1 2.</_></rects>
      <tilted>0</tilted></_>
    <_>
      <rects>
        <_>
          9 8 2 2 -1.</_>
        <_>
          9 9 2 1 2.</_></rects>
      <tilted>0</tilted></_>
    <_>
      <rects>
        <_>
          9 8 7 9 -1.</_>
        <_>
          9 11 7 3 2.</_></rects>
      <tilted>0</tilted></_>
    <_>
      <rects>
        <_>
          9 14 1 2 -1.</_>
        <_>
          9 15 1 1 2.</_></rects>
      <tilted>0</tilted></_>
    <_>
      <rects>
        <_>
          10 0 8 2 -1.</_>
        <_>
          14 0 4 2 2.</_></rects>
      <tilted>0</tilted></_>
    <_>
      <rects>
        <_>
          10 3 5 10 -1.</_>
        <_>
          10 8 5 5 2.</_></rects>
      <tilted>0</tilted></_>
    <_>
      <rects>
        <_>
          10 11 2 4 -1.</_>
        <_>
          11 11 1 4 2.</_></rects>
      <tilted>0</tilted></_>
    <_>
      <rects>
        <_>
          10 14 4 4 -1.</_>
        <_>
          12 14 2 4 2.</_></rects>
      <tilted>0</tilted></_>
    <_>
      <rects>
        <_>
          10 14 5 6 -1.</_>
        <_>
          10 17 5 3 2.</_></rects>
      <tilted>0</tilted></_>
    <_>
      <rects>
        <_>
          10 17 2 2 -1.</_>
        <_>
          11 17 1 2 2.</_></rects>
      <tilted>0</tilted></_>
    <_>
      <rects>
        <_>
          11 2 5 21 -1.</_>
        <_>
          11 9 5 7 2.</_></rects>
      <tilted>0</tilted></_>
    <_>
      <rects>
        <_>
          11 15 3 7 -1.</_>
        <_>
          12 15 1 7 2.</_></rects>
      <tilted>0</tilted></_>
    <_>
      <rects>
        <_>
          12 1 10 3 -1.</_>
        <_>
          17 1 5 3 2.</_></rects>
      <tilted>0</tilted></_>
    <_>
      <rects>
        <_>
          12 10 2 2 -1.</_>
        <_>
          12 10 1 1 2.</_>
        <_>
          13 11 1 1 2.</_></rects>
      <tilted>0</tilted></_>
    <_>
      <rects>
        <_>
          12 17 4 3 -1.</_>
        <_>
          14 17 2 3 2.</_></rects>
      <tilted>0</tilted></_>
    <_>
      <rects>
        <_>
          13 1 10 18 -1.</_>
        <_>
          13 1 5 9 2.</_>
        <_>
          18 10 5 9 2.</_></rects>
      <tilted>0</tilted></_>
    <_>
      <rects>
        <_>
          14 7 10 14 -1.</_>
        <_>
          14 14 10 7 2.</_></rects>
      <tilted>0</tilted></_>
    <_>
      <rects>
        <_>
          14 19 10 2 -1.</_>
        <_>
          14 19 5 1 2.</_>
        <_>
          19 20 5 1 2.</_></rects>
      <tilted>0</tilted></_>
    <_>
      <rects>
        <_>
          14 20 9 4 -1.</_>
        <_>
          17 20 3 4 2.</_></rects>
      <tilted>0</tilted></_>
    <_>
      <rects>
        <_>
          15 10 5 4 -1.</_>
        <_>
          15 12 5 2 2.</_></rects>
      <tilted>0</tilted></_>
    <_>
      <rects>
        <_>
          16 0 6 12 -1.</_>
        <_>
          16 6 6 6 2.</_></rects>
      <tilted>0</tilted></_>
    <_>
      <rects>
        <_>
          16 0 7 2 -1.</_>
        <_>
          16 1 7 1 2.</_></rects>
      <tilted>0</tilted></_>
    <_>
      <rects>
        <_>
          17 9 3 4 -1.</_>
        <_>
          17 11 3 2 2.</_></rects>
      <tilted>0</tilted></_>
    <_>
      <rects>
        <_>
          17 22 2 2 -1.</_>
        <_>
          17 23 2 1 2.</_></rects>
      <tilted>0</tilted></_>
    <_>
      <rects>
        <_>
          19 8 1 2 -1.</_>
        <_>
          19 9 1 1 2.</_></rects>
      <tilted>0</tilted></_>
    <_>
      <rects>
        <_>
          19 10 1 2 -1.</_>
        <_>
          19 11 1 1 2.</_></rects>
      <tilted>0</tilted></_>
    <_>
      <rects>
        <_>
          19 17 4 7 -1.</_>
        <_>
          21 17 2 7 2.</_></rects>
      <tilted>0</tilted></_>
    <_>
      <rects>
        <_>
          20 0 4 24 -1.</_>
        <_>
          20 8 4 8 2.</_></rects>
      <tilted>0</tilted></_>
    <_>
      <rects>
        <_>
          20 6 3 2 -1.</_>
        <_>
          20 7 3 1 2.</_></rects>
      <tilted>0</tilted></_>
    <_>
      <rects>
        <_>
          20 16 4 2 -1.</_>
        <_>
          22 16 2 2 2.</_></rects>
      <tilted>0</tilted></_></features></cascade>
</opencv_storage>
