<?xml version="1.0"?>
<opencv_storage>
<cascade>
  <stageType>BOOST</stageType>
  <featureType>HAAR</featureType>
  <height>24</height>
  <width>24</width>
  <stageParams>
    <boostType>GAB</boostType>
    <minHitRate>9.9500000476837158e-01</minHitRate>
    <maxFalseAlarm>1.0000000474974513e-03</maxFalseAlarm>
    <weightTrimRate>9.4999999999999996e-01</weightTrimRate>
    <maxDepth>1</maxDepth>
    <maxWeakCount>100</maxWeakCount></stageParams>
  <featureParams>
    <maxCatCount>0</maxCatCount>
    <featSize>1</featSize>
    <mode>BASIC</mode></featureParams>
  <stageNum>16</stageNum>
  <stages>
    <!-- stage 0 -->
    <_>
      <maxWeakCount>9</maxWeakCount>
      <stageThreshold>6.7239451408386230e-01</stageThreshold>
      <weakClassifiers>
        <_>
          <internalNodes>
            0 -1 95 -1.1057305335998535e-01</internalNodes>
          <leafValues>
            -7.7631580829620361e-01 6.1538463830947876e-01</leafValues></_>
        <_>
          <internalNodes>
            0 -1 150 8.8045671582221985e-03</internalNodes>
          <leafValues>
            -7.3748636245727539e-01 6.0341173410415649e-01</leafValues></_>
        <_>
          <internalNodes>
            0 -1 55 -3.8377948105335236e-02</internalNodes>
          <leafValues>
            -7.3790413141250610e-01 5.6070011854171753e-01</leafValues></_>
        <_>
          <internalNodes>
            0 -1 175 -3.5350252874195576e-03</internalNodes>
          <leafValues>
            8.2642209529876709e-01 -5.2992850542068481e-01</leafValues></_>
        <_>
          <internalNodes>
            0 -1 123 -5.9397546574473381e-03</internalNodes>
          <leafValues>
            -5.1111918687820435e-01 7.1773964166641235e-01</leafValues></_>
        <_>
          <internalNodes>
            0 -1 16 -1.3844040222465992e-02</internalNodes>
          <leafValues>
            8.1003314256668091e-01 -4.8087924718856812e-01</leafValues></_>
        <_>
          <internalNodes>
            0 -1 161 3.3234328031539917e-02</internalNodes>
          <leafValues>
            -3.9438486099243164e-01 8.6832100152969360e-01</leafValues></_>
        <_>
          <internalNodes>
            0 -1 12 -1.2237700819969177e-01</internalNodes>
          <leafValues>
            -9.1429823637008667e-01 4.7314900159835815e-01</leafValues></_>
        <_>
          <internalNodes>
            0 -1 184 -6.6540599800646305e-03</internalNodes>
          <leafValues>
            -8.4281229972839355e-01 4.6088504791259766e-01</leafValues></_></weakClassifiers></_>
    <!-- stage 1 -->
    <_>
      <maxWeakCount>11</maxWeakCount>
      <stageThreshold>6.2119710445404053e-01</stageThreshold>
      <weakClassifiers>
        <_>
          <internalNodes>
            0 -1 7 -2.8324747085571289e-01</internalNodes>
          <leafValues>
            8.0487805604934692e-01 -5.4497355222702026e-01</leafValues></_>
        <_>
          <internalNodes>
            0 -1 53 1.1895796656608582e-01</internalNodes>
          <leafValues>
            -4.6240478754043579e-01 8.0378162860870361e-01</leafValues></_>
        <_>
          <internalNodes>
            0 -1 78 -5.8279759250581264e-03</internalNodes>
          <leafValues>
            -8.5357677936553955e-01 4.2223784327507019e-01</leafValues></_>
        <_>
          <internalNodes>
            0 -1 106 8.0578925553709269e-04</internalNodes>
          <leafValues>
            -3.5514482855796814e-01 7.6788657903671265e-01</leafValues></_>
        <_>
          <internalNodes>
            0 -1 140 -1.0968849528580904e-03</internalNodes>
          <leafValues>
            -9.1194611787796021e-01 2.9305586218833923e-01</leafValues></_>
        <_>
          <internalNodes>
            0 -1 43 -1.3036856055259705e-01</internalNodes>
          <leafValues>
            8.6944633722305298e-01 -3.2719326019287109e-01</leafValues></_>
        <_>
          <internalNodes>
            0 -1 74 1.4022281765937805e-01</internalNodes>
          <leafValues>
            -3.1950515508651733e-01 9.5383715629577637e-01</leafValues></_>
        <_>
          <internalNodes>
            0 -1 41 -1.8123492598533630e-02</internalNodes>
          <leafValues>
            8.7712812423706055e-01 -2.1969597041606903e-01</leafValues></_>
        <_>
          <internalNodes>
            0 -1 83 -9.8646745085716248e-02</internalNodes>
          <leafValues>
            9.1591638326644897e-01 -2.2013171017169952e-01</leafValues></_>
        <_>
          <internalNodes>
            0 -1 64 2.4261729419231415e-01</internalNodes>
          <leafValues>
            -2.5427952408790588e-01 9.0904349088668823e-01</leafValues></_>
        <_>
          <internalNodes>
            0 -1 31 7.4185878038406372e-03</internalNodes>
          <leafValues>
            3.8937667012214661e-01 -9.8063486814498901e-01</leafValues></_></weakClassifiers></_>
    <!-- stage 2 -->
    <_>
      <maxWeakCount>12</maxWeakCount>
      <stageThreshold>5.2588975429534912e-01</stageThreshold>
      <weakClassifiers>
        <_>
          <internalNodes>
            0 -1 96 -3.0803123954683542e-03</internalNodes>
          <leafValues>
            2.6415094733238220e-01 -7.9032260179519653e-01</leafValues></_>
        <_>
          <internalNodes>
            0 -1 174 -5.3133442997932434e-03</internalNodes>
          <leafValues>
            4.7778993844985962e-01 -5.4070329666137695e-01</leafValues></_>
        <_>
          <internalNodes>
            0 -1 143 -2.3529751342721283e-04</internalNodes>
          <leafValues>
            6.5484821796417236e-01 -4.1910588741302490e-01</leafValues></_>
        <_>
          <internalNodes>
            0 -1 14 -9.9224820733070374e-03</internalNodes>
          <leafValues>
            8.6072957515716553e-01 -2.9543817043304443e-01</leafValues></_>
        <_>
          <internalNodes>
            0 -1 129 2.3624747991561890e-02</internalNodes>
          <leafValues>
            3.3792904019355774e-01 -9.0188097953796387e-01</leafValues></_>
        <_>
          <internalNodes>
            0 -1 167 -1.3680267147719860e-04</internalNodes>
          <leafValues>
            6.7449200153350830e-01 -4.1104969382286072e-01</leafValues></_>
        <_>
          <internalNodes>
            0 -1 56 -5.1333406008780003e-03</internalNodes>
          <leafValues>
            -7.9905414581298828e-01 3.3613821864128113e-01</leafValues></_>
        <_>
          <internalNodes>
            0 -1 26 -1.7121203243732452e-02</internalNodes>
          <leafValues>
            6.1893022060394287e-01 -4.5103219151496887e-01</leafValues></_>
        <_>
          <internalNodes>
            0 -1 8 2.3867510026320815e-04</internalNodes>
          <leafValues>
            -3.6097407341003418e-01 6.4387536048889160e-01</leafValues></_>
        <_>
          <internalNodes>
            0 -1 116 -2.8513080906122923e-04</internalNodes>
          <leafValues>
            7.4796980619430542e-01 -3.2504820823669434e-01</leafValues></_>
        <_>
          <internalNodes>
            0 -1 180 -2.1786850411444902e-03</internalNodes>
          <leafValues>
            7.2844880819320679e-01 -2.9010364413261414e-01</leafValues></_>
        <_>
          <internalNodes>
            0 -1 68 -8.4408209659159184e-04</internalNodes>
          <leafValues>
            6.6351914405822754e-01 -3.5094016790390015e-01</leafValues></_></weakClassifiers></_>
    <!-- stage 3 -->
    <_>
      <maxWeakCount>17</maxWeakCount>
      <stageThreshold>1.4029409736394882e-02</stageThreshold>
      <weakClassifiers>
        <_>
          <internalNodes>
            0 -1 6 1.0482568293809891e-02</internalNodes>
          <leafValues>
            -4.8453608155250549e-01 6.6666668653488159e-01</leafValues></_>
        <_>
          <internalNodes>
            0 -1 89 9.7807655110955238e-03</internalNodes>
          <leafValues>
            -3.2871019840240479e-01 6.1519736051559448e-01</leafValues></_>
        <_>
          <internalNodes>
            0 -1 183 2.3261839523911476e-03</internalNodes>
          <leafValues>
            -2.3664124310016632e-01 8.5750228166580200e-01</leafValues></_>
        <_>
          <internalNodes>
            0 -1 98 1.7759203910827637e-03</internalNodes>
          <leafValues>
            -2.4022842943668365e-01 6.9611263275146484e-01</leafValues></_>
        <_>
          <internalNodes>
            0 -1 113 8.9210458099842072e-03</internalNodes>
          <leafValues>
            -2.8684833645820618e-01 6.5148401260375977e-01</leafValues></_>
        <_>
          <internalNodes>
            0 -1 71 7.2740000905469060e-04</internalNodes>
          <leafValues>
            -2.7531480789184570e-01 6.5979295969009399e-01</leafValues></_>
        <_>
          <internalNodes>
            0 -1 173 -3.0018225312232971e-02</internalNodes>
          <leafValues>
            8.1428045034408569e-01 -1.9764411449432373e-01</leafValues></_>
        <_>
          <internalNodes>
            0 -1 38 -4.6207997947931290e-03</internalNodes>
          <leafValues>
            -7.1813201904296875e-01 2.9160016775131226e-01</leafValues></_>
        <_>
          <internalNodes>
            0 -1 75 4.3777772225439548e-04</internalNodes>
          <leafValues>
            -2.5517493486404419e-01 7.9922699928283691e-01</leafValues></_>
        <_>
          <internalNodes>
            0 -1 49 1.0852394916582853e-04</internalNodes>
          <leafValues>
            -4.5163926482200623e-01 4.3919301033020020e-01</leafValues></_>
        <_>
          <internalNodes>
            0 -1 107 -1.3313445448875427e-01</internalNodes>
          <leafValues>
            -7.8684562444686890e-01 2.4986949563026428e-01</leafValues></_>
        <_>
          <internalNodes>
            0 -1 4 7.6811853796243668e-03</internalNodes>
          <leafValues>
            -3.1631532311439514e-01 7.3761695623397827e-01</leafValues></_>
        <_>
          <internalNodes>
            0 -1 165 6.4296610653400421e-03</internalNodes>
          <leafValues>
            -2.5669562816619873e-01 7.0923459529876709e-01</leafValues></_>
        <_>
          <internalNodes>
            0 -1 128 -1.7462071031332016e-02</internalNodes>
          <leafValues>
            -2.4319331347942352e-01 7.3053008317947388e-01</leafValues></_>
        <_>
          <internalNodes>
            0 -1 79 1.2376891449093819e-02</internalNodes>
          <leafValues>
            -2.0119649171829224e-01 8.0095779895782471e-01</leafValues></_>
        <_>
          <internalNodes>
            0 -1 19 1.7039261292666197e-03</internalNodes>
          <leafValues>
            -2.7533334493637085e-01 6.5883201360702515e-01</leafValues></_>
        <_>
          <internalNodes>
            0 -1 181 4.8488443717360497e-03</internalNodes>
          <leafValues>
            -2.4997058510780334e-01 8.0648177862167358e-01</leafValues></_></weakClassifiers></_>
    <!-- stage 4 -->
    <_>
      <maxWeakCount>17</maxWeakCount>
      <stageThreshold>-3.5095021128654480e-02</stageThreshold>
      <weakClassifiers>
        <_>
          <internalNodes>
            0 -1 108 -4.8785293474793434e-03</internalNodes>
          <leafValues>
            5.5555558204650879e-01 -4.6391752362251282e-01</leafValues></_>
        <_>
          <internalNodes>
            0 -1 108 6.4728297293186188e-03</internalNodes>
          <leafValues>
            -2.1863016486167908e-01 8.0531686544418335e-01</leafValues></_>
        <_>
          <internalNodes>
            0 -1 172 1.7955318093299866e-02</internalNodes>
          <leafValues>
            -2.9476097226142883e-01 6.0068219900131226e-01</leafValues></_>
        <_>
          <internalNodes>
            0 -1 77 -6.3071545446291566e-04</internalNodes>
          <leafValues>
            -5.3613770008087158e-01 2.9082167148590088e-01</leafValues></_>
        <_>
          <internalNodes>
            0 -1 141 1.8182507483288646e-04</internalNodes>
          <leafValues>
            -3.5060337185859680e-01 4.3207612633705139e-01</leafValues></_>
        <_>
          <internalNodes>
            0 -1 179 4.3587391264736652e-03</internalNodes>
          <leafValues>
            -1.4635854959487915e-01 9.3435716629028320e-01</leafValues></_>
        <_>
          <internalNodes>
            0 -1 134 -3.8788184523582458e-02</internalNodes>
          <leafValues>
            4.9643325805664063e-01 -2.9286178946495056e-01</leafValues></_>
        <_>
          <internalNodes>
            0 -1 97 -8.7361538317054510e-04</internalNodes>
          <leafValues>
            7.2601133584976196e-01 -2.3536278307437897e-01</leafValues></_>
        <_>
          <internalNodes>
            0 -1 121 -5.8310083113610744e-04</internalNodes>
          <leafValues>
            6.5270906686782837e-01 -2.5474101305007935e-01</leafValues></_>
        <_>
          <internalNodes>
            0 -1 72 5.9469154803082347e-04</internalNodes>
          <leafValues>
            -2.8328883647918701e-01 6.1693799495697021e-01</leafValues></_>
        <_>
          <internalNodes>
            0 -1 154 -2.3303572088479996e-03</internalNodes>
          <leafValues>
            6.0530716180801392e-01 -2.9138213396072388e-01</leafValues></_>
        <_>
          <internalNodes>
            0 -1 50 2.5679706595838070e-03</internalNodes>
          <leafValues>
            -2.1125595271587372e-01 8.4185343980789185e-01</leafValues></_>
        <_>
          <internalNodes>
            0 -1 88 -1.0208423435688019e-01</internalNodes>
          <leafValues>
            -1. 2.1856647729873657e-01</leafValues></_>
        <_>
          <internalNodes>
            0 -1 158 2.2843349725008011e-02</internalNodes>
          <leafValues>
            -3.7377193570137024e-01 5.0498270988464355e-01</leafValues></_>
        <_>
          <internalNodes>
            0 -1 87 -4.0217516943812370e-03</internalNodes>
          <leafValues>
            5.8294749259948730e-01 -3.1079635024070740e-01</leafValues></_>
        <_>
          <internalNodes>
            0 -1 159 -2.7072005905210972e-03</internalNodes>
          <leafValues>
            5.0462311506271362e-01 -3.7305843830108643e-01</leafValues></_>
        <_>
          <internalNodes>
            0 -1 185 -5.0604455173015594e-03</internalNodes>
          <leafValues>
            -9.1093593835830688e-01 2.0642377436161041e-01</leafValues></_></weakClassifiers></_>
    <!-- stage 5 -->
    <_>
      <maxWeakCount>14</maxWeakCount>
      <stageThreshold>1.3870248198509216e-01</stageThreshold>
      <weakClassifiers>
        <_>
          <internalNodes>
            0 -1 137 -2.5016965810209513e-03</internalNodes>
          <leafValues>
            3.4426230192184448e-01 -5.3846156597137451e-01</leafValues></_>
        <_>
          <internalNodes>
            0 -1 18 -1.4012286439538002e-02</internalNodes>
          <leafValues>
            2.8751882910728455e-01 -6.4227294921875000e-01</leafValues></_>
        <_>
          <internalNodes>
            0 -1 144 1.6107123519759625e-04</internalNodes>
          <leafValues>
            3.6075276136398315e-01 -4.9577784538269043e-01</leafValues></_>
        <_>
          <internalNodes>
            0 -1 156 -4.2486622929573059e-02</internalNodes>
          <leafValues>
            7.7760648727416992e-01 -2.6664960384368896e-01</leafValues></_>
        <_>
          <internalNodes>
            0 -1 149 -1.4950353652238846e-02</internalNodes>
          <leafValues>
            6.9473469257354736e-01 -3.4903818368911743e-01</leafValues></_>
        <_>
          <internalNodes>
            0 -1 104 2.0609661936759949e-02</internalNodes>
          <leafValues>
            -3.0977609753608704e-01 5.7753896713256836e-01</leafValues></_>
        <_>
          <internalNodes>
            0 -1 146 2.4662524810992181e-04</internalNodes>
          <leafValues>
            3.6325860023498535e-01 -6.5846860408782959e-01</leafValues></_>
        <_>
          <internalNodes>
            0 -1 102 -1.1919012293219566e-02</internalNodes>
          <leafValues>
            6.9953334331512451e-01 -2.6138573884963989e-01</leafValues></_>
        <_>
          <internalNodes>
            0 -1 73 5.8979610912501812e-04</internalNodes>
          <leafValues>
            -4.0222299098968506e-01 5.3825128078460693e-01</leafValues></_>
        <_>
          <internalNodes>
            0 -1 85 -1.0713788215070963e-03</internalNodes>
          <leafValues>
            -8.5927248001098633e-01 2.3723293840885162e-01</leafValues></_>
        <_>
          <internalNodes>
            0 -1 145 -1.8051343795377761e-04</internalNodes>
          <leafValues>
            4.3079477548599243e-01 -3.9936330914497375e-01</leafValues></_>
        <_>
          <internalNodes>
            0 -1 3 1.3444216921925545e-02</internalNodes>
          <leafValues>
            -3.1301349401473999e-01 6.0797959566116333e-01</leafValues></_>
        <_>
          <internalNodes>
            0 -1 25 -8.5746741387993097e-04</internalNodes>
          <leafValues>
            -4.6663215756416321e-01 4.4085884094238281e-01</leafValues></_>
        <_>
          <internalNodes>
            0 -1 59 2.9558343812823296e-03</internalNodes>
          <leafValues>
            -3.8141375780105591e-01 5.0945067405700684e-01</leafValues></_></weakClassifiers></_>
    <!-- stage 6 -->
    <_>
      <maxWeakCount>14</maxWeakCount>
      <stageThreshold>5.1630780100822449e-02</stageThreshold>
      <weakClassifiers>
        <_>
          <internalNodes>
            0 -1 90 -4.6713142655789852e-03</internalNodes>
          <leafValues>
            5.4545456171035767e-01 -6.4634144306182861e-01</leafValues></_>
        <_>
          <internalNodes>
            0 -1 40 6.9668013602495193e-03</internalNodes>
          <leafValues>
            -3.1323266029357910e-01 7.9434508085250854e-01</leafValues></_>
        <_>
          <internalNodes>
            0 -1 111 -1.4008523430675268e-04</internalNodes>
          <leafValues>
            6.5213716030120850e-01 -3.3787962794303894e-01</leafValues></_>
        <_>
          <internalNodes>
            0 -1 132 8.5949373897165060e-04</internalNodes>
          <leafValues>
            -2.9093044996261597e-01 6.8892586231231689e-01</leafValues></_>
        <_>
          <internalNodes>
            0 -1 117 -8.3652406465262175e-04</internalNodes>
          <leafValues>
            7.6515781879425049e-01 -3.1404173374176025e-01</leafValues></_>
        <_>
          <internalNodes>
            0 -1 32 -5.6366644799709320e-02</internalNodes>
          <leafValues>
            -6.1114490032196045e-01 3.6876991391181946e-01</leafValues></_>
        <_>
          <internalNodes>
            0 -1 46 5.1169010112062097e-04</internalNodes>
          <leafValues>
            -5.2450740337371826e-01 5.3201472759246826e-01</leafValues></_>
        <_>
          <internalNodes>
            0 -1 69 -1.7869975417852402e-02</internalNodes>
          <leafValues>
            -4.8422932624816895e-01 4.2563137412071228e-01</leafValues></_>
        <_>
          <internalNodes>
            0 -1 119 -6.8682036362588406e-03</internalNodes>
          <leafValues>
            4.5718389749526978e-01 -5.4352658987045288e-01</leafValues></_>
        <_>
          <internalNodes>
            0 -1 115 -1.1668149381875992e-03</internalNodes>
          <leafValues>
            7.7161735296249390e-01 -3.1940677762031555e-01</leafValues></_>
        <_>
          <internalNodes>
            0 -1 67 3.7252362817525864e-03</internalNodes>
          <leafValues>
            -4.3887886404991150e-01 5.5241090059280396e-01</leafValues></_>
        <_>
          <internalNodes>
            0 -1 142 -5.1610369700938463e-04</internalNodes>
          <leafValues>
            7.1699303388595581e-01 -2.8771886229515076e-01</leafValues></_>
        <_>
          <internalNodes>
            0 -1 24 -2.7569485246203840e-04</internalNodes>
          <leafValues>
            8.3481425046920776e-01 -2.8576308488845825e-01</leafValues></_>
        <_>
          <internalNodes>
            0 -1 157 1.9655119627714157e-02</internalNodes>
          <leafValues>
            3.7642684578895569e-01 -7.3185849189758301e-01</leafValues></_></weakClassifiers></_>
    <!-- stage 7 -->
    <_>
      <maxWeakCount>5</maxWeakCount>
      <stageThreshold>-8.7980508804321289e-02</stageThreshold>
      <weakClassifiers>
        <_>
          <internalNodes>
            0 -1 109 5.6248693726956844e-04</internalNodes>
          <leafValues>
            1. -6.7597764730453491e-01</leafValues></_>
        <_>
          <internalNodes>
            0 -1 29 -1.5171442646533251e-03</internalNodes>
          <leafValues>
            1. -3.9109003543853760e-01</leafValues></_>
        <_>
          <internalNodes>
            0 -1 33 2.3101756814867258e-03</internalNodes>
          <leafValues>
            8.6878889799118042e-01 -5.6459569931030273e-01</leafValues></_>
        <_>
          <internalNodes>
            0 -1 39 -7.4542999267578125e-02</internalNodes>
          <leafValues>
            8.0849081277847290e-01 -6.1616218090057373e-01</leafValues></_>
        <_>
          <internalNodes>
            0 -1 60 8.8571663945913315e-04</internalNodes>
          <leafValues>
            8.3995682001113892e-01 -6.5589797496795654e-01</leafValues></_></weakClassifiers></_>
    <!-- stage 8 -->
    <_>
      <maxWeakCount>12</maxWeakCount>
      <stageThreshold>2.7429911494255066e-01</stageThreshold>
      <weakClassifiers>
        <_>
          <internalNodes>
            0 -1 101 1.1860965751111507e-02</internalNodes>
          <leafValues>
            5.7575756311416626e-01 -6.5853661298751831e-01</leafValues></_>
        <_>
          <internalNodes>
            0 -1 20 -1.3214036822319031e-02</internalNodes>
          <leafValues>
            3.0802351236343384e-01 -7.9809939861297607e-01</leafValues></_>
        <_>
          <internalNodes>
            0 -1 0 4.1615933179855347e-02</internalNodes>
          <leafValues>
            4.1170459985733032e-01 -6.8222236633300781e-01</leafValues></_>
        <_>
          <internalNodes>
            0 -1 127 1.0758938733488321e-03</internalNodes>
          <leafValues>
            -4.8667612671852112e-01 6.2000584602355957e-01</leafValues></_>
        <_>
          <internalNodes>
            0 -1 93 4.1274507530033588e-03</internalNodes>
          <leafValues>
            4.1404733061790466e-01 -8.0579692125320435e-01</leafValues></_>
        <_>
          <internalNodes>
            0 -1 82 3.5101247485727072e-03</internalNodes>
          <leafValues>
            4.9325069785118103e-01 -7.7846753597259521e-01</leafValues></_>
        <_>
          <internalNodes>
            0 -1 166 -4.7551151365041733e-03</internalNodes>
          <leafValues>
            1. -3.7332990765571594e-01</leafValues></_>
        <_>
          <internalNodes>
            0 -1 105 -3.7003383040428162e-02</internalNodes>
          <leafValues>
            3.7904077768325806e-01 -9.5317524671554565e-01</leafValues></_>
        <_>
          <internalNodes>
            0 -1 36 4.6888488577678800e-04</internalNodes>
          <leafValues>
            -4.8611661791801453e-01 7.5025594234466553e-01</leafValues></_>
        <_>
          <internalNodes>
            0 -1 28 -3.2804021611809731e-03</internalNodes>
          <leafValues>
            -6.6651529073715210e-01 4.8867323994636536e-01</leafValues></_>
        <_>
          <internalNodes>
            0 -1 5 1.3420784845948219e-02</internalNodes>
          <leafValues>
            4.5535579323768616e-01 -8.2368415594100952e-01</leafValues></_>
        <_>
          <internalNodes>
            0 -1 21 -4.2614072561264038e-02</internalNodes>
          <leafValues>
            5.9514737129211426e-01 -5.6581318378448486e-01</leafValues></_></weakClassifiers></_>
    <!-- stage 9 -->
    <_>
      <maxWeakCount>14</maxWeakCount>
      <stageThreshold>1.3590219616889954e-01</stageThreshold>
      <weakClassifiers>
        <_>
          <internalNodes>
            0 -1 178 -2.0787711255252361e-03</internalNodes>
          <leafValues>
            -7.8461539745330811e-01 3.1999999284744263e-01</leafValues></_>
        <_>
          <internalNodes>
            0 -1 63 2.9704018961638212e-03</internalNodes>
          <leafValues>
            -3.7530934810638428e-01 8.1052678823471069e-01</leafValues></_>
        <_>
          <internalNodes>
            0 -1 155 -1.1741865455405787e-04</internalNodes>
          <leafValues>
            -5.1809048652648926e-01 5.2388024330139160e-01</leafValues></_>
        <_>
          <internalNodes>
            0 -1 99 -3.5085141658782959e-01</internalNodes>
          <leafValues>
            -5.5887812376022339e-01 3.7588635087013245e-01</leafValues></_>
        <_>
          <internalNodes>
            0 -1 15 -1.1011216789484024e-01</internalNodes>
          <leafValues>
            6.1647379398345947e-01 -3.9033466577529907e-01</leafValues></_>
        <_>
          <internalNodes>
            0 -1 153 -6.5130637958645821e-03</internalNodes>
          <leafValues>
            8.6544322967529297e-01 -2.8188663721084595e-01</leafValues></_>
        <_>
          <internalNodes>
            0 -1 176 -4.0893238037824631e-03</internalNodes>
          <leafValues>
            -6.9947266578674316e-01 3.2995000481605530e-01</leafValues></_>
        <_>
          <internalNodes>
            0 -1 23 -1.1836430430412292e-01</internalNodes>
          <leafValues>
            -6.8152910470962524e-01 4.0243721008300781e-01</leafValues></_>
        <_>
          <internalNodes>
            0 -1 57 2.1847624331712723e-02</internalNodes>
          <leafValues>
            2.2510246932506561e-01 -8.3834403753280640e-01</leafValues></_>
        <_>
          <internalNodes>
            0 -1 30 -4.4142473489046097e-02</internalNodes>
          <leafValues>
            8.3104670047760010e-01 -3.0084756016731262e-01</leafValues></_>
        <_>
          <internalNodes>
            0 -1 160 -1.9931036513298750e-03</internalNodes>
          <leafValues>
            6.2100464105606079e-01 -3.9525648951530457e-01</leafValues></_>
        <_>
          <internalNodes>
            0 -1 65 -2.0771496929228306e-03</internalNodes>
          <leafValues>
            -5.0805121660232544e-01 4.5538872480392456e-01</leafValues></_>
        <_>
          <internalNodes>
            0 -1 62 -1.3315486907958984e-01</internalNodes>
          <leafValues>
            5.8210319280624390e-01 -4.3372598290443420e-01</leafValues></_>
        <_>
          <internalNodes>
            0 -1 162 -1.0039930790662766e-01</internalNodes>
          <leafValues>
            -3.1938213109970093e-01 9.3848276138305664e-01</leafValues></_></weakClassifiers></_>
    <!-- stage 10 -->
    <_>
      <maxWeakCount>11</maxWeakCount>
      <stageThreshold>2.1327045559883118e-01</stageThreshold>
      <weakClassifiers>
        <_>
          <internalNodes>
            0 -1 148 -2.4205469526350498e-03</internalNodes>
          <leafValues>
            9.4117647409439087e-01 -5.2040815353393555e-01</leafValues></_>
        <_>
          <internalNodes>
            0 -1 61 -9.1208517551422119e-02</internalNodes>
          <leafValues>
            3.3919477462768555e-01 -9.0030354261398315e-01</leafValues></_>
        <_>
          <internalNodes>
            0 -1 92 5.5717807263135910e-03</internalNodes>
          <leafValues>
            4.9769806861877441e-01 -6.3387340307235718e-01</leafValues></_>
        <_>
          <internalNodes>
            0 -1 130 -2.7976669371128082e-03</internalNodes>
          <leafValues>
            8.9588451385498047e-01 -3.4433114528656006e-01</leafValues></_>
        <_>
          <internalNodes>
            0 -1 58 1.5460854629054666e-03</internalNodes>
          <leafValues>
            5.5392783880233765e-01 -5.9459728002548218e-01</leafValues></_>
        <_>
          <internalNodes>
            0 -1 133 2.2965128300711513e-04</internalNodes>
          <leafValues>
            -4.4412305951118469e-01 7.0065492391586304e-01</leafValues></_>
        <_>
          <internalNodes>
            0 -1 91 9.5036150887608528e-03</internalNodes>
          <leafValues>
            -3.0287921428680420e-01 9.0186834335327148e-01</leafValues></_>
        <_>
          <internalNodes>
            0 -1 170 3.1477087177336216e-03</internalNodes>
          <leafValues>
            3.8698610663414001e-01 -8.8047742843627930e-01</leafValues></_>
        <_>
          <internalNodes>
            0 -1 48 7.5931046158075333e-03</internalNodes>
          <leafValues>
            -3.8977599143981934e-01 9.1088485717773438e-01</leafValues></_>
        <_>
          <internalNodes>
            0 -1 118 -1.7655936535447836e-03</internalNodes>
          <leafValues>
            7.8546935319900513e-01 -3.2725152373313904e-01</leafValues></_>
        <_>
          <internalNodes>
            0 -1 114 7.5323172495700419e-05</internalNodes>
          <leafValues>
            4.3421959877014160e-01 -6.8667554855346680e-01</leafValues></_></weakClassifiers></_>
    <!-- stage 11 -->
    <_>
      <maxWeakCount>10</maxWeakCount>
      <stageThreshold>4.4207793474197388e-01</stageThreshold>
      <weakClassifiers>
        <_>
          <internalNodes>
            0 -1 47 8.2567601930350065e-04</internalNodes>
          <leafValues>
            -5.9116023778915405e-01 7.5510203838348389e-01</leafValues></_>
        <_>
          <internalNodes>
            0 -1 66 -3.8044750690460205e-03</internalNodes>
          <leafValues>
            -6.5763324499130249e-01 4.1665315628051758e-01</leafValues></_>
        <_>
          <internalNodes>
            0 -1 112 -1.8641177564859390e-02</internalNodes>
          <leafValues>
            -4.8364761471748352e-01 6.3166129589080811e-01</leafValues></_>
        <_>
          <internalNodes>
            0 -1 37 3.3199138124473393e-04</internalNodes>
          <leafValues>
            -5.0370383262634277e-01 5.9303081035614014e-01</leafValues></_>
        <_>
          <internalNodes>
            0 -1 182 1.0614353959681466e-04</internalNodes>
          <leafValues>
            5.8472990989685059e-01 -5.5769240856170654e-01</leafValues></_>
        <_>
          <internalNodes>
            0 -1 76 -5.2866241894662380e-03</internalNodes>
          <leafValues>
            7.8327512741088867e-01 -3.6747550964355469e-01</leafValues></_>
        <_>
          <internalNodes>
            0 -1 139 -4.5361719094216824e-04</internalNodes>
          <leafValues>
            -7.6522833108901978e-01 4.4745981693267822e-01</leafValues></_>
        <_>
          <internalNodes>
            0 -1 126 -3.9160221815109253e-02</internalNodes>
          <leafValues>
            6.6152113676071167e-01 -5.4923796653747559e-01</leafValues></_>
        <_>
          <internalNodes>
            0 -1 22 3.5839250776916742e-03</internalNodes>
          <leafValues>
            -4.0093815326690674e-01 7.9315811395645142e-01</leafValues></_>
        <_>
          <internalNodes>
            0 -1 34 1.0960012441501021e-03</internalNodes>
          <leafValues>
            -3.0405327677726746e-01 8.5779386758804321e-01</leafValues></_></weakClassifiers></_>
    <!-- stage 12 -->
    <_>
      <maxWeakCount>11</maxWeakCount>
      <stageThreshold>7.6750576496124268e-02</stageThreshold>
      <weakClassifiers>
        <_>
          <internalNodes>
            0 -1 1 5.4240001190919429e-05</internalNodes>
          <leafValues>
            4.9253731966018677e-01 -6.3190186023712158e-01</leafValues></_>
        <_>
          <internalNodes>
            0 -1 52 8.3940406329929829e-04</internalNodes>
          <leafValues>
            7.1292680501937866e-01 -4.6313452720642090e-01</leafValues></_>
        <_>
          <internalNodes>
            0 -1 100 2.2633674088865519e-03</internalNodes>
          <leafValues>
            -4.1117158532142639e-01 8.2136482000350952e-01</leafValues></_>
        <_>
          <internalNodes>
            0 -1 110 -1.7857979983091354e-03</internalNodes>
          <leafValues>
            6.1510896682739258e-01 -4.3026483058929443e-01</leafValues></_>
        <_>
          <internalNodes>
            0 -1 2 -1.8094552215188742e-03</internalNodes>
          <leafValues>
            -5.3052270412445068e-01 5.8692795038223267e-01</leafValues></_>
        <_>
          <internalNodes>
            0 -1 11 -3.5561188124120235e-03</internalNodes>
          <leafValues>
            6.8652534484863281e-01 -4.5056897401809692e-01</leafValues></_>
        <_>
          <internalNodes>
            0 -1 135 -2.0813569426536560e-02</internalNodes>
          <leafValues>
            7.4668741226196289e-01 -3.4816026687622070e-01</leafValues></_>
        <_>
          <internalNodes>
            0 -1 42 -1.3204216957092285e-03</internalNodes>
          <leafValues>
            5.9776633977890015e-01 -4.5398604869842529e-01</leafValues></_>
        <_>
          <internalNodes>
            0 -1 138 5.0443550571799278e-04</internalNodes>
          <leafValues>
            4.0305373072624207e-01 -7.2528541088104248e-01</leafValues></_>
        <_>
          <internalNodes>
            0 -1 94 -3.1943749636411667e-03</internalNodes>
          <leafValues>
            -5.0165480375289917e-01 5.4289346933364868e-01</leafValues></_>
        <_>
          <internalNodes>
            0 -1 9 -2.2010807879269123e-03</internalNodes>
          <leafValues>
            6.1868482828140259e-01 -4.7914844751358032e-01</leafValues></_></weakClassifiers></_>
    <!-- stage 13 -->
    <_>
      <maxWeakCount>11</maxWeakCount>
      <stageThreshold>-3.2056981325149536e-01</stageThreshold>
      <weakClassifiers>
        <_>
          <internalNodes>
            0 -1 136 5.6768365902826190e-04</internalNodes>
          <leafValues>
            -5.7608693838119507e-01 7.8260868787765503e-01</leafValues></_>
        <_>
          <internalNodes>
            0 -1 163 3.7557707400992513e-04</internalNodes>
          <leafValues>
            6.5676993131637573e-01 -5.0715547800064087e-01</leafValues></_>
        <_>
          <internalNodes>
            0 -1 10 -1.4676143229007721e-01</internalNodes>
          <leafValues>
            2.9304072260856628e-01 -9.4862240552902222e-01</leafValues></_>
        <_>
          <internalNodes>
            0 -1 27 -2.8106560930609703e-03</internalNodes>
          <leafValues>
            -5.9609282016754150e-01 5.6235921382904053e-01</leafValues></_>
        <_>
          <internalNodes>
            0 -1 81 -6.2564760446548462e-03</internalNodes>
          <leafValues>
            8.6634844541549683e-01 -4.7799050807952881e-01</leafValues></_>
        <_>
          <internalNodes>
            0 -1 51 3.6416117101907730e-02</internalNodes>
          <leafValues>
            -3.0190694332122803e-01 9.0769946575164795e-01</leafValues></_>
        <_>
          <internalNodes>
            0 -1 86 -2.1482766605913639e-03</internalNodes>
          <leafValues>
            -1. 3.4678509831428528e-01</leafValues></_>
        <_>
          <internalNodes>
            0 -1 171 -1.1861915118061006e-04</internalNodes>
          <leafValues>
            8.6313802003860474e-01 -3.6886045336723328e-01</leafValues></_>
        <_>
          <internalNodes>
            0 -1 13 1.9275999511592090e-04</internalNodes>
          <leafValues>
            4.6046841144561768e-01 -7.4612450599670410e-01</leafValues></_>
        <_>
          <internalNodes>
            0 -1 35 -1.2609384953975677e-02</internalNodes>
          <leafValues>
            5.0666028261184692e-01 -5.8024781942367554e-01</leafValues></_>
        <_>
          <internalNodes>
            0 -1 147 -3.3587543293833733e-04</internalNodes>
          <leafValues>
            6.5872579813003540e-01 -4.7264662384986877e-01</leafValues></_></weakClassifiers></_>
    <!-- stage 14 -->
    <_>
      <maxWeakCount>10</maxWeakCount>
      <stageThreshold>4.8890516161918640e-01</stageThreshold>
      <weakClassifiers>
        <_>
          <internalNodes>
            0 -1 125 -4.3656947091221809e-03</internalNodes>
          <leafValues>
            -6.7948716878890991e-01 4.8648649454116821e-01</leafValues></_>
        <_>
          <internalNodes>
            0 -1 151 -6.5237138187512755e-04</internalNodes>
          <leafValues>
            6.6471844911575317e-01 -5.0742882490158081e-01</leafValues></_>
        <_>
          <internalNodes>
            0 -1 54 -8.8850001338869333e-04</internalNodes>
          <leafValues>
            8.4845912456512451e-01 -3.2045602798461914e-01</leafValues></_>
        <_>
          <internalNodes>
            0 -1 84 1.0207674931734800e-03</internalNodes>
          <leafValues>
            3.4781289100646973e-01 -7.9843568801879883e-01</leafValues></_>
        <_>
          <internalNodes>
            0 -1 124 -1.6235343355219811e-04</internalNodes>
          <leafValues>
            -6.7797881364822388e-01 4.6640104055404663e-01</leafValues></_>
        <_>
          <internalNodes>
            0 -1 168 1.3247081078588963e-03</internalNodes>
          <leafValues>
            -3.7382456660270691e-01 8.9921873807907104e-01</leafValues></_>
        <_>
          <internalNodes>
            0 -1 80 3.6983287427574396e-03</internalNodes>
          <leafValues>
            3.6719182133674622e-01 -9.2138808965682983e-01</leafValues></_>
        <_>
          <internalNodes>
            0 -1 17 -2.7919043786823750e-03</internalNodes>
          <leafValues>
            8.5036361217498779e-01 -4.1120669245719910e-01</leafValues></_>
        <_>
          <internalNodes>
            0 -1 44 3.7568516563624144e-03</internalNodes>
          <leafValues>
            -3.8955736160278320e-01 8.9377379417419434e-01</leafValues></_>
        <_>
          <internalNodes>
            0 -1 169 2.7470244094729424e-03</internalNodes>
          <leafValues>
            -2.9242911934852600e-01 8.2348644733428955e-01</leafValues></_></weakClassifiers></_>
    <!-- stage 15 -->
    <_>
      <maxWeakCount>9</maxWeakCount>
      <stageThreshold>5.3989112377166748e-01</stageThreshold>
      <weakClassifiers>
        <_>
          <internalNodes>
            0 -1 164 1.9749156490433961e-04</internalNodes>
          <leafValues>
            -6.2921351194381714e-01 8.0769228935241699e-01</leafValues></_>
        <_>
          <internalNodes>
            0 -1 122 -2.9980293475091457e-03</internalNodes>
          <leafValues>
            8.2350212335586548e-01 -4.3069308996200562e-01</leafValues></_>
        <_>
          <internalNodes>
            0 -1 70 1.4859428629279137e-03</internalNodes>
          <leafValues>
            6.5332156419754028e-01 -5.5341374874114990e-01</leafValues></_>
        <_>
          <internalNodes>
            0 -1 131 1.5319392550736666e-03</internalNodes>
          <leafValues>
            4.1295528411865234e-01 -8.7559276819229126e-01</leafValues></_>
        <_>
          <internalNodes>
            0 -1 152 -1.5473528765141964e-04</internalNodes>
          <leafValues>
            -5.8063924312591553e-01 6.0782408714294434e-01</leafValues></_>
        <_>
          <internalNodes>
            0 -1 120 7.1240426041185856e-04</internalNodes>
          <leafValues>
            -6.1167609691619873e-01 6.3332396745681763e-01</leafValues></_>
        <_>
          <internalNodes>
            0 -1 103 6.7449997004587203e-05</internalNodes>
          <leafValues>
            -5.5082899332046509e-01 5.9789013862609863e-01</leafValues></_>
        <_>
          <internalNodes>
            0 -1 45 1.4615215361118317e-02</internalNodes>
          <leafValues>
            4.7883695363998413e-01 -8.2034587860107422e-01</leafValues></_>
        <_>
          <internalNodes>
            0 -1 177 -2.0589663472492248e-04</internalNodes>
          <leafValues>
            8.1968718767166138e-01 -5.3263127803802490e-01</leafValues></_></weakClassifiers></_></stages>
  <features>
    <_>
      <rects>
        <_>
          0 0 19 6 -1.</_>
        <_>
          0 3 19 3 2.</_></rects>
      <tilted>0</tilted></_>
    <_>
      <rects>
        <_>
          0 1 2 2 -1.</_>
        <_>
          0 1 1 1 2.</_>
        <_>
          1 2 1 1 2.</_></rects>
      <tilted>0</tilted></_>
    <_>
      <rects>
        <_>
          0 1 2 16 -1.</_>
        <_>
          0 1 1 8 2.</_>
        <_>
          1 9 1 8 2.</_></rects>
      <tilted>0</tilted></_>
    <_>
      <rects>
        <_>
          0 1 4 8 -1.</_>
        <_>
          0 5 4 4 2.</_></rects>
      <tilted>0</tilted></_>
    <_>
      <rects>
        <_>
          0 3 4 3 -1.</_>
        <_>
          2 3 2 3 2.</_></rects>
      <tilted>0</tilted></_>
    <_>
      <rects>
        <_>
          0 4 6 4 -1.</_>
        <_>
          0 6 6 2 2.</_></rects>
      <tilted>0</tilted></_>
    <_>
      <rects>
        <_>
          0 6 2 17 -1.</_>
        <_>
          1 6 1 17 2.</_></rects>
      <tilted>0</tilted></_>
    <_>
      <rects>
        <_>
          0 9 22 15 -1.</_>
        <_>
          11 9 11 15 2.</_></rects>
      <tilted>0</tilted></_>
    <_>
      <rects>
        <_>
          0 10 2 1 -1.</_>
        <_>
          1 10 1 1 2.</_></rects>
      <tilted>0</tilted></_>
    <_>
      <rects>
        <_>
          0 12 6 6 -1.</_>
        <_>
          0 12 3 3 2.</_>
        <_>
          3 15 3 3 2.</_></rects>
      <tilted>0</tilted></_>
    <_>
      <rects>
        <_>
          0 13 14 9 -1.</_>
        <_>
          0 16 14 3 2.</_></rects>
      <tilted>0</tilted></_>
    <_>
      <rects>
        <_>
          0 18 8 4 -1.</_>
        <_>
          4 18 4 4 2.</_></rects>
      <tilted>0</tilted></_>
    <_>
      <rects>
        <_>
          0 21 16 3 -1.</_>
        <_>
          0 22 16 1 2.</_></rects>
      <tilted>0</tilted></_>
    <_>
      <rects>
        <_>
          0 22 1 2 -1.</_>
        <_>
          0 23 1 1 2.</_></rects>
      <tilted>0</tilted></_>
    <_>
      <rects>
        <_>
          1 0 2 22 -1.</_>
        <_>
          1 0 1 11 2.</_>
        <_>
          2 11 1 11 2.</_></rects>
      <tilted>0</tilted></_>
    <_>
      <rects>
        <_>
          1 2 6 9 -1.</_>
        <_>
          3 2 2 9 2.</_></rects>
      <tilted>0</tilted></_>
    <_>
      <rects>
        <_>
          1 3 10 4 -1.</_>
        <_>
          6 3 5 4 2.</_></rects>
      <tilted>0</tilted></_>
    <_>
      <rects>
        <_>
          1 5 2 12 -1.</_>
        <_>
          1 5 1 6 2.</_>
        <_>
          2 11 1 6 2.</_></rects>
      <tilted>0</tilted></_>
    <_>
      <rects>
        <_>
          1 5 10 14 -1.</_>
        <_>
          6 5 5 14 2.</_></rects>
      <tilted>0</tilted></_>
    <_>
      <rects>
        <_>
          1 7 4 4 -1.</_>
        <_>
          1 7 2 2 2.</_>
        <_>
          3 9 2 2 2.</_></rects>
      <tilted>0</tilted></_>
    <_>
      <rects>
        <_>
          1 9 1 9 -1.</_>
        <_>
          1 12 1 3 2.</_></rects>
      <tilted>0</tilted></_>
    <_>
      <rects>
        <_>
          1 10 21 1 -1.</_>
        <_>
          8 10 7 1 2.</_></rects>
      <tilted>0</tilted></_>
    <_>
      <rects>
        <_>
          1 16 4 8 -1.</_>
        <_>
          1 16 2 4 2.</_>
        <_>
          3 20 2 4 2.</_></rects>
      <tilted>0</tilted></_>
    <_>
      <rects>
        <_>
          1 16 19 3 -1.</_>
        <_>
          1 17 19 1 2.</_></rects>
      <tilted>0</tilted></_>
    <_>
      <rects>
        <_>
          1 19 2 2 -1.</_>
        <_>
          1 19 1 1 2.</_>
        <_>
          2 20 1 1 2.</_></rects>
      <tilted>0</tilted></_>
    <_>
      <rects>
        <_>
          2 0 18 2 -1.</_>
        <_>
          2 0 9 1 2.</_>
        <_>
          11 1 9 1 2.</_></rects>
      <tilted>0</tilted></_>
    <_>
      <rects>
        <_>
          2 2 4 16 -1.</_>
        <_>
          4 2 2 16 2.</_></rects>
      <tilted>0</tilted></_>
    <_>
      <rects>
        <_>
          2 3 20 2 -1.</_>
        <_>
          2 3 10 1 2.</_>
        <_>
          12 4 10 1 2.</_></rects>
      <tilted>0</tilted></_>
    <_>
      <rects>
        <_>
          2 3 22 2 -1.</_>
        <_>
          2 3 11 1 2.</_>
        <_>
          13 4 11 1 2.</_></rects>
      <tilted>0</tilted></_>
    <_>
      <rects>
        <_>
          2 4 2 18 -1.</_>
        <_>
          2 4 1 9 2.</_>
        <_>
          3 13 1 9 2.</_></rects>
      <tilted>0</tilted></_>
    <_>
      <rects>
        <_>
          2 4 8 12 -1.</_>
        <_>
          2 10 8 6 2.</_></rects>
      <tilted>0</tilted></_>
    <_>
      <rects>
        <_>
          2 4 20 2 -1.</_>
        <_>
          2 4 10 1 2.</_>
        <_>
          12 5 10 1 2.</_></rects>
      <tilted>0</tilted></_>
    <_>
      <rects>
        <_>
          2 6 8 10 -1.</_>
        <_>
          6 6 4 10 2.</_></rects>
      <tilted>0</tilted></_>
    <_>
      <rects>
        <_>
          2 9 16 4 -1.</_>
        <_>
          2 9 8 2 2.</_>
        <_>
          10 11 8 2 2.</_></rects>
      <tilted>0</tilted></_>
    <_>
      <rects>
        <_>
          2 11 2 4 -1.</_>
        <_>
          2 13 2 2 2.</_></rects>
      <tilted>0</tilted></_>
    <_>
      <rects>
        <_>
          2 14 9 1 -1.</_>
        <_>
          5 14 3 1 2.</_></rects>
      <tilted>0</tilted></_>
    <_>
      <rects>
        <_>
          2 17 8 2 -1.</_>
        <_>
          2 17 4 1 2.</_>
        <_>
          6 18 4 1 2.</_></rects>
      <tilted>0</tilted></_>
    <_>
      <rects>
        <_>
          2 18 2 6 -1.</_>
        <_>
          2 18 1 3 2.</_>
        <_>
          3 21 1 3 2.</_></rects>
      <tilted>0</tilted></_>
    <_>
      <rects>
        <_>
          2 18 20 2 -1.</_>
        <_>
          2 18 10 1 2.</_>
        <_>
          12 19 10 1 2.</_></rects>
      <tilted>0</tilted></_>
    <_>
      <rects>
        <_>
          2 19 15 3 -1.</_>
        <_>
          7 19 5 3 2.</_></rects>
      <tilted>0</tilted></_>
    <_>
      <rects>
        <_>
          3 0 2 18 -1.</_>
        <_>
          3 0 1 9 2.</_>
        <_>
          4 9 1 9 2.</_></rects>
      <tilted>0</tilted></_>
    <_>
      <rects>
        <_>
          3 0 6 5 -1.</_>
        <_>
          6 0 3 5 2.</_></rects>
      <tilted>0</tilted></_>
    <_>
      <rects>
        <_>
          3 1 6 6 -1.</_>
        <_>
          3 1 3 3 2.</_>
        <_>
          6 4 3 3 2.</_></rects>
      <tilted>0</tilted></_>
    <_>
      <rects>
        <_>
          3 6 12 18 -1.</_>
        <_>
          9 6 6 18 2.</_></rects>
      <tilted>0</tilted></_>
    <_>
      <rects>
        <_>
          3 9 6 6 -1.</_>
        <_>
          3 12 6 3 2.</_></rects>
      <tilted>0</tilted></_>
    <_>
      <rects>
        <_>
          3 11 6 6 -1.</_>
        <_>
          3 11 3 3 2.</_>
        <_>
          6 14 3 3 2.</_></rects>
      <tilted>0</tilted></_>
    <_>
      <rects>
        <_>
          3 12 2 12 -1.</_>
        <_>
          3 12 1 6 2.</_>
        <_>
          4 18 1 6 2.</_></rects>
      <tilted>0</tilted></_>
    <_>
      <rects>
        <_>
          3 16 2 8 -1.</_>
        <_>
          4 16 1 8 2.</_></rects>
      <tilted>0</tilted></_>
    <_>
      <rects>
        <_>
          3 18 8 4 -1.</_>
        <_>
          7 18 4 4 2.</_></rects>
      <tilted>0</tilted></_>
    <_>
      <rects>
        <_>
          4 0 6 2 -1.</_>
        <_>
          4 0 3 1 2.</_>
        <_>
          7 1 3 1 2.</_></rects>
      <tilted>0</tilted></_>
    <_>
      <rects>
        <_>
          4 1 2 4 -1.</_>
        <_>
          5 1 1 4 2.</_></rects>
      <tilted>0</tilted></_>
    <_>
      <rects>
        <_>
          4 4 16 8 -1.</_>
        <_>
          4 8 16 4 2.</_></rects>
      <tilted>0</tilted></_>
    <_>
      <rects>
        <_>
          4 6 19 2 -1.</_>
        <_>
          4 7 19 1 2.</_></rects>
      <tilted>0</tilted></_>
    <_>
      <rects>
        <_>
          4 11 20 8 -1.</_>
        <_>
          14 11 10 8 2.</_></rects>
      <tilted>0</tilted></_>
    <_>
      <rects>
        <_>
          4 16 2 6 -1.</_>
        <_>
          4 19 2 3 2.</_></rects>
      <tilted>0</tilted></_>
    <_>
      <rects>
        <_>
          4 23 18 1 -1.</_>
        <_>
          10 23 6 1 2.</_></rects>
      <tilted>0</tilted></_>
    <_>
      <rects>
        <_>
          5 0 11 4 -1.</_>
        <_>
          5 2 11 2 2.</_></rects>
      <tilted>0</tilted></_>
    <_>
      <rects>
        <_>
          5 1 4 22 -1.</_>
        <_>
          7 1 2 22 2.</_></rects>
      <tilted>0</tilted></_>
    <_>
      <rects>
        <_>
          5 2 7 2 -1.</_>
        <_>
          5 3 7 1 2.</_></rects>
      <tilted>0</tilted></_>
    <_>
      <rects>
        <_>
          5 8 2 10 -1.</_>
        <_>
          5 8 1 5 2.</_>
        <_>
          6 13 1 5 2.</_></rects>
      <tilted>0</tilted></_>
    <_>
      <rects>
        <_>
          5 8 4 2 -1.</_>
        <_>
          5 8 2 1 2.</_>
        <_>
          7 9 2 1 2.</_></rects>
      <tilted>0</tilted></_>
    <_>
      <rects>
        <_>
          5 8 15 5 -1.</_>
        <_>
          10 8 5 5 2.</_></rects>
      <tilted>0</tilted></_>
    <_>
      <rects>
        <_>
          5 10 12 6 -1.</_>
        <_>
          9 10 4 6 2.</_></rects>
      <tilted>0</tilted></_>
    <_>
      <rects>
        <_>
          5 10 16 2 -1.</_>
        <_>
          5 10 8 1 2.</_>
        <_>
          13 11 8 1 2.</_></rects>
      <tilted>0</tilted></_>
    <_>
      <rects>
        <_>
          5 10 16 14 -1.</_>
        <_>
          13 10 8 14 2.</_></rects>
      <tilted>0</tilted></_>
    <_>
      <rects>
        <_>
          5 11 2 12 -1.</_>
        <_>
          6 11 1 12 2.</_></rects>
      <tilted>0</tilted></_>
    <_>
      <rects>
        <_>
          5 16 16 2 -1.</_>
        <_>
          5 16 8 1 2.</_>
        <_>
          13 17 8 1 2.</_></rects>
      <tilted>0</tilted></_>
    <_>
      <rects>
        <_>
          5 18 6 6 -1.</_>
        <_>
          5 18 3 3 2.</_>
        <_>
          8 21 3 3 2.</_></rects>
      <tilted>0</tilted></_>
    <_>
      <rects>
        <_>
          5 20 1 4 -1.</_>
        <_>
          5 22 1 2 2.</_></rects>
      <tilted>0</tilted></_>
    <_>
      <rects>
        <_>
          5 22 9 1 -1.</_>
        <_>
          8 22 3 1 2.</_></rects>
      <tilted>0</tilted></_>
    <_>
      <rects>
        <_>
          6 1 2 20 -1.</_>
        <_>
          6 1 1 10 2.</_>
        <_>
          7 11 1 10 2.</_></rects>
      <tilted>0</tilted></_>
    <_>
      <rects>
        <_>
          6 5 2 2 -1.</_>
        <_>
          7 5 1 2 2.</_></rects>
      <tilted>0</tilted></_>
    <_>
      <rects>
        <_>
          6 7 2 4 -1.</_>
        <_>
          6 7 1 2 2.</_>
        <_>
          7 9 1 2 2.</_></rects>
      <tilted>0</tilted></_>
    <_>
      <rects>
        <_>
          6 9 13 2 -1.</_>
        <_>
          6 10 13 1 2.</_></rects>
      <tilted>0</tilted></_>
    <_>
      <rects>
        <_>
          6 11 18 7 -1.</_>
        <_>
          15 11 9 7 2.</_></rects>
      <tilted>0</tilted></_>
    <_>
      <rects>
        <_>
          6 19 2 1 -1.</_>
        <_>
          7 19 1 1 2.</_></rects>
      <tilted>0</tilted></_>
    <_>
      <rects>
        <_>
          7 0 6 8 -1.</_>
        <_>
          7 0 3 4 2.</_>
        <_>
          10 4 3 4 2.</_></rects>
      <tilted>0</tilted></_>
    <_>
      <rects>
        <_>
          7 0 9 2 -1.</_>
        <_>
          7 1 9 1 2.</_></rects>
      <tilted>0</tilted></_>
    <_>
      <rects>
        <_>
          7 0 13 4 -1.</_>
        <_>
          7 2 13 2 2.</_></rects>
      <tilted>0</tilted></_>
    <_>
      <rects>
        <_>
          7 3 4 12 -1.</_>
        <_>
          7 3 2 6 2.</_>
        <_>
          9 9 2 6 2.</_></rects>
      <tilted>0</tilted></_>
    <_>
      <rects>
        <_>
          7 4 14 2 -1.</_>
        <_>
          7 4 7 1 2.</_>
        <_>
          14 5 7 1 2.</_></rects>
      <tilted>0</tilted></_>
    <_>
      <rects>
        <_>
          7 7 2 6 -1.</_>
        <_>
          7 10 2 3 2.</_></rects>
      <tilted>0</tilted></_>
    <_>
      <rects>
        <_>
          7 8 2 14 -1.</_>
        <_>
          7 8 1 7 2.</_>
        <_>
          8 15 1 7 2.</_></rects>
      <tilted>0</tilted></_>
    <_>
      <rects>
        <_>
          7 10 12 14 -1.</_>
        <_>
          13 10 6 14 2.</_></rects>
      <tilted>0</tilted></_>
    <_>
      <rects>
        <_>
          7 13 4 2 -1.</_>
        <_>
          7 13 2 1 2.</_>
        <_>
          9 14 2 1 2.</_></rects>
      <tilted>0</tilted></_>
    <_>
      <rects>
        <_>
          7 17 4 2 -1.</_>
        <_>
          7 17 2 1 2.</_>
        <_>
          9 18 2 1 2.</_></rects>
      <tilted>0</tilted></_>
    <_>
      <rects>
        <_>
          7 22 4 2 -1.</_>
        <_>
          7 22 2 1 2.</_>
        <_>
          9 23 2 1 2.</_></rects>
      <tilted>0</tilted></_>
    <_>
      <rects>
        <_>
          8 1 2 10 -1.</_>
        <_>
          9 1 1 10 2.</_></rects>
      <tilted>0</tilted></_>
    <_>
      <rects>
        <_>
          8 1 16 13 -1.</_>
        <_>
          16 1 8 13 2.</_></rects>
      <tilted>0</tilted></_>
    <_>
      <rects>
        <_>
          8 2 4 20 -1.</_>
        <_>
          8 2 2 10 2.</_>
        <_>
          10 12 2 10 2.</_></rects>
      <tilted>0</tilted></_>
    <_>
      <rects>
        <_>
          8 7 2 8 -1.</_>
        <_>
          8 11 2 4 2.</_></rects>
      <tilted>0</tilted></_>
    <_>
      <rects>
        <_>
          8 7 16 14 -1.</_>
        <_>
          8 14 16 7 2.</_></rects>
      <tilted>0</tilted></_>
    <_>
      <rects>
        <_>
          8 8 6 6 -1.</_>
        <_>
          8 8 3 3 2.</_>
        <_>
          11 11 3 3 2.</_></rects>
      <tilted>0</tilted></_>
    <_>
      <rects>
        <_>
          8 8 8 2 -1.</_>
        <_>
          8 9 8 1 2.</_></rects>
      <tilted>0</tilted></_>
    <_>
      <rects>
        <_>
          8 9 10 8 -1.</_>
        <_>
          8 9 5 4 2.</_>
        <_>
          13 13 5 4 2.</_></rects>
      <tilted>0</tilted></_>
    <_>
      <rects>
        <_>
          8 9 6 9 -1.</_>
        <_>
          8 12 6 3 2.</_></rects>
      <tilted>0</tilted></_>
    <_>
      <rects>
        <_>
          8 9 8 6 -1.</_>
        <_>
          8 12 8 3 2.</_></rects>
      <tilted>0</tilted></_>
    <_>
      <rects>
        <_>
          9 0 2 2 -1.</_>
        <_>
          10 0 1 2 2.</_></rects>
      <tilted>0</tilted></_>
    <_>
      <rects>
        <_>
          9 0 2 3 -1.</_>
        <_>
          10 0 1 3 2.</_></rects>
      <tilted>0</tilted></_>
    <_>
      <rects>
        <_>
          9 0 15 11 -1.</_>
        <_>
          14 0 5 11 2.</_></rects>
      <tilted>0</tilted></_>
    <_>
      <rects>
        <_>
          9 1 2 6 -1.</_>
        <_>
          9 4 2 3 2.</_></rects>
      <tilted>0</tilted></_>
    <_>
      <rects>
        <_>
          9 5 14 18 -1.</_>
        <_>
          9 5 7 9 2.</_>
        <_>
          16 14 7 9 2.</_></rects>
      <tilted>0</tilted></_>
    <_>
      <rects>
        <_>
          9 9 7 4 -1.</_>
        <_>
          9 11 7 2 2.</_></rects>
      <tilted>0</tilted></_>
    <_>
      <rects>
        <_>
          9 16 2 2 -1.</_>
        <_>
          9 17 2 1 2.</_></rects>
      <tilted>0</tilted></_>
    <_>
      <rects>
        <_>
          9 16 7 8 -1.</_>
        <_>
          9 20 7 4 2.</_></rects>
      <tilted>0</tilted></_>
    <_>
      <rects>
        <_>
          9 18 6 6 -1.</_>
        <_>
          11 18 2 6 2.</_></rects>
      <tilted>0</tilted></_>
    <_>
      <rects>
        <_>
          10 0 2 1 -1.</_>
        <_>
          11 0 1 1 2.</_></rects>
      <tilted>0</tilted></_>
    <_>
      <rects>
        <_>
          10 0 7 24 -1.</_>
        <_>
          10 12 7 12 2.</_></rects>
      <tilted>0</tilted></_>
    <_>
      <rects>
        <_>
          10 3 2 6 -1.</_>
        <_>
          11 3 1 6 2.</_></rects>
      <tilted>0</tilted></_>
    <_>
      <rects>
        <_>
          10 9 11 2 -1.</_>
        <_>
          10 10 11 1 2.</_></rects>
      <tilted>0</tilted></_>
    <_>
      <rects>
        <_>
          10 10 3 6 -1.</_>
        <_>
          10 13 3 3 2.</_></rects>
      <tilted>0</tilted></_>
    <_>
      <rects>
        <_>
          10 11 2 2 -1.</_>
        <_>
          10 11 1 1 2.</_>
        <_>
          11 12 1 1 2.</_></rects>
      <tilted>0</tilted></_>
    <_>
      <rects>
        <_>
          10 16 6 2 -1.</_>
        <_>
          12 16 2 2 2.</_></rects>
      <tilted>0</tilted></_>
    <_>
      <rects>
        <_>
          10 16 3 6 -1.</_>
        <_>
          10 19 3 3 2.</_></rects>
      <tilted>0</tilted></_>
    <_>
      <rects>
        <_>
          10 16 10 8 -1.</_>
        <_>
          10 16 5 4 2.</_>
        <_>
          15 20 5 4 2.</_></rects>
      <tilted>0</tilted></_>
    <_>
      <rects>
        <_>
          10 20 14 2 -1.</_>
        <_>
          10 21 14 1 2.</_></rects>
      <tilted>0</tilted></_>
    <_>
      <rects>
        <_>
          11 0 2 1 -1.</_>
        <_>
          12 0 1 1 2.</_></rects>
      <tilted>0</tilted></_>
    <_>
      <rects>
        <_>
          11 0 2 4 -1.</_>
        <_>
          11 0 1 2 2.</_>
        <_>
          12 2 1 2 2.</_></rects>
      <tilted>0</tilted></_>
    <_>
      <rects>
        <_>
          11 3 3 6 -1.</_>
        <_>
          11 6 3 3 2.</_></rects>
      <tilted>0</tilted></_>
    <_>
      <rects>
        <_>
          11 5 4 14 -1.</_>
        <_>
          11 12 4 7 2.</_></rects>
      <tilted>0</tilted></_>
    <_>
      <rects>
        <_>
          11 5 10 4 -1.</_>
        <_>
          16 5 5 4 2.</_></rects>
      <tilted>0</tilted></_>
    <_>
      <rects>
        <_>
          11 8 2 1 -1.</_>
        <_>
          12 8 1 1 2.</_></rects>
      <tilted>0</tilted></_>
    <_>
      <rects>
        <_>
          11 8 13 16 -1.</_>
        <_>
          11 16 13 8 2.</_></rects>
      <tilted>0</tilted></_>
    <_>
      <rects>
        <_>
          11 9 1 3 -1.</_>
        <_>
          11 10 1 1 2.</_></rects>
      <tilted>0</tilted></_>
    <_>
      <rects>
        <_>
          11 14 2 2 -1.</_>
        <_>
          11 14 1 1 2.</_>
        <_>
          12 15 1 1 2.</_></rects>
      <tilted>0</tilted></_>
    <_>
      <rects>
        <_>
          11 16 3 1 -1.</_>
        <_>
          12 16 1 1 2.</_></rects>
      <tilted>0</tilted></_>
    <_>
      <rects>
        <_>
          12 2 12 2 -1.</_>
        <_>
          16 2 4 2 2.</_></rects>
      <tilted>0</tilted></_>
    <_>
      <rects>
        <_>
          12 3 10 2 -1.</_>
        <_>
          17 3 5 2 2.</_></rects>
      <tilted>0</tilted></_>
    <_>
      <rects>
        <_>
          12 4 1 15 -1.</_>
        <_>
          12 9 1 5 2.</_></rects>
      <tilted>0</tilted></_>
    <_>
      <rects>
        <_>
          12 6 6 12 -1.</_>
        <_>
          12 12 6 6 2.</_></rects>
      <tilted>0</tilted></_>
    <_>
      <rects>
        <_>
          12 12 1 8 -1.</_>
        <_>
          12 16 1 4 2.</_></rects>
      <tilted>0</tilted></_>
    <_>
      <rects>
        <_>
          12 12 5 2 -1.</_>
        <_>
          12 13 5 1 2.</_></rects>
      <tilted>0</tilted></_>
    <_>
      <rects>
        <_>
          12 14 2 4 -1.</_>
        <_>
          12 16 2 2 2.</_></rects>
      <tilted>0</tilted></_>
    <_>
      <rects>
        <_>
          12 16 2 4 -1.</_>
        <_>
          12 16 1 2 2.</_>
        <_>
          13 18 1 2 2.</_></rects>
      <tilted>0</tilted></_>
    <_>
      <rects>
        <_>
          12 22 9 2 -1.</_>
        <_>
          15 22 3 2 2.</_></rects>
      <tilted>0</tilted></_>
    <_>
      <rects>
        <_>
          13 5 8 18 -1.</_>
        <_>
          13 5 4 9 2.</_>
        <_>
          17 14 4 9 2.</_></rects>
      <tilted>0</tilted></_>
    <_>
      <rects>
        <_>
          13 9 2 4 -1.</_>
        <_>
          13 9 1 2 2.</_>
        <_>
          14 11 1 2 2.</_></rects>
      <tilted>0</tilted></_>
    <_>
      <rects>
        <_>
          13 12 4 8 -1.</_>
        <_>
          15 12 2 8 2.</_></rects>
      <tilted>0</tilted></_>
    <_>
      <rects>
        <_>
          13 17 2 2 -1.</_>
        <_>
          13 17 1 1 2.</_>
        <_>
          14 18 1 1 2.</_></rects>
      <tilted>0</tilted></_>
    <_>
      <rects>
        <_>
          14 1 4 2 -1.</_>
        <_>
          14 1 2 1 2.</_>
        <_>
          16 2 2 1 2.</_></rects>
      <tilted>0</tilted></_>
    <_>
      <rects>
        <_>
          14 3 2 2 -1.</_>
        <_>
          14 4 2 1 2.</_></rects>
      <tilted>0</tilted></_>
    <_>
      <rects>
        <_>
          14 6 3 2 -1.</_>
        <_>
          14 7 3 1 2.</_></rects>
      <tilted>0</tilted></_>
    <_>
      <rects>
        <_>
          14 9 2 4 -1.</_>
        <_>
          14 9 1 2 2.</_>
        <_>
          15 11 1 2 2.</_></rects>
      <tilted>0</tilted></_>
    <_>
      <rects>
        <_>
          14 10 2 1 -1.</_>
        <_>
          15 10 1 1 2.</_></rects>
      <tilted>0</tilted></_>
    <_>
      <rects>
        <_>
          14 11 2 2 -1.</_>
        <_>
          15 11 1 2 2.</_></rects>
      <tilted>0</tilted></_>
    <_>
      <rects>
        <_>
          14 11 2 4 -1.</_>
        <_>
          15 11 1 4 2.</_></rects>
      <tilted>0</tilted></_>
    <_>
      <rects>
        <_>
          14 22 6 2 -1.</_>
        <_>
          14 22 3 1 2.</_>
        <_>
          17 23 3 1 2.</_></rects>
      <tilted>0</tilted></_>
    <_>
      <rects>
        <_>
          15 2 2 6 -1.</_>
        <_>
          15 2 1 3 2.</_>
        <_>
          16 5 1 3 2.</_></rects>
      <tilted>0</tilted></_>
    <_>
      <rects>
        <_>
          15 4 2 9 -1.</_>
        <_>
          16 4 1 9 2.</_></rects>
      <tilted>0</tilted></_>
    <_>
      <rects>
        <_>
          15 4 3 12 -1.</_>
        <_>
          15 10 3 6 2.</_></rects>
      <tilted>0</tilted></_>
    <_>
      <rects>
        <_>
          15 5 6 11 -1.</_>
        <_>
          18 5 3 11 2.</_></rects>
      <tilted>0</tilted></_>
    <_>
      <rects>
        <_>
          15 19 4 3 -1.</_>
        <_>
          17 19 2 3 2.</_></rects>
      <tilted>0</tilted></_>
    <_>
      <rects>
        <_>
          15 22 2 1 -1.</_>
        <_>
          16 22 1 1 2.</_></rects>
      <tilted>0</tilted></_>
    <_>
      <rects>
        <_>
          16 0 4 6 -1.</_>
        <_>
          18 0 2 6 2.</_></rects>
      <tilted>0</tilted></_>
    <_>
      <rects>
        <_>
          16 2 2 19 -1.</_>
        <_>
          17 2 1 19 2.</_></rects>
      <tilted>0</tilted></_>
    <_>
      <rects>
        <_>
          16 2 4 2 -1.</_>
        <_>
          16 2 2 1 2.</_>
        <_>
          18 3 2 1 2.</_></rects>
      <tilted>0</tilted></_>
    <_>
      <rects>
        <_>
          16 12 2 9 -1.</_>
        <_>
          16 15 2 3 2.</_></rects>
      <tilted>0</tilted></_>
    <_>
      <rects>
        <_>
          16 14 7 10 -1.</_>
        <_>
          16 19 7 5 2.</_></rects>
      <tilted>0</tilted></_>
    <_>
      <rects>
        <_>
          17 1 4 12 -1.</_>
        <_>
          17 7 4 6 2.</_></rects>
      <tilted>0</tilted></_>
    <_>
      <rects>
        <_>
          17 2 4 14 -1.</_>
        <_>
          17 2 2 7 2.</_>
        <_>
          19 9 2 7 2.</_></rects>
      <tilted>0</tilted></_>
    <_>
      <rects>
        <_>
          17 8 6 4 -1.</_>
        <_>
          17 10 6 2 2.</_></rects>
      <tilted>0</tilted></_>
    <_>
      <rects>
        <_>
          18 0 6 22 -1.</_>
        <_>
          18 0 3 11 2.</_>
        <_>
          21 11 3 11 2.</_></rects>
      <tilted>0</tilted></_>
    <_>
      <rects>
        <_>
          18 0 4 24 -1.</_>
        <_>
          18 8 4 8 2.</_></rects>
      <tilted>0</tilted></_>
    <_>
      <rects>
        <_>
          18 4 2 20 -1.</_>
        <_>
          18 4 1 10 2.</_>
        <_>
          19 14 1 10 2.</_></rects>
      <tilted>0</tilted></_>
    <_>
      <rects>
        <_>
          18 6 4 4 -1.</_>
        <_>
          18 6 2 2 2.</_>
        <_>
          20 8 2 2 2.</_></rects>
      <tilted>0</tilted></_>
    <_>
      <rects>
        <_>
          19 2 2 12 -1.</_>
        <_>
          19 2 1 6 2.</_>
        <_>
          20 8 1 6 2.</_></rects>
      <tilted>0</tilted></_>
    <_>
      <rects>
        <_>
          19 4 4 8 -1.</_>
        <_>
          19 4 2 4 2.</_>
        <_>
          21 8 2 4 2.</_></rects>
      <tilted>0</tilted></_>
    <_>
      <rects>
        <_>
          19 12 2 2 -1.</_>
        <_>
          19 12 1 1 2.</_>
        <_>
          20 13 1 1 2.</_></rects>
      <tilted>0</tilted></_>
    <_>
      <rects>
        <_>
          19 13 2 8 -1.</_>
        <_>
          19 13 1 4 2.</_>
        <_>
          20 17 1 4 2.</_></rects>
      <tilted>0</tilted></_>
    <_>
      <rects>
        <_>
          19 13 2 7 -1.</_>
        <_>
          20 13 1 7 2.</_></rects>
      <tilted>0</tilted></_>
    <_>
      <rects>
        <_>
          19 21 5 2 -1.</_>
        <_>
          19 22 5 1 2.</_></rects>
      <tilted>0</tilted></_>
    <_>
      <rects>
        <_>
          19 23 2 1 -1.</_>
        <_>
          20 23 1 1 2.</_></rects>
      <tilted>0</tilted></_>
    <_>
      <rects>
        <_>
          20 0 4 18 -1.</_>
        <_>
          20 0 2 9 2.</_>
        <_>
          22 9 2 9 2.</_></rects>
      <tilted>0</tilted></_>
    <_>
      <rects>
        <_>
          20 3 4 10 -1.</_>
        <_>
          22 3 2 10 2.</_></rects>
      <tilted>0</tilted></_>
    <_>
      <rects>
        <_>
          20 5 4 5 -1.</_>
        <_>
          22 5 2 5 2.</_></rects>
      <tilted>0</tilted></_>
    <_>
      <rects>
        <_>
          20 6 4 3 -1.</_>
        <_>
          22 6 2 3 2.</_></rects>
      <tilted>0</tilted></_>
    <_>
      <rects>
        <_>
          20 14 4 4 -1.</_>
        <_>
          20 14 2 2 2.</_>
        <_>
          22 16 2 2 2.</_></rects>
      <tilted>0</tilted></_>
    <_>
      <rects>
        <_>
          20 16 4 2 -1.</_>
        <_>
          20 16 2 1 2.</_>
        <_>
          22 17 2 1 2.</_></rects>
      <tilted>0</tilted></_>
    <_>
      <rects>
        <_>
          20 18 1 6 -1.</_>
        <_>
          20 21 1 3 2.</_></rects>
      <tilted>0</tilted></_>
    <_>
      <rects>
        <_>
          21 5 2 12 -1.</_>
        <_>
          22 5 1 12 2.</_></rects>
      <tilted>0</tilted></_>
    <_>
      <rects>
        <_>
          22 8 2 6 -1.</_>
        <_>
          23 8 1 6 2.</_></rects>
      <tilted>0</tilted></_>
    <_>
      <rects>
        <_>
          22 11 2 12 -1.</_>
        <_>
          22 11 1 6 2.</_>
        <_>
          23 17 1 6 2.</_></rects>
      <tilted>0</tilted></_>
    <_>
      <rects>
        <_>
          22 21 2 2 -1.</_>
        <_>
          22 21 1 1 2.</_>
        <_>
          23 22 1 1 2.</_></rects>
      <tilted>0</tilted></_>
    <_>
      <rects>
        <_>
          22 21 2 2 -1.</_>
        <_>
          23 21 1 2 2.</_></rects>
      <tilted>0</tilted></_>
    <_>
      <rects>
        <_>
          23 2 1 16 -1.</_>
        <_>
          23 10 1 8 2.</_></rects>
      <tilted>0</tilted></_>
    <_>
      <rects>
        <_>
          23 2 1 18 -1.</_>
        <_>
          23 11 1 9 2.</_></rects>
      <tilted>0</tilted></_></features></cascade>
</opencv_storage>
