<?xml version="1.0"?>
<opencv_storage>
<stage15>
  <maxWeakCount>9</maxWeakCount>
  <stageThreshold>5.3989112377166748e-01</stageThreshold>
  <weakClassifiers>
    <_>
      <internalNodes>
        0 -1 153411 1.9749156490433961e-04</internalNodes>
      <leafValues>
        -6.2921351194381714e-01 8.0769228935241699e-01</leafValues></_>
    <_>
      <internalNodes>
        0 -1 118624 -2.9980293475091457e-03</internalNodes>
      <leafValues>
        8.2350212335586548e-01 -4.3069308996200562e-01</leafValues></_>
    <_>
      <internalNodes>
        0 -1 71590 1.4859428629279137e-03</internalNodes>
      <leafValues>
        6.5332156419754028e-01 -5.5341374874114990e-01</leafValues></_>
    <_>
      <internalNodes>
        0 -1 126509 1.5319392550736666e-03</internalNodes>
      <leafValues>
        4.1295528411865234e-01 -8.7559276819229126e-01</leafValues></_>
    <_>
      <internalNodes>
        0 -1 144002 -1.5473528765141964e-04</internalNodes>
      <leafValues>
        -5.8063924312591553e-01 6.0782408714294434e-01</leafValues></_>
    <_>
      <internalNodes>
        0 -1 117253 7.1240426041185856e-04</internalNodes>
      <leafValues>
        -6.1167609691619873e-01 6.3332396745681763e-01</leafValues></_>
    <_>
      <internalNodes>
        0 -1 105908 6.7449997004587203e-05</internalNodes>
      <leafValues>
        -5.5082899332046509e-01 5.9789013862609863e-01</leafValues></_>
    <_>
      <internalNodes>
        0 -1 46179 1.4615215361118317e-02</internalNodes>
      <leafValues>
        4.7883695363998413e-01 -8.2034587860107422e-01</leafValues></_>
    <_>
      <internalNodes>
        0 -1 159521 -2.0589663472492248e-04</internalNodes>
      <leafValues>
        8.1968718767166138e-01 -5.3263127803802490e-01</leafValues></_></weakClassifiers></stage15>
</opencv_storage>
