<?xml version="1.0"?>
<opencv_storage>
<stage9>
  <maxWeakCount>14</maxWeakCount>
  <stageThreshold>1.3590219616889954e-01</stageThreshold>
  <weakClassifiers>
    <_>
      <internalNodes>
        0 -1 159606 -2.0787711255252361e-03</internalNodes>
      <leafValues>
        -7.8461539745330811e-01 3.1999999284744263e-01</leafValues></_>
    <_>
      <internalNodes>
        0 -1 67510 2.9704018961638212e-03</internalNodes>
      <leafValues>
        -3.7530934810638428e-01 8.1052678823471069e-01</leafValues></_>
    <_>
      <internalNodes>
        0 -1 144791 -1.1741865455405787e-04</internalNodes>
      <leafValues>
        -5.1809048652648926e-01 5.2388024330139160e-01</leafValues></_>
    <_>
      <internalNodes>
        0 -1 99022 -3.5085141658782959e-01</internalNodes>
      <leafValues>
        -5.5887812376022339e-01 3.7588635087013245e-01</leafValues></_>
    <_>
      <internalNodes>
        0 -1 15479 -1.1011216789484024e-01</internalNodes>
      <leafValues>
        6.1647379398345947e-01 -3.9033466577529907e-01</leafValues></_>
    <_>
      <internalNodes>
        0 -1 144141 -6.5130637958645821e-03</internalNodes>
      <leafValues>
        8.6544322967529297e-01 -2.8188663721084595e-01</leafValues></_>
    <_>
      <internalNodes>
        0 -1 159397 -4.0893238037824631e-03</internalNodes>
      <leafValues>
        -6.9947266578674316e-01 3.2995000481605530e-01</leafValues></_>
    <_>
      <internalNodes>
        0 -1 24702 -1.1836430430412292e-01</internalNodes>
      <leafValues>
        -6.8152910470962524e-01 4.0243721008300781e-01</leafValues></_>
    <_>
      <internalNodes>
        0 -1 61430 2.1847624331712723e-02</internalNodes>
      <leafValues>
        2.2510246932506561e-01 -8.3834403753280640e-01</leafValues></_>
    <_>
      <internalNodes>
        0 -1 29997 -4.4142473489046097e-02</internalNodes>
      <leafValues>
        8.3104670047760010e-01 -3.0084756016731262e-01</leafValues></_>
    <_>
      <internalNodes>
        0 -1 150455 -1.9931036513298750e-03</internalNodes>
      <leafValues>
        6.2100464105606079e-01 -3.9525648951530457e-01</leafValues></_>
    <_>
      <internalNodes>
        0 -1 67719 -2.0771496929228306e-03</internalNodes>
      <leafValues>
        -5.0805121660232544e-01 4.5538872480392456e-01</leafValues></_>
    <_>
      <internalNodes>
        0 -1 67363 -1.3315486907958984e-01</internalNodes>
      <leafValues>
        5.8210319280624390e-01 -4.3372598290443420e-01</leafValues></_>
    <_>
      <internalNodes>
        0 -1 152115 -1.0039930790662766e-01</internalNodes>
      <leafValues>
        -3.1938213109970093e-01 9.3848276138305664e-01</leafValues></_></weakClassifiers></stage9>
</opencv_storage>
