<?xml version="1.0"?>
<opencv_storage>
<stage8>
  <maxWeakCount>12</maxWeakCount>
  <stageThreshold>2.7429911494255066e-01</stageThreshold>
  <weakClassifiers>
    <_>
      <internalNodes>
        0 -1 102070 1.1860965751111507e-02</internalNodes>
      <leafValues>
        5.7575756311416626e-01 -6.5853661298751831e-01</leafValues></_>
    <_>
      <internalNodes>
        0 -1 20948 -1.3214036822319031e-02</internalNodes>
      <leafValues>
        3.0802351236343384e-01 -7.9809939861297607e-01</leafValues></_>
    <_>
      <internalNodes>
        0 -1 988 4.1615933179855347e-02</internalNodes>
      <leafValues>
        4.1170459985733032e-01 -6.8222236633300781e-01</leafValues></_>
    <_>
      <internalNodes>
        0 -1 123190 1.0758938733488321e-03</internalNodes>
      <leafValues>
        -4.8667612671852112e-01 6.2000584602355957e-01</leafValues></_>
    <_>
      <internalNodes>
        0 -1 95048 4.1274507530033588e-03</internalNodes>
      <leafValues>
        4.1404733061790466e-01 -8.0579692125320435e-01</leafValues></_>
    <_>
      <internalNodes>
        0 -1 85808 3.5101247485727072e-03</internalNodes>
      <leafValues>
        4.9325069785118103e-01 -7.7846753597259521e-01</leafValues></_>
    <_>
      <internalNodes>
        0 -1 156036 -4.7551151365041733e-03</internalNodes>
      <leafValues>
        1. -3.7332990765571594e-01</leafValues></_>
    <_>
      <internalNodes>
        0 -1 106314 -3.7003383040428162e-02</internalNodes>
      <leafValues>
        3.7904077768325806e-01 -9.5317524671554565e-01</leafValues></_>
    <_>
      <internalNodes>
        0 -1 36996 4.6888488577678800e-04</internalNodes>
      <leafValues>
        -4.8611661791801453e-01 7.5025594234466553e-01</leafValues></_>
    <_>
      <internalNodes>
        0 -1 29282 -3.2804021611809731e-03</internalNodes>
      <leafValues>
        -6.6651529073715210e-01 4.8867323994636536e-01</leafValues></_>
    <_>
      <internalNodes>
        0 -1 4416 1.3420784845948219e-02</internalNodes>
      <leafValues>
        4.5535579323768616e-01 -8.2368415594100952e-01</leafValues></_>
    <_>
      <internalNodes>
        0 -1 21836 -4.2614072561264038e-02</internalNodes>
      <leafValues>
        5.9514737129211426e-01 -5.6581318378448486e-01</leafValues></_></weakClassifiers></stage8>
</opencv_storage>
