<?xml version="1.0"?>
<opencv_storage>
<stage13>
  <maxWeakCount>11</maxWeakCount>
  <stageThreshold>-3.2056981325149536e-01</stageThreshold>
  <weakClassifiers>
    <_>
      <internalNodes>
        0 -1 131524 5.6768365902826190e-04</internalNodes>
      <leafValues>
        -5.7608693838119507e-01 7.8260868787765503e-01</leafValues></_>
    <_>
      <internalNodes>
        0 -1 152949 3.7557707400992513e-04</internalNodes>
      <leafValues>
        6.5676993131637573e-01 -5.0715547800064087e-01</leafValues></_>
    <_>
      <internalNodes>
        0 -1 10949 -1.4676143229007721e-01</internalNodes>
      <leafValues>
        2.9304072260856628e-01 -9.4862240552902222e-01</leafValues></_>
    <_>
      <internalNodes>
        0 -1 29234 -2.8106560930609703e-03</internalNodes>
      <leafValues>
        -5.9609282016754150e-01 5.6235921382904053e-01</leafValues></_>
    <_>
      <internalNodes>
        0 -1 85336 -6.2564760446548462e-03</internalNodes>
      <leafValues>
        8.6634844541549683e-01 -4.7799050807952881e-01</leafValues></_>
    <_>
      <internalNodes>
        0 -1 53482 3.6416117101907730e-02</internalNodes>
      <leafValues>
        -3.0190694332122803e-01 9.0769946575164795e-01</leafValues></_>
    <_>
      <internalNodes>
        0 -1 89769 -2.1482766605913639e-03</internalNodes>
      <leafValues>
        -1. 3.4678509831428528e-01</leafValues></_>
    <_>
      <internalNodes>
        0 -1 157597 -1.1861915118061006e-04</internalNodes>
      <leafValues>
        8.6313802003860474e-01 -3.6886045336723328e-01</leafValues></_>
    <_>
      <internalNodes>
        0 -1 13297 1.9275999511592090e-04</internalNodes>
      <leafValues>
        4.6046841144561768e-01 -7.4612450599670410e-01</leafValues></_>
    <_>
      <internalNodes>
        0 -1 35903 -1.2609384953975677e-02</internalNodes>
      <leafValues>
        5.0666028261184692e-01 -5.8024781942367554e-01</leafValues></_>
    <_>
      <internalNodes>
        0 -1 140013 -3.3587543293833733e-04</internalNodes>
      <leafValues>
        6.5872579813003540e-01 -4.7264662384986877e-01</leafValues></_></weakClassifiers></stage13>
</opencv_storage>
