<?xml version="1.0"?>
<opencv_storage>
<stage7>
  <maxWeakCount>13</maxWeakCount>
  <stageThreshold>3.7105476856231689e-01</stageThreshold>
  <weakClassifiers>
    <_>
      <internalNodes>
        0 -1 158059 -1.4135321602225304e-02</internalNodes>
      <leafValues>
        7.4311923980712891e-01 -4.2408376932144165e-01</leafValues></_>
    <_>
      <internalNodes>
        0 -1 159158 -8.1509388983249664e-03</internalNodes>
      <leafValues>
        -7.2501200437545776e-01 4.4696348905563354e-01</leafValues></_>
    <_>
      <internalNodes>
        0 -1 87193 -7.6244892552495003e-03</internalNodes>
      <leafValues>
        5.9956783056259155e-01 -4.6341401338577271e-01</leafValues></_>
    <_>
      <internalNodes>
        0 -1 159525 1.0505858808755875e-03</internalNodes>
      <leafValues>
        -4.1067865490913391e-01 6.1150079965591431e-01</leafValues></_>
    <_>
      <internalNodes>
        0 -1 141263 -9.4397507607936859e-02</internalNodes>
      <leafValues>
        4.3246558308601379e-01 -6.8789750337600708e-01</leafValues></_>
    <_>
      <internalNodes>
        0 -1 160150 -3.0610490590333939e-02</internalNodes>
      <leafValues>
        -3.6437088251113892e-01 7.4393188953399658e-01</leafValues></_>
    <_>
      <internalNodes>
        0 -1 69852 -5.4323337972164154e-03</internalNodes>
      <leafValues>
        2.3085036873817444e-01 -1.</leafValues></_>
    <_>
      <internalNodes>
        0 -1 11369 -3.9223760366439819e-02</internalNodes>
      <leafValues>
        -7.7872669696807861e-01 3.0125465989112854e-01</leafValues></_>
    <_>
      <internalNodes>
        0 -1 148241 -1.1238294064241927e-05</internalNodes>
      <leafValues>
        -4.0475934743881226e-01 7.0304179191589355e-01</leafValues></_>
    <_>
      <internalNodes>
        0 -1 145750 -1.9039157778024673e-02</internalNodes>
      <leafValues>
        -6.4293408393859863e-01 3.9985030889511108e-01</leafValues></_>
    <_>
      <internalNodes>
        0 -1 81069 -4.3673664331436157e-01</internalNodes>
      <leafValues>
        5.9240770339965820e-01 -4.9348869919776917e-01</leafValues></_>
    <_>
      <internalNodes>
        0 -1 39034 6.3382736407220364e-03</internalNodes>
      <leafValues>
        6.0042273998260498e-01 -3.4331911802291870e-01</leafValues></_>
    <_>
      <internalNodes>
        0 -1 69370 -1.2309566373005509e-03</internalNodes>
      <leafValues>
        -6.7271554470062256e-01 3.9849337935447693e-01</leafValues></_></weakClassifiers></stage7>
</opencv_storage>
