<?xml version="1.0"?>
<opencv_storage>
<stage4>
  <maxWeakCount>15</maxWeakCount>
  <stageThreshold>2.9720366001129150e-02</stageThreshold>
  <weakClassifiers>
    <_>
      <internalNodes>
        0 -1 37928 -5.1681585609912872e-02</internalNodes>
      <leafValues>
        -4.9295774102210999e-01 4.4303798675537109e-01</leafValues></_>
    <_>
      <internalNodes>
        0 -1 41776 -5.1886677742004395e-02</internalNodes>
      <leafValues>
        7.7686107158660889e-01 -2.5137218832969666e-01</leafValues></_>
    <_>
      <internalNodes>
        0 -1 99394 -6.4832121133804321e-02</internalNodes>
      <leafValues>
        2.8028911352157593e-01 -8.0799144506454468e-01</leafValues></_>
    <_>
      <internalNodes>
        0 -1 111097 -2.1599113941192627e-02</internalNodes>
      <leafValues>
        8.9716464281082153e-01 -2.5458183884620667e-01</leafValues></_>
    <_>
      <internalNodes>
        0 -1 21297 4.7323837876319885e-02</internalNodes>
      <leafValues>
        -3.2297059893608093e-01 6.8944996595382690e-01</leafValues></_>
    <_>
      <internalNodes>
        0 -1 138663 -6.9244757294654846e-02</internalNodes>
      <leafValues>
        -9.1714304685592651e-01 2.4709551036357880e-01</leafValues></_>
    <_>
      <internalNodes>
        0 -1 101234 -2.5854552164673805e-02</internalNodes>
      <leafValues>
        8.0452084541320801e-01 -3.0140325427055359e-01</leafValues></_>
    <_>
      <internalNodes>
        0 -1 157009 -5.0144750275649130e-05</internalNodes>
      <leafValues>
        4.4488239288330078e-01 -4.5368233323097229e-01</leafValues></_>
    <_>
      <internalNodes>
        0 -1 103285 2.9274141415953636e-02</internalNodes>
      <leafValues>
        -2.4667975306510925e-01 9.8033195734024048e-01</leafValues></_>
    <_>
      <internalNodes>
        0 -1 135427 -6.1977174482308328e-05</internalNodes>
      <leafValues>
        -5.6883859634399414e-01 3.5230061411857605e-01</leafValues></_>
    <_>
      <internalNodes>
        0 -1 148266 -3.1381780281662941e-03</internalNodes>
      <leafValues>
        7.0721590518951416e-01 -2.9637283086776733e-01</leafValues></_>
    <_>
      <internalNodes>
        0 -1 82223 -2.0303931087255478e-02</internalNodes>
      <leafValues>
        4.2449501156806946e-01 -6.1003279685974121e-01</leafValues></_>
    <_>
      <internalNodes>
        0 -1 67429 -1.1970680207014084e-02</internalNodes>
      <leafValues>
        7.9019880294799805e-01 -3.2814532518386841e-01</leafValues></_>
    <_>
      <internalNodes>
        0 -1 131848 -5.6614843197166920e-04</internalNodes>
      <leafValues>
        7.9743617773056030e-01 -2.2473283112049103e-01</leafValues></_>
    <_>
      <internalNodes>
        0 -1 141039 1.3324203900992870e-03</internalNodes>
      <leafValues>
        -3.4838491678237915e-01 6.1976265907287598e-01</leafValues></_></weakClassifiers></stage4>
</opencv_storage>
