<?xml version="1.0"?>
<opencv_storage>
<stage9>
  <maxWeakCount>13</maxWeakCount>
  <stageThreshold>-4.3251103162765503e-01</stageThreshold>
  <weakClassifiers>
    <_>
      <internalNodes>
        0 -1 156946 -1.9201854593120515e-04</internalNodes>
      <leafValues>
        -5.6028366088867188e-01 4.9685534834861755e-01</leafValues></_>
    <_>
      <internalNodes>
        0 -1 150841 1.2622057693079114e-04</internalNodes>
      <leafValues>
        5.9744840860366821e-01 -4.5250263810157776e-01</leafValues></_>
    <_>
      <internalNodes>
        0 -1 74645 -7.3952876846306026e-05</internalNodes>
      <leafValues>
        -4.8600569367408752e-01 5.9412896633148193e-01</leafValues></_>
    <_>
      <internalNodes>
        0 -1 111843 -5.1545329391956329e-02</internalNodes>
      <leafValues>
        -8.1957483291625977e-01 3.0029594898223877e-01</leafValues></_>
    <_>
      <internalNodes>
        0 -1 142983 -2.3597627878189087e-02</internalNodes>
      <leafValues>
        3.6148899793624878e-01 -6.9834315776824951e-01</leafValues></_>
    <_>
      <internalNodes>
        0 -1 138083 -3.7180725485086441e-04</internalNodes>
      <leafValues>
        8.7567788362503052e-01 -3.3897948265075684e-01</leafValues></_>
    <_>
      <internalNodes>
        0 -1 156684 -1.9366777269169688e-03</internalNodes>
      <leafValues>
        -7.6922953128814697e-01 3.6490350961685181e-01</leafValues></_>
    <_>
      <internalNodes>
        0 -1 144334 1.2955408543348312e-02</internalNodes>
      <leafValues>
        -5.1954460144042969e-01 5.4752415418624878e-01</leafValues></_>
    <_>
      <internalNodes>
        0 -1 133717 1.8409409676678479e-04</internalNodes>
      <leafValues>
        -3.9482334256172180e-01 8.2172441482543945e-01</leafValues></_>
    <_>
      <internalNodes>
        0 -1 115543 1.6493691364303231e-03</internalNodes>
      <leafValues>
        6.5060973167419434e-01 -4.1630464792251587e-01</leafValues></_>
    <_>
      <internalNodes>
        0 -1 47471 -8.1389918923377991e-03</internalNodes>
      <leafValues>
        7.5610482692718506e-01 -3.8503852486610413e-01</leafValues></_>
    <_>
      <internalNodes>
        0 -1 106985 5.7346066460013390e-03</internalNodes>
      <leafValues>
        3.6866956949234009e-01 -7.2374588251113892e-01</leafValues></_>
    <_>
      <internalNodes>
        0 -1 86724 -3.0329294531838968e-05</internalNodes>
      <leafValues>
        -5.7626074552536011e-01 5.1341456174850464e-01</leafValues></_></weakClassifiers></stage9>
</opencv_storage>
