<?xml version="1.0"?>
<opencv_storage>
<stage8>
  <maxWeakCount>14</maxWeakCount>
  <stageThreshold>2.0590755343437195e-01</stageThreshold>
  <weakClassifiers>
    <_>
      <internalNodes>
        0 -1 140444 -3.9554535760544240e-04</internalNodes>
      <leafValues>
        -5.5555558204650879e-01 5.7823127508163452e-01</leafValues></_>
    <_>
      <internalNodes>
        0 -1 134671 4.4460161589086056e-03</internalNodes>
      <leafValues>
        5.5842363834381104e-01 -4.1937249898910522e-01</leafValues></_>
    <_>
      <internalNodes>
        0 -1 155422 2.9743563383817673e-02</internalNodes>
      <leafValues>
        -4.0642294287681580e-01 5.7115781307220459e-01</leafValues></_>
    <_>
      <internalNodes>
        0 -1 48494 1.1708834208548069e-03</internalNodes>
      <leafValues>
        -3.7491789460182190e-01 7.5221896171569824e-01</leafValues></_>
    <_>
      <internalNodes>
        0 -1 161091 -6.9931731559336185e-04</internalNodes>
      <leafValues>
        8.3447879552841187e-01 -2.1633386611938477e-01</leafValues></_>
    <_>
      <internalNodes>
        0 -1 61962 -6.0522593557834625e-03</internalNodes>
      <leafValues>
        9.4697397947311401e-01 -2.0283186435699463e-01</leafValues></_>
    <_>
      <internalNodes>
        0 -1 30394 7.9775471240282059e-03</internalNodes>
      <leafValues>
        -1.8725644052028656e-01 8.2424587011337280e-01</leafValues></_>
    <_>
      <internalNodes>
        0 -1 85153 -1.1508588492870331e-01</internalNodes>
      <leafValues>
        -7.1134674549102783e-01 3.3273151516914368e-01</leafValues></_>
    <_>
      <internalNodes>
        0 -1 19308 5.5131828412413597e-03</internalNodes>
      <leafValues>
        3.8524088263511658e-01 -5.4379403591156006e-01</leafValues></_>
    <_>
      <internalNodes>
        0 -1 135261 -8.9271552860736847e-03</internalNodes>
      <leafValues>
        6.0197705030441284e-01 -3.6666208505630493e-01</leafValues></_>
    <_>
      <internalNodes>
        0 -1 160701 -9.6294078975915909e-03</internalNodes>
      <leafValues>
        2.9650112986564636e-01 -7.9214185476303101e-01</leafValues></_>
    <_>
      <internalNodes>
        0 -1 117867 2.0786467939615250e-04</internalNodes>
      <leafValues>
        -2.9600101709365845e-01 8.2561409473419189e-01</leafValues></_>
    <_>
      <internalNodes>
        0 -1 121237 -4.8641719331499189e-05</internalNodes>
      <leafValues>
        6.1502230167388916e-01 -3.7733709812164307e-01</leafValues></_>
    <_>
      <internalNodes>
        0 -1 37930 5.6805775966495275e-04</internalNodes>
      <leafValues>
        -3.5804307460784912e-01 6.0482686758041382e-01</leafValues></_></weakClassifiers></stage8>
</opencv_storage>
