<?xml version="1.0"?>
<opencv_storage>
<stage1>
  <maxWeakCount>7</maxWeakCount>
  <stageThreshold>8.5610663890838623e-01</stageThreshold>
  <weakClassifiers>
    <_>
      <internalNodes>
        0 -1 30697 -2.6231890916824341e-01</internalNodes>
      <leafValues>
        8.6250001192092896e-01 -9.8571425676345825e-01</leafValues></_>
    <_>
      <internalNodes>
        0 -1 160618 -3.3737593330442905e-03</internalNodes>
      <leafValues>
        7.8654825687408447e-01 -8.1631010770797729e-01</leafValues></_>
    <_>
      <internalNodes>
        0 -1 51450 -4.1726142168045044e-02</internalNodes>
      <leafValues>
        8.6101311445236206e-01 -7.3263686895370483e-01</leafValues></_>
    <_>
      <internalNodes>
        0 -1 97711 -1.1034907773137093e-02</internalNodes>
      <leafValues>
        8.0083435773849487e-01 -7.2843563556671143e-01</leafValues></_>
    <_>
      <internalNodes>
        0 -1 93482 3.6843307316303253e-02</internalNodes>
      <leafValues>
        -4.7863462567329407e-01 9.7692668437957764e-01</leafValues></_>
    <_>
      <internalNodes>
        0 -1 45550 -7.7891098335385323e-03</internalNodes>
      <leafValues>
        6.6721069812774658e-01 -8.3217430114746094e-01</leafValues></_>
    <_>
      <internalNodes>
        0 -1 156555 2.5217541406163946e-05</internalNodes>
      <leafValues>
        -6.9144338369369507e-01 7.9849910736083984e-01</leafValues></_></weakClassifiers></stage1>
</opencv_storage>
