<?xml version="1.0"?>
<opencv_storage>
<stage13>
  <maxWeakCount>11</maxWeakCount>
  <stageThreshold>-3.3940991759300232e-01</stageThreshold>
  <weakClassifiers>
    <_>
      <internalNodes>
        0 -1 8158 -2.6491425931453705e-02</internalNodes>
      <leafValues>
        7.8260868787765503e-01 -3.4615385532379150e-01</leafValues></_>
    <_>
      <internalNodes>
        0 -1 154806 -4.0123648941516876e-02</internalNodes>
      <leafValues>
        -2.7617591619491577e-01 8.6396265029907227e-01</leafValues></_>
    <_>
      <internalNodes>
        0 -1 53713 1.9154887413606048e-03</internalNodes>
      <leafValues>
        7.3296153545379639e-01 -3.8974907994270325e-01</leafValues></_>
    <_>
      <internalNodes>
        0 -1 49558 -2.2867394727654755e-04</internalNodes>
      <leafValues>
        3.3622035384178162e-01 -9.2554700374603271e-01</leafValues></_>
    <_>
      <internalNodes>
        0 -1 78202 -4.0652247844263911e-04</internalNodes>
      <leafValues>
        7.7391284704208374e-01 -3.6468565464019775e-01</leafValues></_>
    <_>
      <internalNodes>
        0 -1 9396 5.3596235811710358e-02</internalNodes>
      <leafValues>
        -2.9812592267990112e-01 9.9338883161544800e-01</leafValues></_>
    <_>
      <internalNodes>
        0 -1 66691 -7.5304470956325531e-03</internalNodes>
      <leafValues>
        5.0959628820419312e-01 -7.4496865272521973e-01</leafValues></_>
    <_>
      <internalNodes>
        0 -1 157541 -2.3125293664634228e-03</internalNodes>
      <leafValues>
        1. -3.7594366073608398e-01</leafValues></_>
    <_>
      <internalNodes>
        0 -1 647 -1.2436645105481148e-02</internalNodes>
      <leafValues>
        -6.5522235631942749e-01 5.0341624021530151e-01</leafValues></_>
    <_>
      <internalNodes>
        0 -1 100864 -3.8311972748488188e-03</internalNodes>
      <leafValues>
        7.0900046825408936e-01 -4.4229352474212646e-01</leafValues></_>
    <_>
      <internalNodes>
        0 -1 148943 2.8032221598550677e-04</internalNodes>
      <leafValues>
        -3.4680920839309692e-01 8.7071323394775391e-01</leafValues></_></weakClassifiers></stage13>
</opencv_storage>
