<?xml version="1.0"?>
<opencv_storage>
<stage6>
  <maxWeakCount>5</maxWeakCount>
  <stageThreshold>8.3463901281356812e-01</stageThreshold>
  <weakClassifiers>
    <_>
      <internalNodes>
        0 -1 102294 -2.7443919330835342e-02</internalNodes>
      <leafValues>
        -1. 9.5286196470260620e-01</leafValues></_>
    <_>
      <internalNodes>
        0 -1 157072 -7.7646283898502588e-04</internalNodes>
      <leafValues>
        -9.2531764507293701e-01 9.4624561071395874e-01</leafValues></_>
    <_>
      <internalNodes>
        0 -1 138590 -3.4372992813587189e-03</internalNodes>
      <leafValues>
        -9.3163168430328369e-01 9.2311114072799683e-01</leafValues></_>
    <_>
      <internalNodes>
        0 -1 154054 4.8800073564052582e-03</internalNodes>
      <leafValues>
        8.5538369417190552e-01 -9.4245624542236328e-01</leafValues></_>
    <_>
      <internalNodes>
        0 -1 119353 -3.0611094087362289e-02</internalNodes>
      <leafValues>
        -8.1758385896682739e-01 8.8334274291992188e-01</leafValues></_></weakClassifiers></stage6>
</opencv_storage>
