<?xml version="1.0"?>
<opencv_storage>
<stage3>
  <maxWeakCount>14</maxWeakCount>
  <stageThreshold>3.4031793475151062e-01</stageThreshold>
  <weakClassifiers>
    <_>
      <internalNodes>
        0 -1 156545 -2.9156389064155519e-04</internalNodes>
      <leafValues>
        6.8773233890533447e-01 -5.9485530853271484e-01</leafValues></_>
    <_>
      <internalNodes>
        0 -1 3303 -3.3462449908256531e-02</internalNodes>
      <leafValues>
        -7.8227990865707397e-01 5.1438552141189575e-01</leafValues></_>
    <_>
      <internalNodes>
        0 -1 113364 1.5668424312025309e-03</internalNodes>
      <leafValues>
        -7.1288168430328369e-01 4.8214414715766907e-01</leafValues></_>
    <_>
      <internalNodes>
        0 -1 157751 2.3020841181278229e-03</internalNodes>
      <leafValues>
        -6.0825592279434204e-01 5.4803472757339478e-01</leafValues></_>
    <_>
      <internalNodes>
        0 -1 97396 1.3853356358595192e-04</internalNodes>
      <leafValues>
        -6.0407084226608276e-01 5.9211772680282593e-01</leafValues></_>
    <_>
      <internalNodes>
        0 -1 13084 1.8276022747159004e-03</internalNodes>
      <leafValues>
        -6.5130138397216797e-01 4.8942553997039795e-01</leafValues></_>
    <_>
      <internalNodes>
        0 -1 110735 -1.1535177379846573e-01</internalNodes>
      <leafValues>
        -8.3118712902069092e-01 3.7993228435516357e-01</leafValues></_>
    <_>
      <internalNodes>
        0 -1 58499 -5.7304110378026962e-02</internalNodes>
      <leafValues>
        3.1904053688049316e-01 -9.7179108858108521e-01</leafValues></_>
    <_>
      <internalNodes>
        0 -1 161661 -1.1844272725284100e-02</internalNodes>
      <leafValues>
        7.4311453104019165e-01 -3.8331800699234009e-01</leafValues></_>
    <_>
      <internalNodes>
        0 -1 70986 1.0680902050808072e-03</internalNodes>
      <leafValues>
        -9.0038084983825684e-01 3.1622263789176941e-01</leafValues></_>
    <_>
      <internalNodes>
        0 -1 112845 2.9413017909973860e-04</internalNodes>
      <leafValues>
        -7.4520009756088257e-01 3.3591973781585693e-01</leafValues></_>
    <_>
      <internalNodes>
        0 -1 131610 -1.3063155114650726e-01</internalNodes>
      <leafValues>
        -9.6254247426986694e-01 2.8734368085861206e-01</leafValues></_>
    <_>
      <internalNodes>
        0 -1 120214 -5.2042484283447266e-02</internalNodes>
      <leafValues>
        3.2757517695426941e-01 -8.6463636159896851e-01</leafValues></_>
    <_>
      <internalNodes>
        0 -1 154087 -2.8356987968436442e-05</internalNodes>
      <leafValues>
        2.5431382656097412e-01 -7.8002643585205078e-01</leafValues></_></weakClassifiers></stage3>
</opencv_storage>
