<?xml version="1.0"?>
<opencv_storage>
<stage7>
  <maxWeakCount>6</maxWeakCount>
  <stageThreshold>6.5822824835777283e-02</stageThreshold>
  <weakClassifiers>
    <_>
      <internalNodes>
        0 -1 6891 4.9319248646497726e-03</internalNodes>
      <leafValues>
        -8.5430461168289185e-01 5.9183675050735474e-01</leafValues></_>
    <_>
      <internalNodes>
        0 -1 92111 1.3785321498289704e-03</internalNodes>
      <leafValues>
        -8.0401515960693359e-01 7.2285354137420654e-01</leafValues></_>
    <_>
      <internalNodes>
        0 -1 161612 -1.0647624003468081e-04</internalNodes>
      <leafValues>
        6.5110921859741211e-01 -7.7983433008193970e-01</leafValues></_>
    <_>
      <internalNodes>
        0 -1 59495 -6.5863845520652831e-05</internalNodes>
      <leafValues>
        -5.2493959665298462e-01 9.6097564697265625e-01</leafValues></_>
    <_>
      <internalNodes>
        0 -1 59080 -8.0396011471748352e-02</internalNodes>
      <leafValues>
        7.0670223236083984e-01 -7.2029262781143188e-01</leafValues></_>
    <_>
      <internalNodes>
        0 -1 124674 2.3552634229417890e-04</internalNodes>
      <leafValues>
        -5.5487060546875000e-01 8.2507002353668213e-01</leafValues></_></weakClassifiers></stage7>
</opencv_storage>
