<?xml version="1.0"?>
<opencv_storage>
<stage2>
  <maxWeakCount>10</maxWeakCount>
  <stageThreshold>-2.9503133893013000e-01</stageThreshold>
  <weakClassifiers>
    <_>
      <internalNodes>
        0 -1 572 4.4869660632684827e-04</internalNodes>
      <leafValues>
        -7.8181821107864380e-01 7.0491802692413330e-01</leafValues></_>
    <_>
      <internalNodes>
        0 -1 58121 1.8412040662951767e-04</internalNodes>
      <leafValues>
        -7.0859825611114502e-01 7.8681981563568115e-01</leafValues></_>
    <_>
      <internalNodes>
        0 -1 134725 -1.2070605531334877e-02</internalNodes>
      <leafValues>
        7.4339830875396729e-01 -6.4000689983367920e-01</leafValues></_>
    <_>
      <internalNodes>
        0 -1 571 1.0838932357728481e-02</internalNodes>
      <leafValues>
        -7.4206358194351196e-01 6.6799229383468628e-01</leafValues></_>
    <_>
      <internalNodes>
        0 -1 158361 -2.6392268016934395e-02</internalNodes>
      <leafValues>
        7.3928767442703247e-01 -7.2839015722274780e-01</leafValues></_>
    <_>
      <internalNodes>
        0 -1 106139 -8.7029248243197799e-04</internalNodes>
      <leafValues>
        5.9528392553329468e-01 -7.7277922630310059e-01</leafValues></_>
    <_>
      <internalNodes>
        0 -1 148544 3.1845845282077789e-02</internalNodes>
      <leafValues>
        -7.5935637950897217e-01 6.2309592962265015e-01</leafValues></_>
    <_>
      <internalNodes>
        0 -1 148215 -1.7206599935889244e-02</internalNodes>
      <leafValues>
        7.4969267845153809e-01 -5.7431668043136597e-01</leafValues></_>
    <_>
      <internalNodes>
        0 -1 431 8.5066184401512146e-03</internalNodes>
      <leafValues>
        -9.1658478975296021e-01 5.1228457689285278e-01</leafValues></_>
    <_>
      <internalNodes>
        0 -1 156793 -1.1483576599857770e-05</internalNodes>
      <leafValues>
        5.0898200273513794e-01 -7.7421337366104126e-01</leafValues></_></weakClassifiers></stage2>
</opencv_storage>
