<?xml version="1.0"?>
<opencv_storage>
<cascade>
  <stageType>BOOST</stageType>
  <featureType>HAAR</featureType>
  <height>24</height>
  <width>24</width>
  <stageParams>
    <boostType>GAB</boostType>
    <minHitRate>9.9500000476837158e-01</minHitRate>
    <maxFalseAlarm>1.0000000474974513e-03</maxFalseAlarm>
    <weightTrimRate>9.4999999999999996e-01</weightTrimRate>
    <maxDepth>1</maxDepth>
    <maxWeakCount>100</maxWeakCount></stageParams>
  <featureParams>
    <maxCatCount>0</maxCatCount>
    <featSize>1</featSize>
    <mode>BASIC</mode></featureParams>
  <stageNum>12</stageNum>
  <stages>
    <!-- stage 0 -->
    <_>
      <maxWeakCount>7</maxWeakCount>
      <stageThreshold>4.4384017586708069e-01</stageThreshold>
      <weakClassifiers>
        <_>
          <internalNodes>
            0 -1 92 -5.5748265236616135e-02</internalNodes>
          <leafValues>
            -8.3561640977859497e-01 6.1904764175415039e-01</leafValues></_>
        <_>
          <internalNodes>
            0 -1 35 -1.2847550678998232e-03</internalNodes>
          <leafValues>
            6.9092893600463867e-01 -6.4903599023818970e-01</leafValues></_>
        <_>
          <internalNodes>
            0 -1 66 -1.5618464350700378e-01</internalNodes>
          <leafValues>
            -9.1741985082626343e-01 4.7565951943397522e-01</leafValues></_>
        <_>
          <internalNodes>
            0 -1 127 1.7581177875399590e-02</internalNodes>
          <leafValues>
            -5.2616435289382935e-01 9.1943460702896118e-01</leafValues></_>
        <_>
          <internalNodes>
            0 -1 55 8.8432768825441599e-04</internalNodes>
          <leafValues>
            4.7842207551002502e-01 -8.6340206861495972e-01</leafValues></_>
        <_>
          <internalNodes>
            0 -1 100 2.0620930939912796e-02</internalNodes>
          <leafValues>
            -6.9963574409484863e-01 6.0345888137817383e-01</leafValues></_>
        <_>
          <internalNodes>
            0 -1 22 6.2454636208713055e-03</internalNodes>
          <leafValues>
            -4.4284850358963013e-01 8.6841922998428345e-01</leafValues></_></weakClassifiers></_>
    <!-- stage 1 -->
    <_>
      <maxWeakCount>11</maxWeakCount>
      <stageThreshold>3.5460743308067322e-01</stageThreshold>
      <weakClassifiers>
        <_>
          <internalNodes>
            0 -1 11 -2.6641452312469482e-01</internalNodes>
          <leafValues>
            8.3783781528472900e-01 -5.2331608533859253e-01</leafValues></_>
        <_>
          <internalNodes>
            0 -1 15 -2.2810067981481552e-02</internalNodes>
          <leafValues>
            7.7874851226806641e-01 -3.7331873178482056e-01</leafValues></_>
        <_>
          <internalNodes>
            0 -1 38 -2.9632030054926872e-03</internalNodes>
          <leafValues>
            4.5686969161033630e-01 -6.3066196441650391e-01</leafValues></_>
        <_>
          <internalNodes>
            0 -1 129 -2.4030623026192188e-03</internalNodes>
          <leafValues>
            5.6866312026977539e-01 -4.6896651387214661e-01</leafValues></_>
        <_>
          <internalNodes>
            0 -1 0 -9.3134427443146706e-03</internalNodes>
          <leafValues>
            -7.9250234365463257e-01 3.5328459739685059e-01</leafValues></_>
        <_>
          <internalNodes>
            0 -1 25 -3.7893624976277351e-03</internalNodes>
          <leafValues>
            4.5199874043464661e-01 -5.6593471765518188e-01</leafValues></_>
        <_>
          <internalNodes>
            0 -1 105 -1.3893702998757362e-02</internalNodes>
          <leafValues>
            6.9088608026504517e-01 -4.2848029732704163e-01</leafValues></_>
        <_>
          <internalNodes>
            0 -1 125 2.8375745750963688e-03</internalNodes>
          <leafValues>
            4.4448700547218323e-01 -7.5456011295318604e-01</leafValues></_>
        <_>
          <internalNodes>
            0 -1 2 2.1928651258349419e-03</internalNodes>
          <leafValues>
            -4.1267010569572449e-01 7.4681013822555542e-01</leafValues></_>
        <_>
          <internalNodes>
            0 -1 10 2.5845048949122429e-03</internalNodes>
          <leafValues>
            3.4819778800010681e-01 -9.1883492469787598e-01</leafValues></_>
        <_>
          <internalNodes>
            0 -1 46 -3.3001252450048923e-03</internalNodes>
          <leafValues>
            7.5933569669723511e-01 -3.8344198465347290e-01</leafValues></_></weakClassifiers></_>
    <!-- stage 2 -->
    <_>
      <maxWeakCount>12</maxWeakCount>
      <stageThreshold>-9.0251483023166656e-02</stageThreshold>
      <weakClassifiers>
        <_>
          <internalNodes>
            0 -1 128 6.3915215432643890e-03</internalNodes>
          <leafValues>
            -5.8579879999160767e-01 4.7540983557701111e-01</leafValues></_>
        <_>
          <internalNodes>
            0 -1 95 -7.4559226632118225e-03</internalNodes>
          <leafValues>
            -3.4712180495262146e-01 6.5062475204467773e-01</leafValues></_>
        <_>
          <internalNodes>
            0 -1 60 3.0147982761263847e-03</internalNodes>
          <leafValues>
            -2.8716820478439331e-01 7.6999640464782715e-01</leafValues></_>
        <_>
          <internalNodes>
            0 -1 130 1.1817394755780697e-02</internalNodes>
          <leafValues>
            -2.8571787476539612e-01 6.1284548044204712e-01</leafValues></_>
        <_>
          <internalNodes>
            0 -1 44 1.0961660742759705e-01</internalNodes>
          <leafValues>
            -2.5604516267776489e-01 8.6341238021850586e-01</leafValues></_>
        <_>
          <internalNodes>
            0 -1 41 -2.3021289706230164e-01</internalNodes>
          <leafValues>
            -9.4378173351287842e-01 2.8735482692718506e-01</leafValues></_>
        <_>
          <internalNodes>
            0 -1 39 1.6759978607296944e-03</internalNodes>
          <leafValues>
            -3.3195513486862183e-01 7.8754973411560059e-01</leafValues></_>
        <_>
          <internalNodes>
            0 -1 120 3.0427428428083658e-03</internalNodes>
          <leafValues>
            -2.7527335286140442e-01 8.9730727672576904e-01</leafValues></_>
        <_>
          <internalNodes>
            0 -1 33 5.3103184327483177e-03</internalNodes>
          <leafValues>
            -4.4458416104316711e-01 5.5244386196136475e-01</leafValues></_>
        <_>
          <internalNodes>
            0 -1 19 -2.3005047813057899e-02</internalNodes>
          <leafValues>
            2.7923297882080078e-01 -7.9083567857742310e-01</leafValues></_>
        <_>
          <internalNodes>
            0 -1 110 1.5688189305365086e-03</internalNodes>
          <leafValues>
            -3.8737323880195618e-01 5.3573924303054810e-01</leafValues></_>
        <_>
          <internalNodes>
            0 -1 75 3.4800046705640852e-05</internalNodes>
          <leafValues>
            -5.5962753295898438e-01 4.3798255920410156e-01</leafValues></_></weakClassifiers></_>
    <!-- stage 3 -->
    <_>
      <maxWeakCount>16</maxWeakCount>
      <stageThreshold>7.6578998565673828e-01</stageThreshold>
      <weakClassifiers>
        <_>
          <internalNodes>
            0 -1 54 -1.4607197046279907e-01</internalNodes>
          <leafValues>
            8.2857143878936768e-01 -5.0769233703613281e-01</leafValues></_>
        <_>
          <internalNodes>
            0 -1 90 1.0121699888259172e-03</internalNodes>
          <leafValues>
            -4.0739873051643372e-01 6.9957393407821655e-01</leafValues></_>
        <_>
          <internalNodes>
            0 -1 124 -9.1784587129950523e-04</internalNodes>
          <leafValues>
            6.8504023551940918e-01 -3.6322897672653198e-01</leafValues></_>
        <_>
          <internalNodes>
            0 -1 48 -1.4223110629245639e-03</internalNodes>
          <leafValues>
            -5.2747672796249390e-01 4.2768338322639465e-01</leafValues></_>
        <_>
          <internalNodes>
            0 -1 18 1.4180656522512436e-02</internalNodes>
          <leafValues>
            -3.1601378321647644e-01 7.1996289491653442e-01</leafValues></_>
        <_>
          <internalNodes>
            0 -1 77 4.4358865125104785e-04</internalNodes>
          <leafValues>
            -2.7989166975021362e-01 6.7020761966705322e-01</leafValues></_>
        <_>
          <internalNodes>
            0 -1 57 1.8374563660472631e-03</internalNodes>
          <leafValues>
            -2.1336920559406281e-01 8.5407763719558716e-01</leafValues></_>
        <_>
          <internalNodes>
            0 -1 45 1.5955939888954163e-03</internalNodes>
          <leafValues>
            3.1814858317375183e-01 -9.4454413652420044e-01</leafValues></_>
        <_>
          <internalNodes>
            0 -1 113 -1.8212250433862209e-03</internalNodes>
          <leafValues>
            6.4799916744232178e-01 -4.0548640489578247e-01</leafValues></_>
        <_>
          <internalNodes>
            0 -1 27 -1.4504568651318550e-02</internalNodes>
          <leafValues>
            4.6919214725494385e-01 -4.5451208949089050e-01</leafValues></_>
        <_>
          <internalNodes>
            0 -1 96 -3.1216423958539963e-03</internalNodes>
          <leafValues>
            8.3700370788574219e-01 -2.9472187161445618e-01</leafValues></_>
        <_>
          <internalNodes>
            0 -1 131 1.8608540296554565e-02</internalNodes>
          <leafValues>
            -2.6014345884323120e-01 8.2475012540817261e-01</leafValues></_>
        <_>
          <internalNodes>
            0 -1 76 8.0233608605340123e-04</internalNodes>
          <leafValues>
            -4.4515773653984070e-01 5.5989348888397217e-01</leafValues></_>
        <_>
          <internalNodes>
            0 -1 122 -5.5435753893107176e-04</internalNodes>
          <leafValues>
            4.5897704362869263e-01 -5.3884524106979370e-01</leafValues></_>
        <_>
          <internalNodes>
            0 -1 98 -6.4257258782163262e-04</internalNodes>
          <leafValues>
            9.5437121391296387e-01 -2.6313492655754089e-01</leafValues></_>
        <_>
          <internalNodes>
            0 -1 40 1.3728782068938017e-03</internalNodes>
          <leafValues>
            -2.6977366209030151e-01 8.6158174276351929e-01</leafValues></_></weakClassifiers></_>
    <!-- stage 4 -->
    <_>
      <maxWeakCount>15</maxWeakCount>
      <stageThreshold>-2.2460402548313141e-01</stageThreshold>
      <weakClassifiers>
        <_>
          <internalNodes>
            0 -1 101 3.1154053285717964e-03</internalNodes>
          <leafValues>
            -5.5688625574111938e-01 3.6507937312126160e-01</leafValues></_>
        <_>
          <internalNodes>
            0 -1 68 -1.4436775818467140e-02</internalNodes>
          <leafValues>
            5.9965580701828003e-01 -3.9951494336128235e-01</leafValues></_>
        <_>
          <internalNodes>
            0 -1 5 4.7461162321269512e-03</internalNodes>
          <leafValues>
            -2.8190419077873230e-01 7.7164846658706665e-01</leafValues></_>
        <_>
          <internalNodes>
            0 -1 37 -1.1288864910602570e-01</internalNodes>
          <leafValues>
            -5.3135204315185547e-01 4.3659266829490662e-01</leafValues></_>
        <_>
          <internalNodes>
            0 -1 13 -5.4398113861680031e-03</internalNodes>
          <leafValues>
            7.1060603857040405e-01 -2.3740123212337494e-01</leafValues></_>
        <_>
          <internalNodes>
            0 -1 4 7.7475607395172119e-02</internalNodes>
          <leafValues>
            2.9139012098312378e-01 -7.6196891069412231e-01</leafValues></_>
        <_>
          <internalNodes>
            0 -1 111 4.4849672121927142e-04</internalNodes>
          <leafValues>
            3.1381332874298096e-01 -4.7211295366287231e-01</leafValues></_>
        <_>
          <internalNodes>
            0 -1 133 -1.6555234324187040e-03</internalNodes>
          <leafValues>
            8.9837640523910522e-01 -2.0303352177143097e-01</leafValues></_>
        <_>
          <internalNodes>
            0 -1 123 2.5180607917718589e-04</internalNodes>
          <leafValues>
            -2.5108951330184937e-01 7.1193087100982666e-01</leafValues></_>
        <_>
          <internalNodes>
            0 -1 108 2.0878564100712538e-03</internalNodes>
          <leafValues>
            -3.1152811646461487e-01 6.9967615604400635e-01</leafValues></_>
        <_>
          <internalNodes>
            0 -1 109 -3.2305050990544260e-04</internalNodes>
          <leafValues>
            -6.8170291185379028e-01 3.3172333240509033e-01</leafValues></_>
        <_>
          <internalNodes>
            0 -1 34 6.8169925361871719e-03</internalNodes>
          <leafValues>
            -3.2249575853347778e-01 6.0820567607879639e-01</leafValues></_>
        <_>
          <internalNodes>
            0 -1 63 1.4267117949202657e-03</internalNodes>
          <leafValues>
            -4.6265277266502380e-01 4.9796131253242493e-01</leafValues></_>
        <_>
          <internalNodes>
            0 -1 62 1.6385364870075136e-04</internalNodes>
          <leafValues>
            -5.6967985630035400e-01 3.4766668081283569e-01</leafValues></_>
        <_>
          <internalNodes>
            0 -1 32 8.7981019169092178e-04</internalNodes>
          <leafValues>
            -2.9434448480606079e-01 7.1389168500900269e-01</leafValues></_></weakClassifiers></_>
    <!-- stage 5 -->
    <_>
      <maxWeakCount>15</maxWeakCount>
      <stageThreshold>4.9143156409263611e-01</stageThreshold>
      <weakClassifiers>
        <_>
          <internalNodes>
            0 -1 1 -7.3934006690979004e-01</internalNodes>
          <leafValues>
            5.4285717010498047e-01 -6.7500001192092896e-01</leafValues></_>
        <_>
          <internalNodes>
            0 -1 14 -1.7613586783409119e-01</internalNodes>
          <leafValues>
            8.6336946487426758e-01 -3.8900080323219299e-01</leafValues></_>
        <_>
          <internalNodes>
            0 -1 6 1.8013122677803040e-01</internalNodes>
          <leafValues>
            -4.1096860170364380e-01 8.1489968299865723e-01</leafValues></_>
        <_>
          <internalNodes>
            0 -1 24 -1.2104508280754089e-01</internalNodes>
          <leafValues>
            3.9185023307800293e-01 -6.3539576530456543e-01</leafValues></_>
        <_>
          <internalNodes>
            0 -1 132 1.7348232213407755e-03</internalNodes>
          <leafValues>
            3.1615948677062988e-01 -6.5167927742004395e-01</leafValues></_>
        <_>
          <internalNodes>
            0 -1 74 -3.2718625152483582e-04</internalNodes>
          <leafValues>
            -7.8421479463577271e-01 2.5344443321228027e-01</leafValues></_>
        <_>
          <internalNodes>
            0 -1 8 -1.0889819264411926e-01</internalNodes>
          <leafValues>
            7.0800656080245972e-01 -3.1874015927314758e-01</leafValues></_>
        <_>
          <internalNodes>
            0 -1 112 4.0801208466291428e-02</internalNodes>
          <leafValues>
            -3.3129528164863586e-01 6.0608243942260742e-01</leafValues></_>
        <_>
          <internalNodes>
            0 -1 12 4.9898460507392883e-02</internalNodes>
          <leafValues>
            -2.3103716969490051e-01 9.1062247753143311e-01</leafValues></_>
        <_>
          <internalNodes>
            0 -1 9 -1.0156396776437759e-02</internalNodes>
          <leafValues>
            4.8871842026710510e-01 -4.3014022707939148e-01</leafValues></_>
        <_>
          <internalNodes>
            0 -1 59 -2.2533476352691650e-02</internalNodes>
          <leafValues>
            -6.0191452503204346e-01 3.4960490465164185e-01</leafValues></_>
        <_>
          <internalNodes>
            0 -1 49 -6.9337487220764160e-02</internalNodes>
          <leafValues>
            6.7472141981124878e-01 -4.2540571093559265e-01</leafValues></_>
        <_>
          <internalNodes>
            0 -1 56 -7.2989190812222660e-05</internalNodes>
          <leafValues>
            -4.9571341276168823e-01 4.2492908239364624e-01</leafValues></_>
        <_>
          <internalNodes>
            0 -1 17 -3.4075651317834854e-02</internalNodes>
          <leafValues>
            2.6638379693031311e-01 -7.8031229972839355e-01</leafValues></_>
        <_>
          <internalNodes>
            0 -1 85 1.0250310151604936e-04</internalNodes>
          <leafValues>
            -4.0560716390609741e-01 5.1517194509506226e-01</leafValues></_></weakClassifiers></_>
    <!-- stage 6 -->
    <_>
      <maxWeakCount>9</maxWeakCount>
      <stageThreshold>6.3760113716125488e-01</stageThreshold>
      <weakClassifiers>
        <_>
          <internalNodes>
            0 -1 28 4.9327616579830647e-03</internalNodes>
          <leafValues>
            6.7164176702499390e-01 -7.0552146434783936e-01</leafValues></_>
        <_>
          <internalNodes>
            0 -1 51 -5.9166102437302470e-04</internalNodes>
          <leafValues>
            7.4243533611297607e-01 -5.0205194950103760e-01</leafValues></_>
        <_>
          <internalNodes>
            0 -1 88 -2.6228504721075296e-03</internalNodes>
          <leafValues>
            -7.6355451345443726e-01 5.3955316543579102e-01</leafValues></_>
        <_>
          <internalNodes>
            0 -1 53 5.7480065152049065e-04</internalNodes>
          <leafValues>
            3.7529876828193665e-01 -8.2098680734634399e-01</leafValues></_>
        <_>
          <internalNodes>
            0 -1 99 -9.4834447372704744e-04</internalNodes>
          <leafValues>
            6.8891787528991699e-01 -5.1680231094360352e-01</leafValues></_>
        <_>
          <internalNodes>
            0 -1 20 -3.6495358217507601e-03</internalNodes>
          <leafValues>
            8.5999441146850586e-01 -4.3707028031349182e-01</leafValues></_>
        <_>
          <internalNodes>
            0 -1 82 -2.4820072576403618e-04</internalNodes>
          <leafValues>
            -7.3802947998046875e-01 5.6800705194473267e-01</leafValues></_>
        <_>
          <internalNodes>
            0 -1 81 -9.9342351313680410e-04</internalNodes>
          <leafValues>
            -6.1765211820602417e-01 7.0006126165390015e-01</leafValues></_>
        <_>
          <internalNodes>
            0 -1 91 -1.1031031317543238e-04</internalNodes>
          <leafValues>
            7.2812008857727051e-01 -5.0357341766357422e-01</leafValues></_></weakClassifiers></_>
    <!-- stage 7 -->
    <_>
      <maxWeakCount>8</maxWeakCount>
      <stageThreshold>1.8113426864147186e-01</stageThreshold>
      <weakClassifiers>
        <_>
          <internalNodes>
            0 -1 83 2.8352595400065184e-03</internalNodes>
          <leafValues>
            6.4383560419082642e-01 -7.4522292613983154e-01</leafValues></_>
        <_>
          <internalNodes>
            0 -1 52 -4.3484061025083065e-03</internalNodes>
          <leafValues>
            7.1827542781829834e-01 -5.8068978786468506e-01</leafValues></_>
        <_>
          <internalNodes>
            0 -1 3 3.2373110298067331e-03</internalNodes>
          <leafValues>
            4.8753294348716736e-01 -8.3647125959396362e-01</leafValues></_>
        <_>
          <internalNodes>
            0 -1 118 1.8778440426103771e-04</internalNodes>
          <leafValues>
            8.2217854261398315e-01 -5.8964031934738159e-01</leafValues></_>
        <_>
          <internalNodes>
            0 -1 43 -8.6685077985748649e-04</internalNodes>
          <leafValues>
            -6.1964648962020874e-01 8.4052360057830811e-01</leafValues></_>
        <_>
          <internalNodes>
            0 -1 126 6.3544063596054912e-04</internalNodes>
          <leafValues>
            7.0662617683410645e-01 -6.9793677330017090e-01</leafValues></_>
        <_>
          <internalNodes>
            0 -1 61 -1.0662628337740898e-03</internalNodes>
          <leafValues>
            1. -5.1425272226333618e-01</leafValues></_>
        <_>
          <internalNodes>
            0 -1 69 -4.6911864774301648e-04</internalNodes>
          <leafValues>
            -7.2270792722702026e-01 6.5216648578643799e-01</leafValues></_></weakClassifiers></_>
    <!-- stage 8 -->
    <_>
      <maxWeakCount>12</maxWeakCount>
      <stageThreshold>-8.0382853746414185e-02</stageThreshold>
      <weakClassifiers>
        <_>
          <internalNodes>
            0 -1 102 -2.2886350750923157e-02</internalNodes>
          <leafValues>
            8.2352942228317261e-01 -5.0000000000000000e-01</leafValues></_>
        <_>
          <internalNodes>
            0 -1 23 -2.6211678050458431e-03</internalNodes>
          <leafValues>
            6.7339897155761719e-01 -3.7741819024085999e-01</leafValues></_>
        <_>
          <internalNodes>
            0 -1 70 -2.0763706415891647e-03</internalNodes>
          <leafValues>
            6.3408750295639038e-01 -3.3807593584060669e-01</leafValues></_>
        <_>
          <internalNodes>
            0 -1 73 -6.1087007634341717e-03</internalNodes>
          <leafValues>
            7.1793103218078613e-01 -2.9416260123252869e-01</leafValues></_>
        <_>
          <internalNodes>
            0 -1 64 -3.9381764829158783e-02</internalNodes>
          <leafValues>
            -3.7399828433990479e-01 6.2495005130767822e-01</leafValues></_>
        <_>
          <internalNodes>
            0 -1 84 -6.1372846364974976e-02</internalNodes>
          <leafValues>
            5.1335221529006958e-01 -4.3471008539199829e-01</leafValues></_>
        <_>
          <internalNodes>
            0 -1 86 -2.7784965932369232e-03</internalNodes>
          <leafValues>
            -8.7581658363342285e-01 2.8871545195579529e-01</leafValues></_>
        <_>
          <internalNodes>
            0 -1 42 9.2479269369505346e-05</internalNodes>
          <leafValues>
            -4.8408687114715576e-01 4.4190239906311035e-01</leafValues></_>
        <_>
          <internalNodes>
            0 -1 72 -5.2425416652113199e-04</internalNodes>
          <leafValues>
            8.0031913518905640e-01 -3.3631142973899841e-01</leafValues></_>
        <_>
          <internalNodes>
            0 -1 65 9.5114565920084715e-04</internalNodes>
          <leafValues>
            -3.3639121055603027e-01 7.1156018972396851e-01</leafValues></_>
        <_>
          <internalNodes>
            0 -1 29 -5.6812597904354334e-04</internalNodes>
          <leafValues>
            6.4336669445037842e-01 -3.2900312542915344e-01</leafValues></_>
        <_>
          <internalNodes>
            0 -1 78 -2.0667966455221176e-02</internalNodes>
          <leafValues>
            4.3733829259872437e-01 -4.9641472101211548e-01</leafValues></_></weakClassifiers></_>
    <!-- stage 9 -->
    <_>
      <maxWeakCount>11</maxWeakCount>
      <stageThreshold>1.2897530198097229e-01</stageThreshold>
      <weakClassifiers>
        <_>
          <internalNodes>
            0 -1 115 4.2250417754985392e-04</internalNodes>
          <leafValues>
            4.7499999403953552e-01 -7.2000002861022949e-01</leafValues></_>
        <_>
          <internalNodes>
            0 -1 21 -2.4560024030506611e-03</internalNodes>
          <leafValues>
            6.8172895908355713e-01 -5.2368575334548950e-01</leafValues></_>
        <_>
          <internalNodes>
            0 -1 87 -8.6466871201992035e-02</internalNodes>
          <leafValues>
            -4.6327027678489685e-01 6.6046971082687378e-01</leafValues></_>
        <_>
          <internalNodes>
            0 -1 36 1.3933103764429688e-04</internalNodes>
          <leafValues>
            -5.8520507812500000e-01 6.3378566503524780e-01</leafValues></_>
        <_>
          <internalNodes>
            0 -1 106 -7.6389284804463387e-03</internalNodes>
          <leafValues>
            -5.8135288953781128e-01 5.5252283811569214e-01</leafValues></_>
        <_>
          <internalNodes>
            0 -1 89 -2.1708361804485321e-02</internalNodes>
          <leafValues>
            -7.2380685806274414e-01 5.6061649322509766e-01</leafValues></_>
        <_>
          <internalNodes>
            0 -1 97 1.9693193957209587e-02</internalNodes>
          <leafValues>
            6.6201627254486084e-01 -7.8876203298568726e-01</leafValues></_>
        <_>
          <internalNodes>
            0 -1 31 -6.2826722860336304e-03</internalNodes>
          <leafValues>
            1. -4.4219473004341125e-01</leafValues></_>
        <_>
          <internalNodes>
            0 -1 47 -2.1715426555601880e-05</internalNodes>
          <leafValues>
            8.1267744302749634e-01 -4.1718748211860657e-01</leafValues></_>
        <_>
          <internalNodes>
            0 -1 119 -1.5063828323036432e-04</internalNodes>
          <leafValues>
            6.4518094062805176e-01 -4.8403573036193848e-01</leafValues></_>
        <_>
          <internalNodes>
            0 -1 116 2.6597166433930397e-03</internalNodes>
          <leafValues>
            -4.2132928967475891e-01 8.3581793308258057e-01</leafValues></_></weakClassifiers></_>
    <!-- stage 10 -->
    <_>
      <maxWeakCount>9</maxWeakCount>
      <stageThreshold>6.9735787808895111e-02</stageThreshold>
      <weakClassifiers>
        <_>
          <internalNodes>
            0 -1 114 1.7202101880684495e-03</internalNodes>
          <leafValues>
            -6.3636362552642822e-01 7.7777779102325439e-01</leafValues></_>
        <_>
          <internalNodes>
            0 -1 30 -2.5625843554735184e-02</internalNodes>
          <leafValues>
            7.4798518419265747e-01 -5.9918558597564697e-01</leafValues></_>
        <_>
          <internalNodes>
            0 -1 79 2.8598751872777939e-02</internalNodes>
          <leafValues>
            4.6830597519874573e-01 -9.0676116943359375e-01</leafValues></_>
        <_>
          <internalNodes>
            0 -1 94 2.0151570788584650e-04</internalNodes>
          <leafValues>
            -5.1499050855636597e-01 8.2802999019622803e-01</leafValues></_>
        <_>
          <internalNodes>
            0 -1 93 -4.2215001303702593e-04</internalNodes>
          <leafValues>
            8.0732750892639160e-01 -4.0281912684440613e-01</leafValues></_>
        <_>
          <internalNodes>
            0 -1 16 -2.4741463363170624e-02</internalNodes>
          <leafValues>
            -5.5630737543106079e-01 6.1893862485885620e-01</leafValues></_>
        <_>
          <internalNodes>
            0 -1 26 3.2886743429116905e-04</internalNodes>
          <leafValues>
            -4.6414887905120850e-01 8.4243381023406982e-01</leafValues></_>
        <_>
          <internalNodes>
            0 -1 80 -7.6981876045465469e-03</internalNodes>
          <leafValues>
            -6.0805022716522217e-01 5.9147906303405762e-01</leafValues></_>
        <_>
          <internalNodes>
            0 -1 104 1.8885550089180470e-03</internalNodes>
          <leafValues>
            5.7340306043624878e-01 -6.1347883939743042e-01</leafValues></_></weakClassifiers></_>
    <!-- stage 11 -->
    <_>
      <maxWeakCount>9</maxWeakCount>
      <stageThreshold>4.8535665869712830e-01</stageThreshold>
      <weakClassifiers>
        <_>
          <internalNodes>
            0 -1 7 -4.4136792421340942e-02</internalNodes>
          <leafValues>
            -7.5172412395477295e-01 4.5882353186607361e-01</leafValues></_>
        <_>
          <internalNodes>
            0 -1 67 -1.7594817280769348e-01</internalNodes>
          <leafValues>
            -8.6459571123123169e-01 3.4702742099761963e-01</leafValues></_>
        <_>
          <internalNodes>
            0 -1 117 1.0012976126745343e-03</internalNodes>
          <leafValues>
            3.4606167674064636e-01 -8.2342731952667236e-01</leafValues></_>
        <_>
          <internalNodes>
            0 -1 50 6.0973223298788071e-04</internalNodes>
          <leafValues>
            -3.6520916223526001e-01 9.2930132150650024e-01</leafValues></_>
        <_>
          <internalNodes>
            0 -1 71 2.3091707844287157e-03</internalNodes>
          <leafValues>
            -4.3631643056869507e-01 6.7144584655761719e-01</leafValues></_>
        <_>
          <internalNodes>
            0 -1 121 -9.3006029725074768e-02</internalNodes>
          <leafValues>
            -3.8817122578620911e-01 8.0241596698760986e-01</leafValues></_>
        <_>
          <internalNodes>
            0 -1 58 2.4227364920079708e-03</internalNodes>
          <leafValues>
            6.5471941232681274e-01 -4.7558501362800598e-01</leafValues></_>
        <_>
          <internalNodes>
            0 -1 103 5.8474409161135554e-04</internalNodes>
          <leafValues>
            5.3484833240509033e-01 -5.8523702621459961e-01</leafValues></_>
        <_>
          <internalNodes>
            0 -1 107 3.9371527964249253e-04</internalNodes>
          <leafValues>
            -5.6256598234176636e-01 6.6994339227676392e-01</leafValues></_></weakClassifiers></_></stages>
  <features>
    <_>
      <rects>
        <_>
          0 0 24 4 -1.</_>
        <_>
          0 2 24 2 2.</_></rects>
      <tilted>0</tilted></_>
    <_>
      <rects>
        <_>
          0 1 24 15 -1.</_>
        <_>
          8 1 8 15 2.</_></rects>
      <tilted>0</tilted></_>
    <_>
      <rects>
        <_>
          0 5 2 4 -1.</_>
        <_>
          1 5 1 4 2.</_></rects>
      <tilted>0</tilted></_>
    <_>
      <rects>
        <_>
          0 5 12 2 -1.</_>
        <_>
          0 5 6 1 2.</_>
        <_>
          6 6 6 1 2.</_></rects>
      <tilted>0</tilted></_>
    <_>
      <rects>
        <_>
          0 6 10 18 -1.</_>
        <_>
          0 6 5 9 2.</_>
        <_>
          5 15 5 9 2.</_></rects>
      <tilted>0</tilted></_>
    <_>
      <rects>
        <_>
          0 8 2 8 -1.</_>
        <_>
          1 8 1 8 2.</_></rects>
      <tilted>0</tilted></_>
    <_>
      <rects>
        <_>
          0 8 22 16 -1.</_>
        <_>
          11 8 11 16 2.</_></rects>
      <tilted>0</tilted></_>
    <_>
      <rects>
        <_>
          0 11 2 9 -1.</_>
        <_>
          0 14 2 3 2.</_></rects>
      <tilted>0</tilted></_>
    <_>
      <rects>
        <_>
          0 12 16 9 -1.</_>
        <_>
          8 12 8 9 2.</_></rects>
      <tilted>0</tilted></_>
    <_>
      <rects>
        <_>
          0 13 1 6 -1.</_>
        <_>
          0 15 1 2 2.</_></rects>
      <tilted>0</tilted></_>
    <_>
      <rects>
        <_>
          0 13 5 2 -1.</_>
        <_>
          0 14 5 1 2.</_></rects>
      <tilted>0</tilted></_>
    <_>
      <rects>
        <_>
          0 13 22 11 -1.</_>
        <_>
          11 13 11 11 2.</_></rects>
      <tilted>0</tilted></_>
    <_>
      <rects>
        <_>
          0 13 24 2 -1.</_>
        <_>
          12 13 12 2 2.</_></rects>
      <tilted>0</tilted></_>
    <_>
      <rects>
        <_>
          0 14 8 1 -1.</_>
        <_>
          4 14 4 1 2.</_></rects>
      <tilted>0</tilted></_>
    <_>
      <rects>
        <_>
          0 15 22 8 -1.</_>
        <_>
          11 15 11 8 2.</_></rects>
      <tilted>0</tilted></_>
    <_>
      <rects>
        <_>
          0 17 6 7 -1.</_>
        <_>
          3 17 3 7 2.</_></rects>
      <tilted>0</tilted></_>
    <_>
      <rects>
        <_>
          0 18 14 3 -1.</_>
        <_>
          7 18 7 3 2.</_></rects>
      <tilted>0</tilted></_>
    <_>
      <rects>
        <_>
          0 18 24 1 -1.</_>
        <_>
          8 18 8 1 2.</_></rects>
      <tilted>0</tilted></_>
    <_>
      <rects>
        <_>
          1 0 4 8 -1.</_>
        <_>
          3 0 2 8 2.</_></rects>
      <tilted>0</tilted></_>
    <_>
      <rects>
        <_>
          1 0 12 14 -1.</_>
        <_>
          7 0 6 14 2.</_></rects>
      <tilted>0</tilted></_>
    <_>
      <rects>
        <_>
          1 1 2 20 -1.</_>
        <_>
          1 1 1 10 2.</_>
        <_>
          2 11 1 10 2.</_></rects>
      <tilted>0</tilted></_>
    <_>
      <rects>
        <_>
          1 1 12 1 -1.</_>
        <_>
          7 1 6 1 2.</_></rects>
      <tilted>0</tilted></_>
    <_>
      <rects>
        <_>
          1 2 2 12 -1.</_>
        <_>
          2 2 1 12 2.</_></rects>
      <tilted>0</tilted></_>
    <_>
      <rects>
        <_>
          1 9 3 4 -1.</_>
        <_>
          1 11 3 2 2.</_></rects>
      <tilted>0</tilted></_>
    <_>
      <rects>
        <_>
          1 15 15 6 -1.</_>
        <_>
          1 17 15 2 2.</_></rects>
      <tilted>0</tilted></_>
    <_>
      <rects>
        <_>
          1 16 12 1 -1.</_>
        <_>
          7 16 6 1 2.</_></rects>
      <tilted>0</tilted></_>
    <_>
      <rects>
        <_>
          1 21 10 2 -1.</_>
        <_>
          1 22 10 1 2.</_></rects>
      <tilted>0</tilted></_>
    <_>
      <rects>
        <_>
          2 2 2 20 -1.</_>
        <_>
          2 12 2 10 2.</_></rects>
      <tilted>0</tilted></_>
    <_>
      <rects>
        <_>
          2 3 2 18 -1.</_>
        <_>
          2 12 2 9 2.</_></rects>
      <tilted>0</tilted></_>
    <_>
      <rects>
        <_>
          2 4 8 2 -1.</_>
        <_>
          2 4 4 1 2.</_>
        <_>
          6 5 4 1 2.</_></rects>
      <tilted>0</tilted></_>
    <_>
      <rects>
        <_>
          2 7 1 12 -1.</_>
        <_>
          2 11 1 4 2.</_></rects>
      <tilted>0</tilted></_>
    <_>
      <rects>
        <_>
          2 9 20 2 -1.</_>
        <_>
          2 9 10 1 2.</_>
        <_>
          12 10 10 1 2.</_></rects>
      <tilted>0</tilted></_>
    <_>
      <rects>
        <_>
          2 12 1 4 -1.</_>
        <_>
          2 14 1 2 2.</_></rects>
      <tilted>0</tilted></_>
    <_>
      <rects>
        <_>
          2 16 6 8 -1.</_>
        <_>
          2 16 3 4 2.</_>
        <_>
          5 20 3 4 2.</_></rects>
      <tilted>0</tilted></_>
    <_>
      <rects>
        <_>
          3 1 1 14 -1.</_>
        <_>
          3 8 1 7 2.</_></rects>
      <tilted>0</tilted></_>
    <_>
      <rects>
        <_>
          3 3 6 1 -1.</_>
        <_>
          6 3 3 1 2.</_></rects>
      <tilted>0</tilted></_>
    <_>
      <rects>
        <_>
          3 3 8 20 -1.</_>
        <_>
          3 3 4 10 2.</_>
        <_>
          7 13 4 10 2.</_></rects>
      <tilted>0</tilted></_>
    <_>
      <rects>
        <_>
          3 4 12 4 -1.</_>
        <_>
          7 4 4 4 2.</_></rects>
      <tilted>0</tilted></_>
    <_>
      <rects>
        <_>
          3 5 10 2 -1.</_>
        <_>
          8 5 5 2 2.</_></rects>
      <tilted>0</tilted></_>
    <_>
      <rects>
        <_>
          3 10 4 2 -1.</_>
        <_>
          5 10 2 2 2.</_></rects>
      <tilted>0</tilted></_>
    <_>
      <rects>
        <_>
          3 14 2 5 -1.</_>
        <_>
          4 14 1 5 2.</_></rects>
      <tilted>0</tilted></_>
    <_>
      <rects>
        <_>
          3 16 16 6 -1.</_>
        <_>
          3 18 16 2 2.</_></rects>
      <tilted>0</tilted></_>
    <_>
      <rects>
        <_>
          3 18 2 2 -1.</_>
        <_>
          3 18 1 1 2.</_>
        <_>
          4 19 1 1 2.</_></rects>
      <tilted>0</tilted></_>
    <_>
      <rects>
        <_>
          3 18 10 6 -1.</_>
        <_>
          3 18 5 3 2.</_>
        <_>
          8 21 5 3 2.</_></rects>
      <tilted>0</tilted></_>
    <_>
      <rects>
        <_>
          3 18 18 6 -1.</_>
        <_>
          12 18 9 6 2.</_></rects>
      <tilted>0</tilted></_>
    <_>
      <rects>
        <_>
          3 22 3 2 -1.</_>
        <_>
          3 23 3 1 2.</_></rects>
      <tilted>0</tilted></_>
    <_>
      <rects>
        <_>
          4 2 2 10 -1.</_>
        <_>
          4 2 1 5 2.</_>
        <_>
          5 7 1 5 2.</_></rects>
      <tilted>0</tilted></_>
    <_>
      <rects>
        <_>
          4 4 1 4 -1.</_>
        <_>
          4 6 1 2 2.</_></rects>
      <tilted>0</tilted></_>
    <_>
      <rects>
        <_>
          4 14 2 8 -1.</_>
        <_>
          5 14 1 8 2.</_></rects>
      <tilted>0</tilted></_>
    <_>
      <rects>
        <_>
          4 16 16 8 -1.</_>
        <_>
          12 16 8 8 2.</_></rects>
      <tilted>0</tilted></_>
    <_>
      <rects>
        <_>
          5 1 2 7 -1.</_>
        <_>
          6 1 1 7 2.</_></rects>
      <tilted>0</tilted></_>
    <_>
      <rects>
        <_>
          5 5 8 2 -1.</_>
        <_>
          5 5 4 1 2.</_>
        <_>
          9 6 4 1 2.</_></rects>
      <tilted>0</tilted></_>
    <_>
      <rects>
        <_>
          5 8 14 4 -1.</_>
        <_>
          5 8 7 2 2.</_>
        <_>
          12 10 7 2 2.</_></rects>
      <tilted>0</tilted></_>
    <_>
      <rects>
        <_>
          5 14 1 2 -1.</_>
        <_>
          5 15 1 1 2.</_></rects>
      <tilted>0</tilted></_>
    <_>
      <rects>
        <_>
          5 14 18 10 -1.</_>
        <_>
          14 14 9 10 2.</_></rects>
      <tilted>0</tilted></_>
    <_>
      <rects>
        <_>
          5 15 2 2 -1.</_>
        <_>
          5 16 2 1 2.</_></rects>
      <tilted>0</tilted></_>
    <_>
      <rects>
        <_>
          5 23 8 1 -1.</_>
        <_>
          9 23 4 1 2.</_></rects>
      <tilted>0</tilted></_>
    <_>
      <rects>
        <_>
          6 3 2 7 -1.</_>
        <_>
          7 3 1 7 2.</_></rects>
      <tilted>0</tilted></_>
    <_>
      <rects>
        <_>
          6 8 4 16 -1.</_>
        <_>
          6 8 2 8 2.</_>
        <_>
          8 16 2 8 2.</_></rects>
      <tilted>0</tilted></_>
    <_>
      <rects>
        <_>
          6 19 6 2 -1.</_>
        <_>
          8 19 2 2 2.</_></rects>
      <tilted>0</tilted></_>
    <_>
      <rects>
        <_>
          7 1 2 8 -1.</_>
        <_>
          8 1 1 8 2.</_></rects>
      <tilted>0</tilted></_>
    <_>
      <rects>
        <_>
          7 3 1 10 -1.</_>
        <_>
          7 8 1 5 2.</_></rects>
      <tilted>0</tilted></_>
    <_>
      <rects>
        <_>
          7 4 16 2 -1.</_>
        <_>
          7 4 8 1 2.</_>
        <_>
          15 5 8 1 2.</_></rects>
      <tilted>0</tilted></_>
    <_>
      <rects>
        <_>
          7 6 4 4 -1.</_>
        <_>
          7 6 2 2 2.</_>
        <_>
          9 8 2 2 2.</_></rects>
      <tilted>0</tilted></_>
    <_>
      <rects>
        <_>
          7 6 6 4 -1.</_>
        <_>
          9 6 2 4 2.</_></rects>
      <tilted>0</tilted></_>
    <_>
      <rects>
        <_>
          7 6 8 2 -1.</_>
        <_>
          7 6 4 1 2.</_>
        <_>
          11 7 4 1 2.</_></rects>
      <tilted>0</tilted></_>
    <_>
      <rects>
        <_>
          7 8 11 6 -1.</_>
        <_>
          7 10 11 2 2.</_></rects>
      <tilted>0</tilted></_>
    <_>
      <rects>
        <_>
          7 10 9 8 -1.</_>
        <_>
          10 10 3 8 2.</_></rects>
      <tilted>0</tilted></_>
    <_>
      <rects>
        <_>
          7 10 10 6 -1.</_>
        <_>
          7 13 10 3 2.</_></rects>
      <tilted>0</tilted></_>
    <_>
      <rects>
        <_>
          7 22 2 2 -1.</_>
        <_>
          7 22 1 1 2.</_>
        <_>
          8 23 1 1 2.</_></rects>
      <tilted>0</tilted></_>
    <_>
      <rects>
        <_>
          8 0 16 2 -1.</_>
        <_>
          16 0 8 2 2.</_></rects>
      <tilted>0</tilted></_>
    <_>
      <rects>
        <_>
          8 0 15 4 -1.</_>
        <_>
          8 2 15 2 2.</_></rects>
      <tilted>0</tilted></_>
    <_>
      <rects>
        <_>
          8 10 2 2 -1.</_>
        <_>
          9 10 1 2 2.</_></rects>
      <tilted>0</tilted></_>
    <_>
      <rects>
        <_>
          8 13 6 6 -1.</_>
        <_>
          8 16 6 3 2.</_></rects>
      <tilted>0</tilted></_>
    <_>
      <rects>
        <_>
          8 18 2 2 -1.</_>
        <_>
          8 18 1 1 2.</_>
        <_>
          9 19 1 1 2.</_></rects>
      <tilted>0</tilted></_>
    <_>
      <rects>
        <_>
          8 23 2 1 -1.</_>
        <_>
          9 23 1 1 2.</_></rects>
      <tilted>0</tilted></_>
    <_>
      <rects>
        <_>
          9 1 4 4 -1.</_>
        <_>
          11 1 2 4 2.</_></rects>
      <tilted>0</tilted></_>
    <_>
      <rects>
        <_>
          9 2 2 1 -1.</_>
        <_>
          10 2 1 1 2.</_></rects>
      <tilted>0</tilted></_>
    <_>
      <rects>
        <_>
          9 2 6 16 -1.</_>
        <_>
          9 10 6 8 2.</_></rects>
      <tilted>0</tilted></_>
    <_>
      <rects>
        <_>
          9 4 12 2 -1.</_>
        <_>
          15 4 6 2 2.</_></rects>
      <tilted>0</tilted></_>
    <_>
      <rects>
        <_>
          9 6 2 17 -1.</_>
        <_>
          10 6 1 17 2.</_></rects>
      <tilted>0</tilted></_>
    <_>
      <rects>
        <_>
          9 9 2 4 -1.</_>
        <_>
          9 9 1 2 2.</_>
        <_>
          10 11 1 2 2.</_></rects>
      <tilted>0</tilted></_>
    <_>
      <rects>
        <_>
          9 14 2 1 -1.</_>
        <_>
          10 14 1 1 2.</_></rects>
      <tilted>0</tilted></_>
    <_>
      <rects>
        <_>
          10 3 2 16 -1.</_>
        <_>
          10 11 2 8 2.</_></rects>
      <tilted>0</tilted></_>
    <_>
      <rects>
        <_>
          10 11 4 9 -1.</_>
        <_>
          10 14 4 3 2.</_></rects>
      <tilted>0</tilted></_>
    <_>
      <rects>
        <_>
          10 12 2 2 -1.</_>
        <_>
          10 13 2 1 2.</_></rects>
      <tilted>0</tilted></_>
    <_>
      <rects>
        <_>
          10 13 2 6 -1.</_>
        <_>
          10 13 1 3 2.</_>
        <_>
          11 16 1 3 2.</_></rects>
      <tilted>0</tilted></_>
    <_>
      <rects>
        <_>
          10 14 6 8 -1.</_>
        <_>
          12 14 2 8 2.</_></rects>
      <tilted>0</tilted></_>
    <_>
      <rects>
        <_>
          10 15 12 2 -1.</_>
        <_>
          10 15 6 1 2.</_>
        <_>
          16 16 6 1 2.</_></rects>
      <tilted>0</tilted></_>
    <_>
      <rects>
        <_>
          11 2 3 12 -1.</_>
        <_>
          11 8 3 6 2.</_></rects>
      <tilted>0</tilted></_>
    <_>
      <rects>
        <_>
          11 5 2 2 -1.</_>
        <_>
          12 5 1 2 2.</_></rects>
      <tilted>0</tilted></_>
    <_>
      <rects>
        <_>
          11 8 2 2 -1.</_>
        <_>
          11 8 1 1 2.</_>
        <_>
          12 9 1 1 2.</_></rects>
      <tilted>0</tilted></_>
    <_>
      <rects>
        <_>
          11 9 3 9 -1.</_>
        <_>
          11 12 3 3 2.</_></rects>
      <tilted>0</tilted></_>
    <_>
      <rects>
        <_>
          11 12 6 2 -1.</_>
        <_>
          11 12 3 1 2.</_>
        <_>
          14 13 3 1 2.</_></rects>
      <tilted>0</tilted></_>
    <_>
      <rects>
        <_>
          11 19 4 2 -1.</_>
        <_>
          11 19 2 1 2.</_>
        <_>
          13 20 2 1 2.</_></rects>
      <tilted>0</tilted></_>
    <_>
      <rects>
        <_>
          12 0 6 1 -1.</_>
        <_>
          14 0 2 1 2.</_></rects>
      <tilted>0</tilted></_>
    <_>
      <rects>
        <_>
          12 2 2 8 -1.</_>
        <_>
          12 2 1 4 2.</_>
        <_>
          13 6 1 4 2.</_></rects>
      <tilted>0</tilted></_>
    <_>
      <rects>
        <_>
          12 2 5 20 -1.</_>
        <_>
          12 12 5 10 2.</_></rects>
      <tilted>0</tilted></_>
    <_>
      <rects>
        <_>
          12 6 2 1 -1.</_>
        <_>
          13 6 1 1 2.</_></rects>
      <tilted>0</tilted></_>
    <_>
      <rects>
        <_>
          12 21 6 2 -1.</_>
        <_>
          15 21 3 2 2.</_></rects>
      <tilted>0</tilted></_>
    <_>
      <rects>
        <_>
          13 2 10 18 -1.</_>
        <_>
          18 2 5 18 2.</_></rects>
      <tilted>0</tilted></_>
    <_>
      <rects>
        <_>
          13 10 2 14 -1.</_>
        <_>
          14 10 1 14 2.</_></rects>
      <tilted>0</tilted></_>
    <_>
      <rects>
        <_>
          13 11 6 13 -1.</_>
        <_>
          16 11 3 13 2.</_></rects>
      <tilted>0</tilted></_>
    <_>
      <rects>
        <_>
          14 3 2 4 -1.</_>
        <_>
          14 5 2 2 2.</_></rects>
      <tilted>0</tilted></_>
    <_>
      <rects>
        <_>
          14 5 6 4 -1.</_>
        <_>
          14 5 3 2 2.</_>
        <_>
          17 7 3 2 2.</_></rects>
      <tilted>0</tilted></_>
    <_>
      <rects>
        <_>
          14 12 6 12 -1.</_>
        <_>
          14 12 3 6 2.</_>
        <_>
          17 18 3 6 2.</_></rects>
      <tilted>0</tilted></_>
    <_>
      <rects>
        <_>
          14 12 10 6 -1.</_>
        <_>
          14 12 5 3 2.</_>
        <_>
          19 15 5 3 2.</_></rects>
      <tilted>0</tilted></_>
    <_>
      <rects>
        <_>
          14 15 1 4 -1.</_>
        <_>
          14 17 1 2 2.</_></rects>
      <tilted>0</tilted></_>
    <_>
      <rects>
        <_>
          14 18 2 5 -1.</_>
        <_>
          15 18 1 5 2.</_></rects>
      <tilted>0</tilted></_>
    <_>
      <rects>
        <_>
          14 21 1 2 -1.</_>
        <_>
          14 22 1 1 2.</_></rects>
      <tilted>0</tilted></_>
    <_>
      <rects>
        <_>
          15 0 1 8 -1.</_>
        <_>
          15 4 1 4 2.</_></rects>
      <tilted>0</tilted></_>
    <_>
      <rects>
        <_>
          15 0 8 2 -1.</_>
        <_>
          15 0 4 1 2.</_>
        <_>
          19 1 4 1 2.</_></rects>
      <tilted>0</tilted></_>
    <_>
      <rects>
        <_>
          15 0 7 10 -1.</_>
        <_>
          15 5 7 5 2.</_></rects>
      <tilted>0</tilted></_>
    <_>
      <rects>
        <_>
          15 5 2 10 -1.</_>
        <_>
          16 5 1 10 2.</_></rects>
      <tilted>0</tilted></_>
    <_>
      <rects>
        <_>
          15 6 4 12 -1.</_>
        <_>
          15 6 2 6 2.</_>
        <_>
          17 12 2 6 2.</_></rects>
      <tilted>0</tilted></_>
    <_>
      <rects>
        <_>
          15 19 2 2 -1.</_>
        <_>
          15 20 2 1 2.</_></rects>
      <tilted>0</tilted></_>
    <_>
      <rects>
        <_>
          16 11 2 9 -1.</_>
        <_>
          17 11 1 9 2.</_></rects>
      <tilted>0</tilted></_>
    <_>
      <rects>
        <_>
          16 15 4 2 -1.</_>
        <_>
          16 15 2 1 2.</_>
        <_>
          18 16 2 1 2.</_></rects>
      <tilted>0</tilted></_>
    <_>
      <rects>
        <_>
          16 17 2 4 -1.</_>
        <_>
          16 17 1 2 2.</_>
        <_>
          17 19 1 2 2.</_></rects>
      <tilted>0</tilted></_>
    <_>
      <rects>
        <_>
          16 17 4 2 -1.</_>
        <_>
          16 17 2 1 2.</_>
        <_>
          18 18 2 1 2.</_></rects>
      <tilted>0</tilted></_>
    <_>
      <rects>
        <_>
          17 0 2 3 -1.</_>
        <_>
          18 0 1 3 2.</_></rects>
      <tilted>0</tilted></_>
    <_>
      <rects>
        <_>
          17 0 3 17 -1.</_>
        <_>
          18 0 1 17 2.</_></rects>
      <tilted>0</tilted></_>
    <_>
      <rects>
        <_>
          17 10 4 4 -1.</_>
        <_>
          17 12 4 2 2.</_></rects>
      <tilted>0</tilted></_>
    <_>
      <rects>
        <_>
          17 18 2 2 -1.</_>
        <_>
          17 19 2 1 2.</_></rects>
      <tilted>0</tilted></_>
    <_>
      <rects>
        <_>
          18 0 4 1 -1.</_>
        <_>
          20 0 2 1 2.</_></rects>
      <tilted>0</tilted></_>
    <_>
      <rects>
        <_>
          18 16 1 8 -1.</_>
        <_>
          18 20 1 4 2.</_></rects>
      <tilted>0</tilted></_>
    <_>
      <rects>
        <_>
          18 19 5 4 -1.</_>
        <_>
          18 21 5 2 2.</_></rects>
      <tilted>0</tilted></_>
    <_>
      <rects>
        <_>
          19 1 4 18 -1.</_>
        <_>
          19 1 2 9 2.</_>
        <_>
          21 10 2 9 2.</_></rects>
      <tilted>0</tilted></_>
    <_>
      <rects>
        <_>
          19 3 2 17 -1.</_>
        <_>
          20 3 1 17 2.</_></rects>
      <tilted>0</tilted></_>
    <_>
      <rects>
        <_>
          20 5 4 2 -1.</_>
        <_>
          22 5 2 2 2.</_></rects>
      <tilted>0</tilted></_>
    <_>
      <rects>
        <_>
          20 6 4 14 -1.</_>
        <_>
          20 6 2 7 2.</_>
        <_>
          22 13 2 7 2.</_></rects>
      <tilted>0</tilted></_>
    <_>
      <rects>
        <_>
          20 15 4 7 -1.</_>
        <_>
          22 15 2 7 2.</_></rects>
      <tilted>0</tilted></_>
    <_>
      <rects>
        <_>
          20 20 2 3 -1.</_>
        <_>
          21 20 1 3 2.</_></rects>
      <tilted>0</tilted></_>
    <_>
      <rects>
        <_>
          22 9 2 1 -1.</_>
        <_>
          23 9 1 1 2.</_></rects>
      <tilted>0</tilted></_></features></cascade>
</opencv_storage>
