<?xml version="1.0"?>
<opencv_storage>
<cascade>
  <stageType>BOOST</stageType>
  <featureType>HAAR</featureType>
  <height>24</height>
  <width>24</width>
  <stageParams>
    <boostType>GAB</boostType>
    <minHitRate>9.9900001287460327e-01</minHitRate>
    <maxFalseAlarm>1.0000000474974513e-03</maxFalseAlarm>
    <weightTrimRate>9.4999999999999996e-01</weightTrimRate>
    <maxDepth>1</maxDepth>
    <maxWeakCount>100</maxWeakCount></stageParams>
  <featureParams>
    <maxCatCount>0</maxCatCount>
    <featSize>1</featSize>
    <mode>BASIC</mode></featureParams>
  <stageNum>10</stageNum>
  <stages>
    <!-- stage 0 -->
    <_>
      <maxWeakCount>1</maxWeakCount>
      <stageThreshold>1.</stageThreshold>
      <weakClassifiers>
        <_>
          <internalNodes>
            0 -1 4 -3.0380123853683472e-01</internalNodes>
          <leafValues>
            1. -1.</leafValues></_></weakClassifiers></_>
    <!-- stage 1 -->
    <_>
      <maxWeakCount>6</maxWeakCount>
      <stageThreshold>-3.9284539222717285e-01</stageThreshold>
      <weakClassifiers>
        <_>
          <internalNodes>
            0 -1 10 2.0372651517391205e-02</internalNodes>
          <leafValues>
            -9.5744681358337402e-01 7.1428573131561279e-01</leafValues></_>
        <_>
          <internalNodes>
            0 -1 34 -7.4319005012512207e-02</internalNodes>
          <leafValues>
            8.5116875171661377e-01 -9.0584731101989746e-01</leafValues></_>
        <_>
          <internalNodes>
            0 -1 78 1.1594353243708611e-02</internalNodes>
          <leafValues>
            -8.9828795194625854e-01 6.9513207674026489e-01</leafValues></_>
        <_>
          <internalNodes>
            0 -1 8 1.0923903435468674e-02</internalNodes>
          <leafValues>
            -7.9657691717147827e-01 7.2371953725814819e-01</leafValues></_>
        <_>
          <internalNodes>
            0 -1 33 -7.0607680827379227e-03</internalNodes>
          <leafValues>
            6.2253385782241821e-01 -8.2434344291687012e-01</leafValues></_>
        <_>
          <internalNodes>
            0 -1 9 1.8328057602047920e-02</internalNodes>
          <leafValues>
            -8.0765640735626221e-01 6.3030284643173218e-01</leafValues></_></weakClassifiers></_>
    <!-- stage 2 -->
    <_>
      <maxWeakCount>10</maxWeakCount>
      <stageThreshold>-2.2856633365154266e-01</stageThreshold>
      <weakClassifiers>
        <_>
          <internalNodes>
            0 -1 24 4.4202932622283697e-04</internalNodes>
          <leafValues>
            -7.9591834545135498e-01 5.3846156597137451e-01</leafValues></_>
        <_>
          <internalNodes>
            0 -1 3 -3.3009231090545654e-02</internalNodes>
          <leafValues>
            6.3863331079483032e-01 -6.3097125291824341e-01</leafValues></_>
        <_>
          <internalNodes>
            0 -1 38 -7.5104914139956236e-04</internalNodes>
          <leafValues>
            4.8715823888778687e-01 -8.2710641622543335e-01</leafValues></_>
        <_>
          <internalNodes>
            0 -1 79 1.3598579971585423e-04</internalNodes>
          <leafValues>
            -8.6109316349029541e-01 3.7235915660858154e-01</leafValues></_>
        <_>
          <internalNodes>
            0 -1 69 -5.0228559412062168e-03</internalNodes>
          <leafValues>
            -9.8398256301879883e-01 3.8780975341796875e-01</leafValues></_>
        <_>
          <internalNodes>
            0 -1 60 -2.1780146926175803e-04</internalNodes>
          <leafValues>
            4.2381390929222107e-01 -8.8048720359802246e-01</leafValues></_>
        <_>
          <internalNodes>
            0 -1 0 -1.3253774959594011e-03</internalNodes>
          <leafValues>
            6.0137319564819336e-01 -5.9175223112106323e-01</leafValues></_>
        <_>
          <internalNodes>
            0 -1 64 2.6982314884662628e-02</internalNodes>
          <leafValues>
            -9.6566885709762573e-01 3.3741095662117004e-01</leafValues></_>
        <_>
          <internalNodes>
            0 -1 15 -2.4874283553799614e-05</internalNodes>
          <leafValues>
            -9.1211569309234619e-01 3.4713533520698547e-01</leafValues></_>
        <_>
          <internalNodes>
            0 -1 70 -1.0320933070033789e-03</internalNodes>
          <leafValues>
            5.8816957473754883e-01 -5.6561183929443359e-01</leafValues></_></weakClassifiers></_>
    <!-- stage 3 -->
    <_>
      <maxWeakCount>11</maxWeakCount>
      <stageThreshold>3.3435347676277161e-01</stageThreshold>
      <weakClassifiers>
        <_>
          <internalNodes>
            0 -1 74 -1.5539261512458324e-02</internalNodes>
          <leafValues>
            4.7540983557701111e-01 -8.8764047622680664e-01</leafValues></_>
        <_>
          <internalNodes>
            0 -1 62 -4.8060510307550430e-03</internalNodes>
          <leafValues>
            4.9038797616958618e-01 -7.3810821771621704e-01</leafValues></_>
        <_>
          <internalNodes>
            0 -1 40 -1.7232254322152585e-04</internalNodes>
          <leafValues>
            5.2425122261047363e-01 -6.5462267398834229e-01</leafValues></_>
        <_>
          <internalNodes>
            0 -1 2 1.4079792425036430e-02</internalNodes>
          <leafValues>
            -7.2013676166534424e-01 4.4940915703773499e-01</leafValues></_>
        <_>
          <internalNodes>
            0 -1 27 1.5994119457900524e-03</internalNodes>
          <leafValues>
            -8.9445096254348755e-01 3.6957281827926636e-01</leafValues></_>
        <_>
          <internalNodes>
            0 -1 54 -7.7551208436489105e-02</internalNodes>
          <leafValues>
            -8.6055487394332886e-01 3.5299444198608398e-01</leafValues></_>
        <_>
          <internalNodes>
            0 -1 56 -1.2793077621608973e-03</internalNodes>
          <leafValues>
            7.5415033102035522e-01 -4.6479380130767822e-01</leafValues></_>
        <_>
          <internalNodes>
            0 -1 61 -2.5439804885536432e-03</internalNodes>
          <leafValues>
            3.1332123279571533e-01 -1.</leafValues></_>
        <_>
          <internalNodes>
            0 -1 77 -9.1273465659469366e-04</internalNodes>
          <leafValues>
            4.4377401471138000e-01 -7.7438694238662720e-01</leafValues></_>
        <_>
          <internalNodes>
            0 -1 21 1.0441152378916740e-02</internalNodes>
          <leafValues>
            -5.1811891794204712e-01 6.4818751811981201e-01</leafValues></_>
        <_>
          <internalNodes>
            0 -1 6 2.9148481786251068e-02</internalNodes>
          <leafValues>
            -7.7563500404357910e-01 4.9239489436149597e-01</leafValues></_></weakClassifiers></_>
    <!-- stage 4 -->
    <_>
      <maxWeakCount>10</maxWeakCount>
      <stageThreshold>-1.5077362954616547e-01</stageThreshold>
      <weakClassifiers>
        <_>
          <internalNodes>
            0 -1 67 2.7381159365177155e-02</internalNodes>
          <leafValues>
            -7.4384236335754395e-01 5.2577316761016846e-01</leafValues></_>
        <_>
          <internalNodes>
            0 -1 17 -1.3346893247216940e-03</internalNodes>
          <leafValues>
            5.4810494184494019e-01 -5.9688448905944824e-01</leafValues></_>
        <_>
          <internalNodes>
            0 -1 68 -3.9658233523368835e-02</internalNodes>
          <leafValues>
            -9.0540224313735962e-01 3.5770952701568604e-01</leafValues></_>
        <_>
          <internalNodes>
            0 -1 11 -5.8955786516889930e-04</internalNodes>
          <leafValues>
            6.1082035303115845e-01 -6.8823385238647461e-01</leafValues></_>
        <_>
          <internalNodes>
            0 -1 42 -6.0670310631394386e-03</internalNodes>
          <leafValues>
            8.4572196006774902e-01 -4.6097818017005920e-01</leafValues></_>
        <_>
          <internalNodes>
            0 -1 51 -9.9565073847770691e-02</internalNodes>
          <leafValues>
            8.1379133462905884e-01 -4.7695145010948181e-01</leafValues></_>
        <_>
          <internalNodes>
            0 -1 36 -5.5237576365470886e-02</internalNodes>
          <leafValues>
            -6.1707544326782227e-01 5.7826924324035645e-01</leafValues></_>
        <_>
          <internalNodes>
            0 -1 37 -9.0540398377925158e-04</internalNodes>
          <leafValues>
            7.3469656705856323e-01 -4.9164843559265137e-01</leafValues></_>
        <_>
          <internalNodes>
            0 -1 5 -1.7298182938247919e-03</internalNodes>
          <leafValues>
            6.3723295927047729e-01 -5.8741015195846558e-01</leafValues></_>
        <_>
          <internalNodes>
            0 -1 48 1.2714439071714878e-03</internalNodes>
          <leafValues>
            4.2615139484405518e-01 -8.6437809467315674e-01</leafValues></_></weakClassifiers></_>
    <!-- stage 5 -->
    <_>
      <maxWeakCount>11</maxWeakCount>
      <stageThreshold>4.9474786967039108e-02</stageThreshold>
      <weakClassifiers>
        <_>
          <internalNodes>
            0 -1 59 -6.4545311033725739e-03</internalNodes>
          <leafValues>
            5.1515150070190430e-01 -7.5124377012252808e-01</leafValues></_>
        <_>
          <internalNodes>
            0 -1 20 -1.2973819393664598e-03</internalNodes>
          <leafValues>
            7.9702293872833252e-01 -5.7759749889373779e-01</leafValues></_>
        <_>
          <internalNodes>
            0 -1 23 3.7480164319276810e-03</internalNodes>
          <leafValues>
            -9.5650315284729004e-01 4.3423810601234436e-01</leafValues></_>
        <_>
          <internalNodes>
            0 -1 58 1.3169867452234030e-03</internalNodes>
          <leafValues>
            3.2939562201499939e-01 -8.3081924915313721e-01</leafValues></_>
        <_>
          <internalNodes>
            0 -1 44 -2.5519967311993241e-04</internalNodes>
          <leafValues>
            4.1616117954254150e-01 -7.0890116691589355e-01</leafValues></_>
        <_>
          <internalNodes>
            0 -1 73 -6.8475477746687829e-05</internalNodes>
          <leafValues>
            -4.7163820266723633e-01 8.3170151710510254e-01</leafValues></_>
        <_>
          <internalNodes>
            0 -1 41 -9.3783812189940363e-05</internalNodes>
          <leafValues>
            5.5134683847427368e-01 -5.7528334856033325e-01</leafValues></_>
        <_>
          <internalNodes>
            0 -1 81 -1.6862562624737620e-03</internalNodes>
          <leafValues>
            4.6080732345581055e-01 -7.6579588651657104e-01</leafValues></_>
        <_>
          <internalNodes>
            0 -1 1 -9.4249993562698364e-03</internalNodes>
          <leafValues>
            6.6888463497161865e-01 -5.3634500503540039e-01</leafValues></_>
        <_>
          <internalNodes>
            0 -1 25 -8.0785961472429335e-05</internalNodes>
          <leafValues>
            8.3081531524658203e-01 -4.2492744326591492e-01</leafValues></_>
        <_>
          <internalNodes>
            0 -1 19 -9.9900573492050171e-02</internalNodes>
          <leafValues>
            6.2389922142028809e-01 -6.3099688291549683e-01</leafValues></_></weakClassifiers></_>
    <!-- stage 6 -->
    <_>
      <maxWeakCount>7</maxWeakCount>
      <stageThreshold>1.0859704017639160e-01</stageThreshold>
      <weakClassifiers>
        <_>
          <internalNodes>
            0 -1 75 1.1074112728238106e-02</internalNodes>
          <leafValues>
            -7.6884424686431885e-01 5.2475249767303467e-01</leafValues></_>
        <_>
          <internalNodes>
            0 -1 43 -1.0947835631668568e-02</internalNodes>
          <leafValues>
            -8.4987419843673706e-01 4.5984336733818054e-01</leafValues></_>
        <_>
          <internalNodes>
            0 -1 63 4.6931512770242989e-05</internalNodes>
          <leafValues>
            5.0757765769958496e-01 -7.6168340444564819e-01</leafValues></_>
        <_>
          <internalNodes>
            0 -1 35 6.6637212876230478e-04</internalNodes>
          <leafValues>
            3.9967837929725647e-01 -8.4755951166152954e-01</leafValues></_>
        <_>
          <internalNodes>
            0 -1 82 1.6208065790124238e-04</internalNodes>
          <leafValues>
            -6.7015475034713745e-01 4.7764229774475098e-01</leafValues></_>
        <_>
          <internalNodes>
            0 -1 14 -2.4825040251016617e-02</internalNodes>
          <leafValues>
            9.5159226655960083e-01 -4.8230263590812683e-01</leafValues></_>
        <_>
          <internalNodes>
            0 -1 7 1.2707472778856754e-03</internalNodes>
          <leafValues>
            -4.5931959152221680e-01 8.0038410425186157e-01</leafValues></_></weakClassifiers></_>
    <!-- stage 7 -->
    <_>
      <maxWeakCount>9</maxWeakCount>
      <stageThreshold>3.0446124076843262e-01</stageThreshold>
      <weakClassifiers>
        <_>
          <internalNodes>
            0 -1 46 -2.4485021829605103e-02</internalNodes>
          <leafValues>
            8.5714286565780640e-01 -7.9629629850387573e-01</leafValues></_>
        <_>
          <internalNodes>
            0 -1 26 2.0809948444366455e-02</internalNodes>
          <leafValues>
            5.2369588613510132e-01 -8.7687444686889648e-01</leafValues></_>
        <_>
          <internalNodes>
            0 -1 76 -1.0142842074856162e-03</internalNodes>
          <leafValues>
            6.2419611215591431e-01 -7.4997180700302124e-01</leafValues></_>
        <_>
          <internalNodes>
            0 -1 55 -3.9709422737360001e-02</internalNodes>
          <leafValues>
            -9.9043262004852295e-01 3.3664777874946594e-01</leafValues></_>
        <_>
          <internalNodes>
            0 -1 32 -9.2990620760247111e-04</internalNodes>
          <leafValues>
            9.0815669298171997e-01 -5.0111180543899536e-01</leafValues></_>
        <_>
          <internalNodes>
            0 -1 53 -5.4874783381819725e-04</internalNodes>
          <leafValues>
            -6.8657433986663818e-01 6.8332785367965698e-01</leafValues></_>
        <_>
          <internalNodes>
            0 -1 31 -9.9170925095677376e-03</internalNodes>
          <leafValues>
            -7.2917467355728149e-01 6.8705886602401733e-01</leafValues></_>
        <_>
          <internalNodes>
            0 -1 52 6.8708628416061401e-02</internalNodes>
          <leafValues>
            -6.5542900562286377e-01 7.6946353912353516e-01</leafValues></_>
        <_>
          <internalNodes>
            0 -1 57 2.3216819681692868e-04</internalNodes>
          <leafValues>
            7.4036139249801636e-01 -5.9762817621231079e-01</leafValues></_></weakClassifiers></_>
    <!-- stage 8 -->
    <_>
      <maxWeakCount>8</maxWeakCount>
      <stageThreshold>-5.3044956177473068e-02</stageThreshold>
      <weakClassifiers>
        <_>
          <internalNodes>
            0 -1 65 -1.4677297323942184e-02</internalNodes>
          <leafValues>
            -7.2769951820373535e-01 6.3218390941619873e-01</leafValues></_>
        <_>
          <internalNodes>
            0 -1 39 1.3052248395979404e-03</internalNodes>
          <leafValues>
            -6.7580091953277588e-01 6.6830992698669434e-01</leafValues></_>
        <_>
          <internalNodes>
            0 -1 22 2.3757831659168005e-03</internalNodes>
          <leafValues>
            6.8534553050994873e-01 -6.3158279657363892e-01</leafValues></_>
        <_>
          <internalNodes>
            0 -1 47 -8.2971574738621712e-03</internalNodes>
          <leafValues>
            5.7963281869888306e-01 -6.8615394830703735e-01</leafValues></_>
        <_>
          <internalNodes>
            0 -1 29 -1.5359361656010151e-02</internalNodes>
          <leafValues>
            -9.4590121507644653e-01 5.0270450115203857e-01</leafValues></_>
        <_>
          <internalNodes>
            0 -1 18 1.0676828678697348e-03</internalNodes>
          <leafValues>
            -6.3346129655838013e-01 8.2696413993835449e-01</leafValues></_>
        <_>
          <internalNodes>
            0 -1 49 -1.9938163459300995e-03</internalNodes>
          <leafValues>
            7.1082246303558350e-01 -6.0961002111434937e-01</leafValues></_>
        <_>
          <internalNodes>
            0 -1 66 -5.2177387260599062e-05</internalNodes>
          <leafValues>
            9.3141210079193115e-01 -4.9458849430084229e-01</leafValues></_></weakClassifiers></_>
    <!-- stage 9 -->
    <_>
      <maxWeakCount>10</maxWeakCount>
      <stageThreshold>-8.7488636374473572e-02</stageThreshold>
      <weakClassifiers>
        <_>
          <internalNodes>
            0 -1 71 -2.9084440320730209e-03</internalNodes>
          <leafValues>
            -6.8421053886413574e-01 7.7777779102325439e-01</leafValues></_>
        <_>
          <internalNodes>
            0 -1 50 3.6183657357469201e-04</internalNodes>
          <leafValues>
            5.0368809700012207e-01 -7.9487162828445435e-01</leafValues></_>
        <_>
          <internalNodes>
            0 -1 13 1.3074792223051190e-03</internalNodes>
          <leafValues>
            -5.2255630493164063e-01 8.8504970073699951e-01</leafValues></_>
        <_>
          <internalNodes>
            0 -1 28 -9.6422405913472176e-03</internalNodes>
          <leafValues>
            -7.9479712247848511e-01 4.9090355634689331e-01</leafValues></_>
        <_>
          <internalNodes>
            0 -1 72 -3.0329701257869601e-04</internalNodes>
          <leafValues>
            8.7622421979904175e-01 -3.9627113938331604e-01</leafValues></_>
        <_>
          <internalNodes>
            0 -1 45 3.0243322253227234e-03</internalNodes>
          <leafValues>
            5.7143914699554443e-01 -6.7243081331253052e-01</leafValues></_>
        <_>
          <internalNodes>
            0 -1 30 3.4596319892443717e-04</internalNodes>
          <leafValues>
            -4.2803487181663513e-01 1.</leafValues></_>
        <_>
          <internalNodes>
            0 -1 80 -1.0143300642084796e-05</internalNodes>
          <leafValues>
            -7.6728510856628418e-01 5.8372938632965088e-01</leafValues></_>
        <_>
          <internalNodes>
            0 -1 12 -1.5573379397392273e-01</internalNodes>
          <leafValues>
            -6.9906067848205566e-01 6.7233562469482422e-01</leafValues></_>
        <_>
          <internalNodes>
            0 -1 16 -1.5614238381385803e-01</internalNodes>
          <leafValues>
            4.9288478493690491e-01 -8.3606249094009399e-01</leafValues></_></weakClassifiers></_></stages>
  <features>
    <_>
      <rects>
        <_>
          0 0 2 10 -1.</_>
        <_>
          0 0 1 5 2.</_>
        <_>
          1 5 1 5 2.</_></rects>
      <tilted>0</tilted></_>
    <_>
      <rects>
        <_>
          0 0 4 18 -1.</_>
        <_>
          0 0 2 9 2.</_>
        <_>
          2 9 2 9 2.</_></rects>
      <tilted>0</tilted></_>
    <_>
      <rects>
        <_>
          0 0 8 8 -1.</_>
        <_>
          4 0 4 8 2.</_></rects>
      <tilted>0</tilted></_>
    <_>
      <rects>
        <_>
          0 0 5 12 -1.</_>
        <_>
          0 6 5 6 2.</_></rects>
      <tilted>0</tilted></_>
    <_>
      <rects>
        <_>
          0 0 21 21 -1.</_>
        <_>
          0 7 21 7 2.</_></rects>
      <tilted>0</tilted></_>
    <_>
      <rects>
        <_>
          0 1 20 2 -1.</_>
        <_>
          0 2 20 1 2.</_></rects>
      <tilted>0</tilted></_>
    <_>
      <rects>
        <_>
          0 3 12 8 -1.</_>
        <_>
          6 3 6 8 2.</_></rects>
      <tilted>0</tilted></_>
    <_>
      <rects>
        <_>
          0 5 2 13 -1.</_>
        <_>
          1 5 1 13 2.</_></rects>
      <tilted>0</tilted></_>
    <_>
      <rects>
        <_>
          0 5 8 5 -1.</_>
        <_>
          4 5 4 5 2.</_></rects>
      <tilted>0</tilted></_>
    <_>
      <rects>
        <_>
          0 21 14 2 -1.</_>
        <_>
          7 21 7 2 2.</_></rects>
      <tilted>0</tilted></_>
    <_>
      <rects>
        <_>
          0 21 16 2 -1.</_>
        <_>
          8 21 8 2 2.</_></rects>
      <tilted>0</tilted></_>
    <_>
      <rects>
        <_>
          0 22 14 2 -1.</_>
        <_>
          0 22 7 1 2.</_>
        <_>
          7 23 7 1 2.</_></rects>
      <tilted>0</tilted></_>
    <_>
      <rects>
        <_>
          1 2 9 16 -1.</_>
        <_>
          4 2 3 16 2.</_></rects>
      <tilted>0</tilted></_>
    <_>
      <rects>
        <_>
          1 3 2 2 -1.</_>
        <_>
          2 3 1 2 2.</_></rects>
      <tilted>0</tilted></_>
    <_>
      <rects>
        <_>
          1 3 6 6 -1.</_>
        <_>
          1 6 6 3 2.</_></rects>
      <tilted>0</tilted></_>
    <_>
      <rects>
        <_>
          1 18 2 2 -1.</_>
        <_>
          1 18 1 1 2.</_>
        <_>
          2 19 1 1 2.</_></rects>
      <tilted>0</tilted></_>
    <_>
      <rects>
        <_>
          2 0 8 24 -1.</_>
        <_>
          2 8 8 8 2.</_></rects>
      <tilted>0</tilted></_>
    <_>
      <rects>
        <_>
          2 1 19 2 -1.</_>
        <_>
          2 2 19 1 2.</_></rects>
      <tilted>0</tilted></_>
    <_>
      <rects>
        <_>
          2 2 4 4 -1.</_>
        <_>
          2 2 2 2 2.</_>
        <_>
          4 4 2 2 2.</_></rects>
      <tilted>0</tilted></_>
    <_>
      <rects>
        <_>
          2 2 8 22 -1.</_>
        <_>
          2 13 8 11 2.</_></rects>
      <tilted>0</tilted></_>
    <_>
      <rects>
        <_>
          2 3 7 2 -1.</_>
        <_>
          2 4 7 1 2.</_></rects>
      <tilted>0</tilted></_>
    <_>
      <rects>
        <_>
          3 5 20 4 -1.</_>
        <_>
          3 5 10 2 2.</_>
        <_>
          13 7 10 2 2.</_></rects>
      <tilted>0</tilted></_>
    <_>
      <rects>
        <_>
          3 9 16 2 -1.</_>
        <_>
          3 9 8 1 2.</_>
        <_>
          11 10 8 1 2.</_></rects>
      <tilted>0</tilted></_>
    <_>
      <rects>
        <_>
          3 21 18 3 -1.</_>
        <_>
          12 21 9 3 2.</_></rects>
      <tilted>0</tilted></_>
    <_>
      <rects>
        <_>
          3 22 21 1 -1.</_>
        <_>
          10 22 7 1 2.</_></rects>
      <tilted>0</tilted></_>
    <_>
      <rects>
        <_>
          4 13 2 1 -1.</_>
        <_>
          5 13 1 1 2.</_></rects>
      <tilted>0</tilted></_>
    <_>
      <rects>
        <_>
          5 0 16 6 -1.</_>
        <_>
          5 0 8 3 2.</_>
        <_>
          13 3 8 3 2.</_></rects>
      <tilted>0</tilted></_>
    <_>
      <rects>
        <_>
          5 17 12 6 -1.</_>
        <_>
          5 17 6 3 2.</_>
        <_>
          11 20 6 3 2.</_></rects>
      <tilted>0</tilted></_>
    <_>
      <rects>
        <_>
          6 1 6 14 -1.</_>
        <_>
          9 1 3 14 2.</_></rects>
      <tilted>0</tilted></_>
    <_>
      <rects>
        <_>
          6 3 9 1 -1.</_>
        <_>
          9 3 3 1 2.</_></rects>
      <tilted>0</tilted></_>
    <_>
      <rects>
        <_>
          6 11 2 2 -1.</_>
        <_>
          6 11 1 1 2.</_>
        <_>
          7 12 1 1 2.</_></rects>
      <tilted>0</tilted></_>
    <_>
      <rects>
        <_>
          6 17 14 4 -1.</_>
        <_>
          6 19 14 2 2.</_></rects>
      <tilted>0</tilted></_>
    <_>
      <rects>
        <_>
          7 0 13 2 -1.</_>
        <_>
          7 1 13 1 2.</_></rects>
      <tilted>0</tilted></_>
    <_>
      <rects>
        <_>
          7 16 17 6 -1.</_>
        <_>
          7 19 17 3 2.</_></rects>
      <tilted>0</tilted></_>
    <_>
      <rects>
        <_>
          8 3 16 4 -1.</_>
        <_>
          16 3 8 4 2.</_></rects>
      <tilted>0</tilted></_>
    <_>
      <rects>
        <_>
          8 4 4 1 -1.</_>
        <_>
          10 4 2 1 2.</_></rects>
      <tilted>0</tilted></_>
    <_>
      <rects>
        <_>
          8 7 15 6 -1.</_>
        <_>
          13 7 5 6 2.</_></rects>
      <tilted>0</tilted></_>
    <_>
      <rects>
        <_>
          8 14 8 2 -1.</_>
        <_>
          8 15 8 1 2.</_></rects>
      <tilted>0</tilted></_>
    <_>
      <rects>
        <_>
          8 18 2 6 -1.</_>
        <_>
          8 21 2 3 2.</_></rects>
      <tilted>0</tilted></_>
    <_>
      <rects>
        <_>
          8 20 4 4 -1.</_>
        <_>
          8 20 2 2 2.</_>
        <_>
          10 22 2 2 2.</_></rects>
      <tilted>0</tilted></_>
    <_>
      <rects>
        <_>
          9 2 5 2 -1.</_>
        <_>
          9 3 5 1 2.</_></rects>
      <tilted>0</tilted></_>
    <_>
      <rects>
        <_>
          9 14 10 2 -1.</_>
        <_>
          14 14 5 2 2.</_></rects>
      <tilted>0</tilted></_>
    <_>
      <rects>
        <_>
          10 12 6 6 -1.</_>
        <_>
          10 15 6 3 2.</_></rects>
      <tilted>0</tilted></_>
    <_>
      <rects>
        <_>
          10 16 3 8 -1.</_>
        <_>
          10 20 3 4 2.</_></rects>
      <tilted>0</tilted></_>
    <_>
      <rects>
        <_>
          10 16 4 8 -1.</_>
        <_>
          10 20 4 4 2.</_></rects>
      <tilted>0</tilted></_>
    <_>
      <rects>
        <_>
          10 18 4 6 -1.</_>
        <_>
          10 18 2 3 2.</_>
        <_>
          12 21 2 3 2.</_></rects>
      <tilted>0</tilted></_>
    <_>
      <rects>
        <_>
          10 19 9 2 -1.</_>
        <_>
          13 19 3 2 2.</_></rects>
      <tilted>0</tilted></_>
    <_>
      <rects>
        <_>
          10 23 9 1 -1.</_>
        <_>
          13 23 3 1 2.</_></rects>
      <tilted>0</tilted></_>
    <_>
      <rects>
        <_>
          11 20 8 2 -1.</_>
        <_>
          15 20 4 2 2.</_></rects>
      <tilted>0</tilted></_>
    <_>
      <rects>
        <_>
          11 20 12 2 -1.</_>
        <_>
          11 21 12 1 2.</_></rects>
      <tilted>0</tilted></_>
    <_>
      <rects>
        <_>
          11 23 4 1 -1.</_>
        <_>
          13 23 2 1 2.</_></rects>
      <tilted>0</tilted></_>
    <_>
      <rects>
        <_>
          12 0 3 21 -1.</_>
        <_>
          12 7 3 7 2.</_></rects>
      <tilted>0</tilted></_>
    <_>
      <rects>
        <_>
          12 6 12 14 -1.</_>
        <_>
          12 13 12 7 2.</_></rects>
      <tilted>0</tilted></_>
    <_>
      <rects>
        <_>
          13 1 2 12 -1.</_>
        <_>
          14 1 1 12 2.</_></rects>
      <tilted>0</tilted></_>
    <_>
      <rects>
        <_>
          13 6 9 10 -1.</_>
        <_>
          16 6 3 10 2.</_></rects>
      <tilted>0</tilted></_>
    <_>
      <rects>
        <_>
          13 9 6 15 -1.</_>
        <_>
          16 9 3 15 2.</_></rects>
      <tilted>0</tilted></_>
    <_>
      <rects>
        <_>
          13 13 6 4 -1.</_>
        <_>
          13 13 3 2 2.</_>
        <_>
          16 15 3 2 2.</_></rects>
      <tilted>0</tilted></_>
    <_>
      <rects>
        <_>
          14 6 4 2 -1.</_>
        <_>
          14 7 4 1 2.</_></rects>
      <tilted>0</tilted></_>
    <_>
      <rects>
        <_>
          15 16 4 5 -1.</_>
        <_>
          17 16 2 5 2.</_></rects>
      <tilted>0</tilted></_>
    <_>
      <rects>
        <_>
          15 18 8 4 -1.</_>
        <_>
          15 18 4 2 2.</_>
        <_>
          19 20 4 2 2.</_></rects>
      <tilted>0</tilted></_>
    <_>
      <rects>
        <_>
          15 21 8 2 -1.</_>
        <_>
          19 21 4 2 2.</_></rects>
      <tilted>0</tilted></_>
    <_>
      <rects>
        <_>
          17 2 4 14 -1.</_>
        <_>
          19 2 2 14 2.</_></rects>
      <tilted>0</tilted></_>
    <_>
      <rects>
        <_>
          17 6 4 5 -1.</_>
        <_>
          19 6 2 5 2.</_></rects>
      <tilted>0</tilted></_>
    <_>
      <rects>
        <_>
          17 17 2 2 -1.</_>
        <_>
          17 17 1 1 2.</_>
        <_>
          18 18 1 1 2.</_></rects>
      <tilted>0</tilted></_>
    <_>
      <rects>
        <_>
          18 4 4 16 -1.</_>
        <_>
          18 12 4 8 2.</_></rects>
      <tilted>0</tilted></_>
    <_>
      <rects>
        <_>
          18 5 4 9 -1.</_>
        <_>
          18 8 4 3 2.</_></rects>
      <tilted>0</tilted></_>
    <_>
      <rects>
        <_>
          18 11 3 2 -1.</_>
        <_>
          18 12 3 1 2.</_></rects>
      <tilted>0</tilted></_>
    <_>
      <rects>
        <_>
          18 12 6 6 -1.</_>
        <_>
          18 15 6 3 2.</_></rects>
      <tilted>0</tilted></_>
    <_>
      <rects>
        <_>
          18 14 3 9 -1.</_>
        <_>
          19 14 1 9 2.</_></rects>
      <tilted>0</tilted></_>
    <_>
      <rects>
        <_>
          18 18 1 3 -1.</_>
        <_>
          18 19 1 1 2.</_></rects>
      <tilted>0</tilted></_>
    <_>
      <rects>
        <_>
          18 22 3 2 -1.</_>
        <_>
          18 23 3 1 2.</_></rects>
      <tilted>0</tilted></_>
    <_>
      <rects>
        <_>
          19 5 3 9 -1.</_>
        <_>
          19 8 3 3 2.</_></rects>
      <tilted>0</tilted></_>
    <_>
      <rects>
        <_>
          19 21 1 2 -1.</_>
        <_>
          19 22 1 1 2.</_></rects>
      <tilted>0</tilted></_>
    <_>
      <rects>
        <_>
          20 5 2 9 -1.</_>
        <_>
          20 8 2 3 2.</_></rects>
      <tilted>0</tilted></_>
    <_>
      <rects>
        <_>
          20 13 4 11 -1.</_>
        <_>
          22 13 2 11 2.</_></rects>
      <tilted>0</tilted></_>
    <_>
      <rects>
        <_>
          20 13 4 4 -1.</_>
        <_>
          20 15 4 2 2.</_></rects>
      <tilted>0</tilted></_>
    <_>
      <rects>
        <_>
          20 19 2 5 -1.</_>
        <_>
          21 19 1 5 2.</_></rects>
      <tilted>0</tilted></_>
    <_>
      <rects>
        <_>
          21 4 2 14 -1.</_>
        <_>
          21 4 1 7 2.</_>
        <_>
          22 11 1 7 2.</_></rects>
      <tilted>0</tilted></_>
    <_>
      <rects>
        <_>
          21 9 2 10 -1.</_>
        <_>
          21 14 2 5 2.</_></rects>
      <tilted>0</tilted></_>
    <_>
      <rects>
        <_>
          21 13 1 6 -1.</_>
        <_>
          21 16 1 3 2.</_></rects>
      <tilted>0</tilted></_>
    <_>
      <rects>
        <_>
          22 5 2 6 -1.</_>
        <_>
          23 5 1 6 2.</_></rects>
      <tilted>0</tilted></_>
    <_>
      <rects>
        <_>
          22 15 2 6 -1.</_>
        <_>
          23 15 1 6 2.</_></rects>
      <tilted>0</tilted></_>
    <_>
      <rects>
        <_>
          23 10 1 10 -1.</_>
        <_>
          23 15 1 5 2.</_></rects>
      <tilted>0</tilted></_></features></cascade>
</opencv_storage>
