<?xml version="1.0"?>
<opencv_storage>
<stage8>
  <maxWeakCount>8</maxWeakCount>
  <stageThreshold>-5.3044956177473068e-02</stageThreshold>
  <weakClassifiers>
    <_>
      <internalNodes>
        0 -1 153302 -1.4677297323942184e-02</internalNodes>
      <leafValues>
        -7.2769951820373535e-01 6.3218390941619873e-01</leafValues></_>
    <_>
      <internalNodes>
        0 -1 98415 1.3052248395979404e-03</internalNodes>
      <leafValues>
        -6.7580091953277588e-01 6.6830992698669434e-01</leafValues></_>
    <_>
      <internalNodes>
        0 -1 45311 2.3757831659168005e-03</internalNodes>
      <leafValues>
        6.8534553050994873e-01 -6.3158279657363892e-01</leafValues></_>
    <_>
      <internalNodes>
        0 -1 114406 -8.2971574738621712e-03</internalNodes>
      <leafValues>
        5.7963281869888306e-01 -6.8615394830703735e-01</leafValues></_>
    <_>
      <internalNodes>
        0 -1 73205 -1.5359361656010151e-02</internalNodes>
      <leafValues>
        -9.4590121507644653e-01 5.0270450115203857e-01</leafValues></_>
    <_>
      <internalNodes>
        0 -1 27821 1.0676828678697348e-03</internalNodes>
      <leafValues>
        -6.3346129655838013e-01 8.2696413993835449e-01</leafValues></_>
    <_>
      <internalNodes>
        0 -1 121227 -1.9938163459300995e-03</internalNodes>
      <leafValues>
        7.1082246303558350e-01 -6.0961002111434937e-01</leafValues></_>
    <_>
      <internalNodes>
        0 -1 154328 -5.2177387260599062e-05</internalNodes>
      <leafValues>
        9.3141210079193115e-01 -4.9458849430084229e-01</leafValues></_></weakClassifiers></stage8>
</opencv_storage>
