<?xml version="1.0"?>
<opencv_storage>
<cascade>
  <stageType>BOOST</stageType>
  <featureType>HAAR</featureType>
  <height>24</height>
  <width>24</width>
  <stageParams>
    <boostType>GAB</boostType>
    <minHitRate>9.9900001287460327e-01</minHitRate>
    <maxFalseAlarm>1.0000000474974513e-03</maxFalseAlarm>
    <weightTrimRate>9.4999999999999996e-01</weightTrimRate>
    <maxDepth>1</maxDepth>
    <maxWeakCount>100</maxWeakCount></stageParams>
  <featureParams>
    <maxCatCount>0</maxCatCount>
    <featSize>1</featSize>
    <mode>BASIC</mode></featureParams>
  <stageNum>12</stageNum>
  <stages>
    <!-- stage 0 -->
    <_>
      <maxWeakCount>28</maxWeakCount>
      <stageThreshold>-3.5292175412178040e-01</stageThreshold>
      <weakClassifiers>
        <_>
          <internalNodes>
            0 -1 486 -6.4469695091247559e-02</internalNodes>
          <leafValues>
            -9.3164557218551636e-01 3.3239436149597168e-01</leafValues></_>
        <_>
          <internalNodes>
            0 -1 240 -1.5793055295944214e-01</internalNodes>
          <leafValues>
            -7.9899513721466064e-01 1.6208186745643616e-01</leafValues></_>
        <_>
          <internalNodes>
            0 -1 359 1.1155803501605988e-01</internalNodes>
          <leafValues>
            -3.2143008708953857e-01 8.2158529758453369e-01</leafValues></_>
        <_>
          <internalNodes>
            0 -1 264 -9.4483122229576111e-02</internalNodes>
          <leafValues>
            8.5966730117797852e-01 -3.6672922968864441e-01</leafValues></_>
        <_>
          <internalNodes>
            0 -1 431 2.0406365394592285e-02</internalNodes>
          <leafValues>
            -1.6398605704307556e-01 7.8407084941864014e-01</leafValues></_>
        <_>
          <internalNodes>
            0 -1 473 9.4795674085617065e-03</internalNodes>
          <leafValues>
            -1.8980911374092102e-01 7.7828913927078247e-01</leafValues></_>
        <_>
          <internalNodes>
            0 -1 616 1.7341108992695808e-02</internalNodes>
          <leafValues>
            -2.9874658584594727e-01 5.4684942960739136e-01</leafValues></_>
        <_>
          <internalNodes>
            0 -1 37 9.8374485969543457e-03</internalNodes>
          <leafValues>
            -1.6710755228996277e-01 7.0825088024139404e-01</leafValues></_>
        <_>
          <internalNodes>
            0 -1 68 -7.3288396000862122e-02</internalNodes>
          <leafValues>
            7.1794873476028442e-01 -2.2458206117153168e-01</leafValues></_>
        <_>
          <internalNodes>
            0 -1 652 -2.2381579503417015e-02</internalNodes>
          <leafValues>
            -1.9201992452144623e-01 8.1909132003784180e-01</leafValues></_>
        <_>
          <internalNodes>
            0 -1 86 -5.4595421999692917e-02</internalNodes>
          <leafValues>
            7.9947483539581299e-01 -1.7794544994831085e-01</leafValues></_>
        <_>
          <internalNodes>
            0 -1 746 1.6690732911229134e-02</internalNodes>
          <leafValues>
            -1.6976530849933624e-01 7.9434132575988770e-01</leafValues></_>
        <_>
          <internalNodes>
            0 -1 165 9.7857415676116943e-02</internalNodes>
          <leafValues>
            2.5557261705398560e-01 -6.9530916213989258e-01</leafValues></_>
        <_>
          <internalNodes>
            0 -1 176 3.6592379212379456e-02</internalNodes>
          <leafValues>
            -3.1117844581604004e-01 5.2112269401550293e-01</leafValues></_>
        <_>
          <internalNodes>
            0 -1 446 -9.2598646879196167e-02</internalNodes>
          <leafValues>
            8.4783381223678589e-01 -1.6683922708034515e-01</leafValues></_>
        <_>
          <internalNodes>
            0 -1 492 9.2340439558029175e-02</internalNodes>
          <leafValues>
            -1.7528530955314636e-01 7.6578283309936523e-01</leafValues></_>
        <_>
          <internalNodes>
            0 -1 539 -5.2888654172420502e-02</internalNodes>
          <leafValues>
            -3.9863580465316772e-01 4.0799117088317871e-01</leafValues></_>
        <_>
          <internalNodes>
            0 -1 14 -3.5291200876235962e-01</internalNodes>
          <leafValues>
            -8.3664077520370483e-01 2.2444543242454529e-01</leafValues></_>
        <_>
          <internalNodes>
            0 -1 821 -2.5368031114339828e-02</internalNodes>
          <leafValues>
            8.1042182445526123e-01 -2.2632578015327454e-01</leafValues></_>
        <_>
          <internalNodes>
            0 -1 482 -3.9524813182651997e-03</internalNodes>
          <leafValues>
            6.0424965620040894e-01 -2.8528130054473877e-01</leafValues></_>
        <_>
          <internalNodes>
            0 -1 776 3.7821844220161438e-02</internalNodes>
          <leafValues>
            -1.7048969864845276e-01 6.8794447183609009e-01</leafValues></_>
        <_>
          <internalNodes>
            0 -1 80 4.1184388101100922e-02</internalNodes>
          <leafValues>
            1.6374985873699188e-01 -9.5502746105194092e-01</leafValues></_>
        <_>
          <internalNodes>
            0 -1 42 -4.8307374119758606e-02</internalNodes>
          <leafValues>
            7.4164837598800659e-01 -2.2404170036315918e-01</leafValues></_>
        <_>
          <internalNodes>
            0 -1 26 3.1106814742088318e-02</internalNodes>
          <leafValues>
            -1.7647904157638550e-01 7.2257709503173828e-01</leafValues></_>
        <_>
          <internalNodes>
            0 -1 130 -2.6138823479413986e-02</internalNodes>
          <leafValues>
            7.9253381490707397e-01 -1.6753920912742615e-01</leafValues></_>
        <_>
          <internalNodes>
            0 -1 487 1.7238456755876541e-02</internalNodes>
          <leafValues>
            -2.4399037659168243e-01 6.4954954385757446e-01</leafValues></_>
        <_>
          <internalNodes>
            0 -1 810 -5.0460793077945709e-02</internalNodes>
          <leafValues>
            -2.5827348232269287e-01 5.2564519643783569e-01</leafValues></_>
        <_>
          <internalNodes>
            0 -1 402 2.0022077951580286e-03</internalNodes>
          <leafValues>
            2.2696609795093536e-01 -6.5305739641189575e-01</leafValues></_></weakClassifiers></_>
    <!-- stage 1 -->
    <_>
      <maxWeakCount>57</maxWeakCount>
      <stageThreshold>-1.8106767535209656e-01</stageThreshold>
      <weakClassifiers>
        <_>
          <internalNodes>
            0 -1 474 -2.1873757243156433e-01</internalNodes>
          <leafValues>
            -7.8093308210372925e-01 -1.1420059949159622e-01</leafValues></_>
        <_>
          <internalNodes>
            0 -1 321 -2.0218797028064728e-01</internalNodes>
          <leafValues>
            5.4609924554824829e-01 -1.9408112764358521e-01</leafValues></_>
        <_>
          <internalNodes>
            0 -1 21 -2.6967901736497879e-02</internalNodes>
          <leafValues>
            5.6844139099121094e-01 -1.5859362483024597e-01</leafValues></_>
        <_>
          <internalNodes>
            0 -1 88 5.4006683640182018e-03</internalNodes>
          <leafValues>
            -3.4084123373031616e-01 2.4769224226474762e-01</leafValues></_>
        <_>
          <internalNodes>
            0 -1 568 -4.2494619265198708e-04</internalNodes>
          <leafValues>
            4.0385746955871582e-01 -1.8031404912471771e-01</leafValues></_>
        <_>
          <internalNodes>
            0 -1 865 -1.3549128780141473e-03</internalNodes>
          <leafValues>
            4.5383259654045105e-01 -1.5991589426994324e-01</leafValues></_>
        <_>
          <internalNodes>
            0 -1 288 -4.9741677939891815e-02</internalNodes>
          <leafValues>
            -6.6290283203125000e-01 1.2505066394805908e-01</leafValues></_>
        <_>
          <internalNodes>
            0 -1 226 -7.2971493005752563e-02</internalNodes>
          <leafValues>
            9.1720834374427795e-02 -7.9112297296524048e-01</leafValues></_>
        <_>
          <internalNodes>
            0 -1 855 7.1255755610764027e-03</internalNodes>
          <leafValues>
            -1.6637060046195984e-01 5.3780055046081543e-01</leafValues></_>
        <_>
          <internalNodes>
            0 -1 555 -4.5216176658868790e-03</internalNodes>
          <leafValues>
            7.6774978637695313e-01 -9.9323116242885590e-02</leafValues></_>
        <_>
          <internalNodes>
            0 -1 562 1.0372756514698267e-03</internalNodes>
          <leafValues>
            -1.7684820294380188e-01 4.9907061457633972e-01</leafValues></_>
        <_>
          <internalNodes>
            0 -1 495 -1.3988658320158720e-03</internalNodes>
          <leafValues>
            3.8585612177848816e-01 -2.0189781486988068e-01</leafValues></_>
        <_>
          <internalNodes>
            0 -1 470 5.4345455020666122e-02</internalNodes>
          <leafValues>
            1.0597004741430283e-01 -7.4132883548736572e-01</leafValues></_>
        <_>
          <internalNodes>
            0 -1 604 -3.1579393893480301e-02</internalNodes>
          <leafValues>
            -2.9617813229560852e-01 2.8339096903800964e-01</leafValues></_>
        <_>
          <internalNodes>
            0 -1 190 -2.1842606365680695e-03</internalNodes>
          <leafValues>
            6.3185751438140869e-01 -1.2245211005210876e-01</leafValues></_>
        <_>
          <internalNodes>
            0 -1 463 -5.3521622903645039e-03</internalNodes>
          <leafValues>
            6.5458840131759644e-01 -1.1442212760448456e-01</leafValues></_>
        <_>
          <internalNodes>
            0 -1 571 -1.2428920017555356e-03</internalNodes>
          <leafValues>
            4.8124870657920837e-01 -1.5298578143119812e-01</leafValues></_>
        <_>
          <internalNodes>
            0 -1 251 -1.0023342911154032e-03</internalNodes>
          <leafValues>
            6.3266414403915405e-01 -1.2399797141551971e-01</leafValues></_>
        <_>
          <internalNodes>
            0 -1 513 -4.0769957005977631e-02</internalNodes>
          <leafValues>
            -8.0619686841964722e-01 1.0613685101270676e-01</leafValues></_>
        <_>
          <internalNodes>
            0 -1 373 8.2762062083929777e-04</internalNodes>
          <leafValues>
            -1.3869313895702362e-01 6.2354809045791626e-01</leafValues></_>
        <_>
          <internalNodes>
            0 -1 196 -4.0041621774435043e-02</internalNodes>
          <leafValues>
            7.4206435680389404e-01 -1.0585693269968033e-01</leafValues></_>
        <_>
          <internalNodes>
            0 -1 334 -7.4082450009882450e-03</internalNodes>
          <leafValues>
            4.0226820111274719e-01 -1.8878953158855438e-01</leafValues></_>
        <_>
          <internalNodes>
            0 -1 237 6.0157492756843567e-02</internalNodes>
          <leafValues>
            -1.7494173347949982e-01 5.6139159202575684e-01</leafValues></_>
        <_>
          <internalNodes>
            0 -1 799 3.9188638329505920e-03</internalNodes>
          <leafValues>
            -1.8294282257556915e-01 4.4325017929077148e-01</leafValues></_>
        <_>
          <internalNodes>
            0 -1 733 -5.2754592616111040e-04</internalNodes>
          <leafValues>
            2.3130118846893311e-01 -3.4996855258941650e-01</leafValues></_>
        <_>
          <internalNodes>
            0 -1 442 -6.3082021661102772e-03</internalNodes>
          <leafValues>
            4.4597774744033813e-01 -1.8405221402645111e-01</leafValues></_>
        <_>
          <internalNodes>
            0 -1 212 -2.3496323265135288e-03</internalNodes>
          <leafValues>
            3.8454419374465942e-01 -1.9798910617828369e-01</leafValues></_>
        <_>
          <internalNodes>
            0 -1 834 -2.5666467845439911e-03</internalNodes>
          <leafValues>
            -1.1768292635679245e-01 5.7074636220932007e-01</leafValues></_>
        <_>
          <internalNodes>
            0 -1 507 6.9770333357155323e-04</internalNodes>
          <leafValues>
            -1.6882096230983734e-01 4.2178308963775635e-01</leafValues></_>
        <_>
          <internalNodes>
            0 -1 777 5.8403774164617062e-04</internalNodes>
          <leafValues>
            -1.9233500957489014e-01 3.7912523746490479e-01</leafValues></_>
        <_>
          <internalNodes>
            0 -1 625 6.5135406330227852e-03</internalNodes>
          <leafValues>
            -1.2211270630359650e-01 5.9691721200942993e-01</leafValues></_>
        <_>
          <internalNodes>
            0 -1 87 2.5434702634811401e-01</internalNodes>
          <leafValues>
            -1.2000220268964767e-01 5.5300921201705933e-01</leafValues></_>
        <_>
          <internalNodes>
            0 -1 567 -4.4310735538601875e-03</internalNodes>
          <leafValues>
            5.3973352909088135e-01 -1.4082105457782745e-01</leafValues></_>
        <_>
          <internalNodes>
            0 -1 866 1.8935800762847066e-03</internalNodes>
          <leafValues>
            -1.4399267733097076e-01 4.9726629257202148e-01</leafValues></_>
        <_>
          <internalNodes>
            0 -1 380 -1.0739792138338089e-02</internalNodes>
          <leafValues>
            7.4620163440704346e-01 -9.5153130590915680e-02</leafValues></_>
        <_>
          <internalNodes>
            0 -1 476 -1.7598960548639297e-02</internalNodes>
          <leafValues>
            -7.3035806417465210e-01 1.1506959050893784e-01</leafValues></_>
        <_>
          <internalNodes>
            0 -1 389 4.3401927687227726e-03</internalNodes>
          <leafValues>
            -1.2223609536886215e-01 7.0886087417602539e-01</leafValues></_>
        <_>
          <internalNodes>
            0 -1 310 -1.3765620067715645e-02</internalNodes>
          <leafValues>
            3.3217665553092957e-01 -2.1961024403572083e-01</leafValues></_>
        <_>
          <internalNodes>
            0 -1 839 -1.1566378176212311e-02</internalNodes>
          <leafValues>
            -8.0083394050598145e-01 9.1425873339176178e-02</leafValues></_>
        <_>
          <internalNodes>
            0 -1 283 -6.9930389523506165e-02</internalNodes>
          <leafValues>
            8.3333767950534821e-02 -7.8974515199661255e-01</leafValues></_>
        <_>
          <internalNodes>
            0 -1 663 1.4227265492081642e-03</internalNodes>
          <leafValues>
            -1.7904381453990936e-01 4.4139733910560608e-01</leafValues></_>
        <_>
          <internalNodes>
            0 -1 659 -4.9181487411260605e-03</internalNodes>
          <leafValues>
            5.5805808305740356e-01 -1.2116257101297379e-01</leafValues></_>
        <_>
          <internalNodes>
            0 -1 333 -3.9467206224799156e-03</internalNodes>
          <leafValues>
            -1.6981457173824310e-01 4.5585778355598450e-01</leafValues></_>
        <_>
          <internalNodes>
            0 -1 785 4.7855703160166740e-03</internalNodes>
          <leafValues>
            -1.6469877958297729e-01 4.5310908555984497e-01</leafValues></_>
        <_>
          <internalNodes>
            0 -1 195 -1.1625953018665314e-02</internalNodes>
          <leafValues>
            6.2991452217102051e-01 -1.0551352053880692e-01</leafValues></_>
        <_>
          <internalNodes>
            0 -1 92 1.7518430948257446e-02</internalNodes>
          <leafValues>
            1.2580771744251251e-01 -7.3232012987136841e-01</leafValues></_>
        <_>
          <internalNodes>
            0 -1 514 -2.8620015829801559e-02</internalNodes>
          <leafValues>
            -6.2957137823104858e-01 1.0484822839498520e-01</leafValues></_>
        <_>
          <internalNodes>
            0 -1 304 -1.7912981566041708e-03</internalNodes>
          <leafValues>
            7.9034513235092163e-01 -1.0832137614488602e-01</leafValues></_>
        <_>
          <internalNodes>
            0 -1 420 -5.2733466029167175e-02</internalNodes>
          <leafValues>
            5.8334070444107056e-01 -1.1245519667863846e-01</leafValues></_>
        <_>
          <internalNodes>
            0 -1 349 -1.4314099214971066e-02</internalNodes>
          <leafValues>
            3.0442178249359131e-01 -2.3198109865188599e-01</leafValues></_>
        <_>
          <internalNodes>
            0 -1 187 -2.0095086656510830e-03</internalNodes>
          <leafValues>
            2.7616763114929199e-01 -2.4845866858959198e-01</leafValues></_>
        <_>
          <internalNodes>
            0 -1 372 -9.1073219664394855e-04</internalNodes>
          <leafValues>
            4.7514730691909790e-01 -1.5587876737117767e-01</leafValues></_>
        <_>
          <internalNodes>
            0 -1 681 7.1106739342212677e-03</internalNodes>
          <leafValues>
            -1.1844456195831299e-01 5.7666563987731934e-01</leafValues></_>
        <_>
          <internalNodes>
            0 -1 1 -5.4200487211346626e-03</internalNodes>
          <leafValues>
            -1.1004968732595444e-01 6.2047594785690308e-01</leafValues></_>
        <_>
          <internalNodes>
            0 -1 684 -7.7261059777811170e-04</internalNodes>
          <leafValues>
            5.9282904863357544e-01 -1.1595011502504349e-01</leafValues></_>
        <_>
          <internalNodes>
            0 -1 45 -1.0243197903037071e-03</internalNodes>
          <leafValues>
            3.1194373965263367e-01 -2.0422755181789398e-01</leafValues></_>
        <_>
          <internalNodes>
            0 -1 410 -4.4528171420097351e-02</internalNodes>
          <leafValues>
            4.6322858333587646e-01 -1.5945293009281158e-01</leafValues></_></weakClassifiers></_>
    <!-- stage 2 -->
    <_>
      <maxWeakCount>79</maxWeakCount>
      <stageThreshold>-2.0673835277557373e-01</stageThreshold>
      <weakClassifiers>
        <_>
          <internalNodes>
            0 -1 217 1.6567513346672058e-01</internalNodes>
          <leafValues>
            -4.6901172399520874e-01 1.9607843458652496e-01</leafValues></_>
        <_>
          <internalNodes>
            0 -1 817 3.9152268320322037e-02</internalNodes>
          <leafValues>
            -1.5941360592842102e-01 5.7164984941482544e-01</leafValues></_>
        <_>
          <internalNodes>
            0 -1 694 -1.6817957162857056e-01</internalNodes>
          <leafValues>
            -1.4121848344802856e-01 4.2789509892463684e-01</leafValues></_>
        <_>
          <internalNodes>
            0 -1 452 3.1978204846382141e-02</internalNodes>
          <leafValues>
            -6.8418204784393311e-02 7.6850080490112305e-01</leafValues></_>
        <_>
          <internalNodes>
            0 -1 649 8.9577026665210724e-03</internalNodes>
          <leafValues>
            -1.2137608230113983e-01 4.0344351530075073e-01</leafValues></_>
        <_>
          <internalNodes>
            0 -1 600 1.0999809019267559e-02</internalNodes>
          <leafValues>
            -1.0680096596479416e-01 4.9172559380531311e-01</leafValues></_>
        <_>
          <internalNodes>
            0 -1 172 -1.0086278617382050e-01</internalNodes>
          <leafValues>
            4.1693979501724243e-01 -1.1724737286567688e-01</leafValues></_>
        <_>
          <internalNodes>
            0 -1 523 4.7501446679234505e-03</internalNodes>
          <leafValues>
            -1.0813646763563156e-01 5.2275043725967407e-01</leafValues></_>
        <_>
          <internalNodes>
            0 -1 693 -9.9014909937977791e-03</internalNodes>
          <leafValues>
            -7.2259503602981567e-01 7.9490162432193756e-02</leafValues></_>
        <_>
          <internalNodes>
            0 -1 636 5.5266004055738449e-03</internalNodes>
          <leafValues>
            -1.3158029317855835e-01 4.1344258189201355e-01</leafValues></_>
        <_>
          <internalNodes>
            0 -1 797 5.3547718562185764e-03</internalNodes>
          <leafValues>
            5.0978761166334152e-02 -9.2490416765213013e-01</leafValues></_>
        <_>
          <internalNodes>
            0 -1 774 -7.0651643909513950e-04</internalNodes>
          <leafValues>
            2.3731344938278198e-01 -2.1387307345867157e-01</leafValues></_>
        <_>
          <internalNodes>
            0 -1 554 1.0647675953805447e-03</internalNodes>
          <leafValues>
            -1.6830408573150635e-01 2.9416897892951965e-01</leafValues></_>
        <_>
          <internalNodes>
            0 -1 244 1.0959582775831223e-01</internalNodes>
          <leafValues>
            -1.1644343286752701e-01 3.8370954990386963e-01</leafValues></_>
        <_>
          <internalNodes>
            0 -1 498 -6.2661476433277130e-02</internalNodes>
          <leafValues>
            3.5852161049842834e-01 -1.7055961489677429e-01</leafValues></_>
        <_>
          <internalNodes>
            0 -1 81 -7.1492060087621212e-03</internalNodes>
          <leafValues>
            3.0434036254882813e-01 -1.6050460934638977e-01</leafValues></_>
        <_>
          <internalNodes>
            0 -1 603 -1.4695578720420599e-03</internalNodes>
          <leafValues>
            5.3694403171539307e-01 -8.5533596575260162e-02</leafValues></_>
        <_>
          <internalNodes>
            0 -1 825 4.6176966279745102e-03</internalNodes>
          <leafValues>
            -1.2507073581218719e-01 3.6527198553085327e-01</leafValues></_>
        <_>
          <internalNodes>
            0 -1 406 3.5978280007839203e-02</internalNodes>
          <leafValues>
            -1.4303405582904816e-01 3.5098397731781006e-01</leafValues></_>
        <_>
          <internalNodes>
            0 -1 41 2.2098653018474579e-02</internalNodes>
          <leafValues>
            -1.2079323083162308e-01 4.4662928581237793e-01</leafValues></_>
        <_>
          <internalNodes>
            0 -1 144 2.9004368931055069e-02</internalNodes>
          <leafValues>
            -8.2675419747829437e-02 5.7277840375900269e-01</leafValues></_>
        <_>
          <internalNodes>
            0 -1 727 2.6976116001605988e-02</internalNodes>
          <leafValues>
            -8.0908954143524170e-02 5.2220535278320313e-01</leafValues></_>
        <_>
          <internalNodes>
            0 -1 719 -3.6069400608539581e-02</internalNodes>
          <leafValues>
            4.2325738072395325e-01 -1.1683270335197449e-01</leafValues></_>
        <_>
          <internalNodes>
            0 -1 515 -1.8330437596887350e-03</internalNodes>
          <leafValues>
            4.1245195269584656e-01 -1.0658714920282364e-01</leafValues></_>
        <_>
          <internalNodes>
            0 -1 483 -2.4083189666271210e-02</internalNodes>
          <leafValues>
            -7.5370460748672485e-01 6.8653956055641174e-02</leafValues></_>
        <_>
          <internalNodes>
            0 -1 339 -1.3365852646529675e-02</internalNodes>
          <leafValues>
            -5.6262046098709106e-01 7.2324000298976898e-02</leafValues></_>
        <_>
          <internalNodes>
            0 -1 114 -5.4781190119683743e-03</internalNodes>
          <leafValues>
            3.6375048756599426e-01 -1.3884064555168152e-01</leafValues></_>
        <_>
          <internalNodes>
            0 -1 793 -9.3262903392314911e-03</internalNodes>
          <leafValues>
            -1.7677220702171326e-01 2.7481552958488464e-01</leafValues></_>
        <_>
          <internalNodes>
            0 -1 559 -4.9615025520324707e-02</internalNodes>
          <leafValues>
            -6.7857652902603149e-01 8.2846641540527344e-02</leafValues></_>
        <_>
          <internalNodes>
            0 -1 99 6.4989426173269749e-03</internalNodes>
          <leafValues>
            3.8054801523685455e-02 -8.6165577173233032e-01</leafValues></_>
        <_>
          <internalNodes>
            0 -1 517 -3.2443345990031958e-03</internalNodes>
          <leafValues>
            4.2485344409942627e-01 -1.3164009153842926e-01</leafValues></_>
        <_>
          <internalNodes>
            0 -1 290 -4.3567247688770294e-02</internalNodes>
          <leafValues>
            5.4136526584625244e-01 -7.9284138977527618e-02</leafValues></_>
        <_>
          <internalNodes>
            0 -1 82 -5.2553102374076843e-02</internalNodes>
          <leafValues>
            -8.3209711313247681e-01 6.2816143035888672e-02</leafValues></_>
        <_>
          <internalNodes>
            0 -1 875 -1.6262602061033249e-02</internalNodes>
          <leafValues>
            -6.4648288488388062e-01 5.2178353071212769e-02</leafValues></_>
        <_>
          <internalNodes>
            0 -1 572 2.2514625452458858e-03</internalNodes>
          <leafValues>
            -1.3867907226085663e-01 3.5733702778816223e-01</leafValues></_>
        <_>
          <internalNodes>
            0 -1 573 -4.8339573550038040e-04</internalNodes>
          <leafValues>
            2.9251408576965332e-01 -1.8215349316596985e-01</leafValues></_>
        <_>
          <internalNodes>
            0 -1 62 -7.8547388315200806e-02</internalNodes>
          <leafValues>
            4.2475721240043640e-01 -1.1313375085592270e-01</leafValues></_>
        <_>
          <internalNodes>
            0 -1 740 -1.0955764446407557e-03</internalNodes>
          <leafValues>
            3.3017161488533020e-01 -1.5875691175460815e-01</leafValues></_>
        <_>
          <internalNodes>
            0 -1 538 -1.6412623226642609e-02</internalNodes>
          <leafValues>
            5.9983605146408081e-01 -8.5377305746078491e-02</leafValues></_>
        <_>
          <internalNodes>
            0 -1 193 6.2432467937469482e-02</internalNodes>
          <leafValues>
            -6.6814847290515900e-02 6.3535833358764648e-01</leafValues></_>
        <_>
          <internalNodes>
            0 -1 379 5.8654551394283772e-03</internalNodes>
          <leafValues>
            -1.0441482812166214e-01 4.5315611362457275e-01</leafValues></_>
        <_>
          <internalNodes>
            0 -1 377 -2.1151098189875484e-04</internalNodes>
          <leafValues>
            -2.7060601115226746e-01 1.8890042603015900e-01</leafValues></_>
        <_>
          <internalNodes>
            0 -1 692 2.1178163588047028e-02</internalNodes>
          <leafValues>
            -7.6138235628604889e-02 7.2556436061859131e-01</leafValues></_>
        <_>
          <internalNodes>
            0 -1 672 -1.4567553065717220e-02</internalNodes>
          <leafValues>
            2.7709811925888062e-01 -2.0546498894691467e-01</leafValues></_>
        <_>
          <internalNodes>
            0 -1 384 -8.9263292029500008e-03</internalNodes>
          <leafValues>
            5.1252317428588867e-01 -8.6729124188423157e-02</leafValues></_>
        <_>
          <internalNodes>
            0 -1 287 -6.0436908155679703e-02</internalNodes>
          <leafValues>
            -2.6614463329315186e-01 1.8428683280944824e-01</leafValues></_>
        <_>
          <internalNodes>
            0 -1 7 -9.5395505428314209e-01</internalNodes>
          <leafValues>
            4.4549119472503662e-01 -1.2065239250659943e-01</leafValues></_>
        <_>
          <internalNodes>
            0 -1 231 -4.9239480867981911e-03</internalNodes>
          <leafValues>
            -5.3767532110214233e-01 9.2116348445415497e-02</leafValues></_>
        <_>
          <internalNodes>
            0 -1 869 -2.1864911541342735e-03</internalNodes>
          <leafValues>
            -1.0123930126428604e-01 4.9597641825675964e-01</leafValues></_>
        <_>
          <internalNodes>
            0 -1 626 -9.5659475773572922e-03</internalNodes>
          <leafValues>
            4.9767649173736572e-01 -9.2802748084068298e-02</leafValues></_>
        <_>
          <internalNodes>
            0 -1 451 2.2886678576469421e-02</internalNodes>
          <leafValues>
            -7.1340925991535187e-02 6.4007258415222168e-01</leafValues></_>
        <_>
          <internalNodes>
            0 -1 642 -7.3981797322630882e-04</internalNodes>
          <leafValues>
            3.0642735958099365e-01 -1.6647404432296753e-01</leafValues></_>
        <_>
          <internalNodes>
            0 -1 10 -6.4790233969688416e-02</internalNodes>
          <leafValues>
            2.7975535392761230e-01 -1.7755852639675140e-01</leafValues></_>
        <_>
          <internalNodes>
            0 -1 271 1.2917347252368927e-01</internalNodes>
          <leafValues>
            -1.5515308082103729e-01 3.3406049013137817e-01</leafValues></_>
        <_>
          <internalNodes>
            0 -1 845 1.0789182269945741e-03</internalNodes>
          <leafValues>
            -1.3419178128242493e-01 3.6869299411773682e-01</leafValues></_>
        <_>
          <internalNodes>
            0 -1 65 -9.2896625399589539e-02</internalNodes>
          <leafValues>
            4.2751362919807434e-01 -1.1598318815231323e-01</leafValues></_>
        <_>
          <internalNodes>
            0 -1 597 -4.9807382747530937e-03</internalNodes>
          <leafValues>
            4.1102460026741028e-01 -1.4022517204284668e-01</leafValues></_>
        <_>
          <internalNodes>
            0 -1 300 -9.1506280004978180e-03</internalNodes>
          <leafValues>
            7.0144867897033691e-01 -7.9537510871887207e-02</leafValues></_>
        <_>
          <internalNodes>
            0 -1 598 8.9127961546182632e-03</internalNodes>
          <leafValues>
            -1.2815991044044495e-01 4.4746679067611694e-01</leafValues></_>
        <_>
          <internalNodes>
            0 -1 57 -3.6503729643300176e-04</internalNodes>
          <leafValues>
            2.0941276848316193e-01 -2.3451209068298340e-01</leafValues></_>
        <_>
          <internalNodes>
            0 -1 415 -2.5658360682427883e-03</internalNodes>
          <leafValues>
            -6.4602017402648926e-01 7.1857810020446777e-02</leafValues></_>
        <_>
          <internalNodes>
            0 -1 615 -1.2106868671253324e-03</internalNodes>
          <leafValues>
            4.9709904193878174e-01 -1.0583300888538361e-01</leafValues></_>
        <_>
          <internalNodes>
            0 -1 609 -3.9109168574213982e-04</internalNodes>
          <leafValues>
            3.3574739098548889e-01 -1.4193689823150635e-01</leafValues></_>
        <_>
          <internalNodes>
            0 -1 864 -7.5752665288746357e-03</internalNodes>
          <leafValues>
            5.0210851430892944e-01 -9.2292897403240204e-02</leafValues></_>
        <_>
          <internalNodes>
            0 -1 20 5.6690936908125877e-03</internalNodes>
          <leafValues>
            -9.1188758611679077e-02 4.4731408357620239e-01</leafValues></_>
        <_>
          <internalNodes>
            0 -1 739 1.0620189132168889e-03</internalNodes>
          <leafValues>
            1.0453370213508606e-01 -4.7136926651000977e-01</leafValues></_>
        <_>
          <internalNodes>
            0 -1 807 -2.3612466175109148e-03</internalNodes>
          <leafValues>
            3.4041032195091248e-01 -1.3423804938793182e-01</leafValues></_>
        <_>
          <internalNodes>
            0 -1 448 -4.6601004898548126e-02</internalNodes>
          <leafValues>
            5.7112902402877808e-01 -7.6998725533485413e-02</leafValues></_>
        <_>
          <internalNodes>
            0 -1 586 -8.9517550077289343e-04</internalNodes>
          <leafValues>
            2.9634314775466919e-01 -1.7582388222217560e-01</leafValues></_>
        <_>
          <internalNodes>
            0 -1 443 -3.0749017000198364e-01</internalNodes>
          <leafValues>
            -4.8997634649276733e-01 1.0456798970699310e-01</leafValues></_>
        <_>
          <internalNodes>
            0 -1 874 -2.2060617804527283e-02</internalNodes>
          <leafValues>
            2.7844679355621338e-01 -1.8780897557735443e-01</leafValues></_>
        <_>
          <internalNodes>
            0 -1 660 -7.8512698411941528e-02</internalNodes>
          <leafValues>
            -7.5045205652713776e-02 6.7817068099975586e-01</leafValues></_>
        <_>
          <internalNodes>
            0 -1 851 -1.3074420858174562e-03</internalNodes>
          <leafValues>
            -8.9684647321701050e-01 5.9054724872112274e-02</leafValues></_>
        <_>
          <internalNodes>
            0 -1 742 6.8685604492202401e-04</internalNodes>
          <leafValues>
            -1.3185945153236389e-01 3.7101781368255615e-01</leafValues></_>
        <_>
          <internalNodes>
            0 -1 103 -7.5269132852554321e-02</internalNodes>
          <leafValues>
            -7.2566366195678711e-01 7.1709543466567993e-02</leafValues></_>
        <_>
          <internalNodes>
            0 -1 162 -7.0266872644424438e-03</internalNodes>
          <leafValues>
            2.4614095687866211e-01 -2.1110042929649353e-01</leafValues></_>
        <_>
          <internalNodes>
            0 -1 665 3.1928992830216885e-03</internalNodes>
          <leafValues>
            -1.0890935361385345e-01 4.5651960372924805e-01</leafValues></_>
        <_>
          <internalNodes>
            0 -1 307 -6.7067239433526993e-03</internalNodes>
          <leafValues>
            -7.8381133079528809e-01 6.6262304782867432e-02</leafValues></_>
        <_>
          <internalNodes>
            0 -1 274 -1.2908175587654114e-02</internalNodes>
          <leafValues>
            -7.9839724302291870e-01 3.7499368190765381e-02</leafValues></_></weakClassifiers></_>
    <!-- stage 3 -->
    <_>
      <maxWeakCount>86</maxWeakCount>
      <stageThreshold>-9.6673354506492615e-02</stageThreshold>
      <weakClassifiers>
        <_>
          <internalNodes>
            0 -1 301 1.0755521059036255e-01</internalNodes>
          <leafValues>
            -4.6078431606292725e-01 2.3188406229019165e-01</leafValues></_>
        <_>
          <internalNodes>
            0 -1 338 -2.8135016560554504e-02</internalNodes>
          <leafValues>
            3.4258913993835449e-01 -2.7336835861206055e-01</leafValues></_>
        <_>
          <internalNodes>
            0 -1 750 -1.5794936567544937e-02</internalNodes>
          <leafValues>
            9.7175292670726776e-02 -7.2661495208740234e-01</leafValues></_>
        <_>
          <internalNodes>
            0 -1 593 1.8065979704260826e-02</internalNodes>
          <leafValues>
            -5.6115571409463882e-02 7.9967981576919556e-01</leafValues></_>
        <_>
          <internalNodes>
            0 -1 595 -3.6479081027209759e-03</internalNodes>
          <leafValues>
            5.2183419466018677e-01 -1.1469142884016037e-01</leafValues></_>
        <_>
          <internalNodes>
            0 -1 760 -3.0460149049758911e-02</internalNodes>
          <leafValues>
            -5.2415412664413452e-01 1.0826187580823898e-01</leafValues></_>
        <_>
          <internalNodes>
            0 -1 496 2.0993307232856750e-02</internalNodes>
          <leafValues>
            -7.1837186813354492e-02 6.3453322649002075e-01</leafValues></_>
        <_>
          <internalNodes>
            0 -1 582 -3.2356912270188332e-03</internalNodes>
          <leafValues>
            3.6790940165519714e-01 -1.5988042950630188e-01</leafValues></_>
        <_>
          <internalNodes>
            0 -1 201 2.0186167210340500e-02</internalNodes>
          <leafValues>
            -1.5595823526382446e-01 3.0156409740447998e-01</leafValues></_>
        <_>
          <internalNodes>
            0 -1 631 -2.2101543843746185e-02</internalNodes>
          <leafValues>
            5.5125858634710312e-02 -7.9815810918807983e-01</leafValues></_>
        <_>
          <internalNodes>
            0 -1 518 -9.7227236256003380e-03</internalNodes>
          <leafValues>
            5.0854969024658203e-01 -1.0988361388444901e-01</leafValues></_>
        <_>
          <internalNodes>
            0 -1 95 -3.6881163716316223e-02</internalNodes>
          <leafValues>
            -1.0108065605163574e-01 5.5014449357986450e-01</leafValues></_>
        <_>
          <internalNodes>
            0 -1 152 -2.2598225623369217e-03</internalNodes>
          <leafValues>
            1.9550536572933197e-01 -2.5927647948265076e-01</leafValues></_>
        <_>
          <internalNodes>
            0 -1 108 8.9027851819992065e-02</internalNodes>
          <leafValues>
            8.0947473645210266e-02 -7.2671473026275635e-01</leafValues></_>
        <_>
          <internalNodes>
            0 -1 779 5.1285801455378532e-03</internalNodes>
          <leafValues>
            -1.5457406640052795e-01 3.5844969749450684e-01</leafValues></_>
        <_>
          <internalNodes>
            0 -1 480 -4.8229494132101536e-03</internalNodes>
          <leafValues>
            3.7150466442108154e-01 -1.2546755373477936e-01</leafValues></_>
        <_>
          <internalNodes>
            0 -1 465 4.9509624950587749e-03</internalNodes>
          <leafValues>
            -1.4149759709835052e-01 4.4469597935676575e-01</leafValues></_>
        <_>
          <internalNodes>
            0 -1 549 1.8379930406808853e-02</internalNodes>
          <leafValues>
            -5.8092709630727768e-02 8.0185282230377197e-01</leafValues></_>
        <_>
          <internalNodes>
            0 -1 365 1.4141716063022614e-02</internalNodes>
          <leafValues>
            -1.0597217828035355e-01 4.7922670841217041e-01</leafValues></_>
        <_>
          <internalNodes>
            0 -1 412 -1.2000140734016895e-02</internalNodes>
          <leafValues>
            5.2545970678329468e-01 -1.2911128997802734e-01</leafValues></_>
        <_>
          <internalNodes>
            0 -1 764 1.4530487358570099e-02</internalNodes>
          <leafValues>
            9.4355106353759766e-02 -5.9331929683685303e-01</leafValues></_>
        <_>
          <internalNodes>
            0 -1 849 9.0574249625205994e-03</internalNodes>
          <leafValues>
            -9.1860905289649963e-02 5.6483727693557739e-01</leafValues></_>
        <_>
          <internalNodes>
            0 -1 574 3.7892053369432688e-03</internalNodes>
          <leafValues>
            -1.0536111891269684e-01 3.8164830207824707e-01</leafValues></_>
        <_>
          <internalNodes>
            0 -1 670 -1.5670528635382652e-02</internalNodes>
          <leafValues>
            -4.1401597857475281e-01 1.2074963003396988e-01</leafValues></_>
        <_>
          <internalNodes>
            0 -1 511 -2.3627310991287231e-02</internalNodes>
          <leafValues>
            -8.2043552398681641e-01 5.3612627089023590e-02</leafValues></_>
        <_>
          <internalNodes>
            0 -1 376 3.1884845811873674e-03</internalNodes>
          <leafValues>
            -1.4190833270549774e-01 3.2952859997749329e-01</leafValues></_>
        <_>
          <internalNodes>
            0 -1 302 2.8586644679307938e-02</internalNodes>
          <leafValues>
            9.7972996532917023e-02 -6.2991148233413696e-01</leafValues></_>
        <_>
          <internalNodes>
            0 -1 267 -6.7708924412727356e-02</internalNodes>
          <leafValues>
            7.5555706024169922e-01 -7.9288639128208160e-02</leafValues></_>
        <_>
          <internalNodes>
            0 -1 749 -3.9006883744150400e-03</internalNodes>
          <leafValues>
            4.3218833208084106e-01 -9.7687244415283203e-02</leafValues></_>
        <_>
          <internalNodes>
            0 -1 362 -5.9217708185315132e-03</internalNodes>
          <leafValues>
            2.7931791543960571e-01 -1.4976797997951508e-01</leafValues></_>
        <_>
          <internalNodes>
            0 -1 246 -9.0031668543815613e-02</internalNodes>
          <leafValues>
            6.9064593315124512e-01 -6.6864579916000366e-02</leafValues></_>
        <_>
          <internalNodes>
            0 -1 385 -5.0537651404738426e-03</internalNodes>
          <leafValues>
            -8.9529412984848022e-01 6.5926194190979004e-02</leafValues></_>
        <_>
          <internalNodes>
            0 -1 610 2.5537505280226469e-03</internalNodes>
          <leafValues>
            -1.1943449825048447e-01 3.9945960044860840e-01</leafValues></_>
        <_>
          <internalNodes>
            0 -1 830 -4.4932411983609200e-03</internalNodes>
          <leafValues>
            4.2642828822135925e-01 -9.3734130263328552e-02</leafValues></_>
        <_>
          <internalNodes>
            0 -1 346 1.0647341609001160e-02</internalNodes>
          <leafValues>
            -2.1561211347579956e-01 2.2214531898498535e-01</leafValues></_>
        <_>
          <internalNodes>
            0 -1 154 -3.4190885722637177e-02</internalNodes>
          <leafValues>
            4.4506964087486267e-01 -1.2347890436649323e-01</leafValues></_>
        <_>
          <internalNodes>
            0 -1 114 8.1992149353027344e-03</internalNodes>
          <leafValues>
            -8.4389664232730865e-02 5.4068207740783691e-01</leafValues></_>
        <_>
          <internalNodes>
            0 -1 3 -2.3466658312827349e-03</internalNodes>
          <leafValues>
            -3.0120369791984558e-01 1.7787244915962219e-01</leafValues></_>
        <_>
          <internalNodes>
            0 -1 401 2.8002184629440308e-01</internalNodes>
          <leafValues>
            -8.5214979946613312e-02 5.7058614492416382e-01</leafValues></_>
        <_>
          <internalNodes>
            0 -1 688 -1.8351981998421252e-04</internalNodes>
          <leafValues>
            2.1599358320236206e-01 -2.8027927875518799e-01</leafValues></_>
        <_>
          <internalNodes>
            0 -1 707 -8.6894119158387184e-04</internalNodes>
          <leafValues>
            2.8784862160682678e-01 -2.1381175518035889e-01</leafValues></_>
        <_>
          <internalNodes>
            0 -1 413 -3.9315903559327126e-03</internalNodes>
          <leafValues>
            3.8076150417327881e-01 -1.0227384418249130e-01</leafValues></_>
        <_>
          <internalNodes>
            0 -1 445 4.3656811118125916e-02</internalNodes>
          <leafValues>
            -7.3788471519947052e-02 5.2851825952529907e-01</leafValues></_>
        <_>
          <internalNodes>
            0 -1 408 5.9206248261034489e-04</internalNodes>
          <leafValues>
            9.5974624156951904e-02 -4.7012963891029358e-01</leafValues></_>
        <_>
          <internalNodes>
            0 -1 447 -6.3551887869834900e-03</internalNodes>
          <leafValues>
            4.9070706963539124e-01 -9.3078583478927612e-02</leafValues></_>
        <_>
          <internalNodes>
            0 -1 840 -3.7382133305072784e-02</internalNodes>
          <leafValues>
            2.9742047190666199e-01 -1.5122570097446442e-01</leafValues></_>
        <_>
          <internalNodes>
            0 -1 174 -5.2409696578979492e-01</internalNodes>
          <leafValues>
            -3.9199930429458618e-01 1.2438076734542847e-01</leafValues></_>
        <_>
          <internalNodes>
            0 -1 738 2.5715981610119343e-03</internalNodes>
          <leafValues>
            -1.6625711321830750e-01 2.5653046369552612e-01</leafValues></_>
        <_>
          <internalNodes>
            0 -1 832 4.8570698709227145e-05</internalNodes>
          <leafValues>
            2.3041442036628723e-01 -2.0217250287532806e-01</leafValues></_>
        <_>
          <internalNodes>
            0 -1 836 2.9807238024659455e-04</internalNodes>
          <leafValues>
            1.1554920673370361e-01 -4.1475108265876770e-01</leafValues></_>
        <_>
          <internalNodes>
            0 -1 543 -2.0185280591249466e-03</internalNodes>
          <leafValues>
            -8.6081463098526001e-01 4.5328516513109207e-02</leafValues></_>
        <_>
          <internalNodes>
            0 -1 458 -1.3802608475089073e-02</internalNodes>
          <leafValues>
            3.7614773958921432e-02 -7.8717768192291260e-01</leafValues></_>
        <_>
          <internalNodes>
            0 -1 155 -2.8908667154610157e-03</internalNodes>
          <leafValues>
            4.1423320770263672e-01 -1.0937130451202393e-01</leafValues></_>
        <_>
          <internalNodes>
            0 -1 166 -1.4219793956726789e-03</internalNodes>
          <leafValues>
            3.6623641848564148e-01 -1.3414649665355682e-01</leafValues></_>
        <_>
          <internalNodes>
            0 -1 2 -1.9979065284132957e-02</internalNodes>
          <leafValues>
            -8.1234291195869446e-02 5.7334619760513306e-01</leafValues></_>
        <_>
          <internalNodes>
            0 -1 824 1.0730728507041931e-02</internalNodes>
          <leafValues>
            -9.2355370521545410e-02 5.1117449998855591e-01</leafValues></_>
        <_>
          <internalNodes>
            0 -1 235 -2.6590868830680847e-02</internalNodes>
          <leafValues>
            7.2494670748710632e-02 -6.8664228916168213e-01</leafValues></_>
        <_>
          <internalNodes>
            0 -1 411 -3.6438547074794769e-02</internalNodes>
          <leafValues>
            7.6206642389297485e-01 -7.5793616473674774e-02</leafValues></_>
        <_>
          <internalNodes>
            0 -1 403 5.4892129264771938e-03</internalNodes>
          <leafValues>
            -1.6529804468154907e-01 2.7401229739189148e-01</leafValues></_>
        <_>
          <internalNodes>
            0 -1 674 -9.0048471465706825e-03</internalNodes>
          <leafValues>
            -3.9633178710937500e-01 1.2963791191577911e-01</leafValues></_>
        <_>
          <internalNodes>
            0 -1 558 2.7631325647234917e-02</internalNodes>
          <leafValues>
            4.4966138899326324e-02 -8.8154941797256470e-01</leafValues></_>
        <_>
          <internalNodes>
            0 -1 332 5.8218088001012802e-02</internalNodes>
          <leafValues>
            -8.6796045303344727e-02 5.4352462291717529e-01</leafValues></_>
        <_>
          <internalNodes>
            0 -1 72 7.2941081598401070e-03</internalNodes>
          <leafValues>
            8.7530396878719330e-02 -5.1222854852676392e-01</leafValues></_>
        <_>
          <internalNodes>
            0 -1 488 5.2400231361389160e-02</internalNodes>
          <leafValues>
            7.9733878374099731e-02 -5.1967304944992065e-01</leafValues></_>
        <_>
          <internalNodes>
            0 -1 30 -9.5282041002064943e-04</internalNodes>
          <leafValues>
            -3.4963378310203552e-01 1.2509956955909729e-01</leafValues></_>
        <_>
          <internalNodes>
            0 -1 815 -1.3028709217905998e-02</internalNodes>
          <leafValues>
            7.5928086042404175e-01 -6.3948072493076324e-02</leafValues></_>
        <_>
          <internalNodes>
            0 -1 641 3.4578487975522876e-04</internalNodes>
          <leafValues>
            -1.2255036085844040e-01 3.3964505791664124e-01</leafValues></_>
        <_>
          <internalNodes>
            0 -1 756 -1.9610852003097534e-02</internalNodes>
          <leafValues>
            5.4097157716751099e-01 -7.7052667737007141e-02</leafValues></_>
        <_>
          <internalNodes>
            0 -1 818 1.4561929274350405e-03</internalNodes>
          <leafValues>
            1.0742048919200897e-01 -4.2438802123069763e-01</leafValues></_>
        <_>
          <internalNodes>
            0 -1 805 7.6123429462313652e-03</internalNodes>
          <leafValues>
            -1.2827503681182861e-01 4.1365316510200500e-01</leafValues></_>
        <_>
          <internalNodes>
            0 -1 689 1.5052046626806259e-02</internalNodes>
          <leafValues>
            -7.3270961642265320e-02 5.3516370058059692e-01</leafValues></_>
        <_>
          <internalNodes>
            0 -1 701 -1.9502473296597600e-03</internalNodes>
          <leafValues>
            2.9294559359550476e-01 -1.3970749080181122e-01</leafValues></_>
        <_>
          <internalNodes>
            0 -1 329 -7.4365947511978447e-05</internalNodes>
          <leafValues>
            2.1946395933628082e-01 -2.0900294184684753e-01</leafValues></_>
        <_>
          <internalNodes>
            0 -1 206 -5.9239286929368973e-03</internalNodes>
          <leafValues>
            -5.5239528417587280e-02 7.5728464126586914e-01</leafValues></_>
        <_>
          <internalNodes>
            0 -1 655 4.6916059218347073e-03</internalNodes>
          <leafValues>
            -9.2805385589599609e-02 4.2080521583557129e-01</leafValues></_>
        <_>
          <internalNodes>
            0 -1 159 4.0041059255599976e-03</internalNodes>
          <leafValues>
            -1.6177709400653839e-01 3.0521669983863831e-01</leafValues></_>
        <_>
          <internalNodes>
            0 -1 320 -2.6244700420647860e-03</internalNodes>
          <leafValues>
            2.1514944732189178e-01 -1.9214393198490143e-01</leafValues></_>
        <_>
          <internalNodes>
            0 -1 754 -4.0609698742628098e-02</internalNodes>
          <leafValues>
            -6.3076996803283691e-01 7.2352133691310883e-02</leafValues></_>
        <_>
          <internalNodes>
            0 -1 215 -1.7673138529062271e-02</internalNodes>
          <leafValues>
            2.7398633956909180e-01 -1.5501943230628967e-01</leafValues></_>
        <_>
          <internalNodes>
            0 -1 399 -2.7130790054798126e-02</internalNodes>
          <leafValues>
            4.2141252756118774e-01 -1.2548974156379700e-01</leafValues></_>
        <_>
          <internalNodes>
            0 -1 747 3.4560491330921650e-03</internalNodes>
          <leafValues>
            -1.4578609168529510e-01 3.0386957526206970e-01</leafValues></_>
        <_>
          <internalNodes>
            0 -1 459 -2.3120038677006960e-03</internalNodes>
          <leafValues>
            2.5982740521430969e-01 -1.7961607873439789e-01</leafValues></_>
        <_>
          <internalNodes>
            0 -1 375 1.1121041607111692e-03</internalNodes>
          <leafValues>
            -8.8732339441776276e-02 4.9973675608634949e-01</leafValues></_>
        <_>
          <internalNodes>
            0 -1 171 -1.4040949754416943e-03</internalNodes>
          <leafValues>
            3.6353620886802673e-01 -1.0992638766765594e-01</leafValues></_>
        <_>
          <internalNodes>
            0 -1 658 -2.6540879160165787e-02</internalNodes>
          <leafValues>
            5.2558731287717819e-02 -8.1267154216766357e-01</leafValues></_>
        <_>
          <internalNodes>
            0 -1 835 -5.3512337617576122e-03</internalNodes>
          <leafValues>
            -8.5774190723896027e-02 6.1025851964950562e-01</leafValues></_></weakClassifiers></_>
    <!-- stage 4 -->
    <_>
      <maxWeakCount>58</maxWeakCount>
      <stageThreshold>6.6859568469226360e-03</stageThreshold>
      <weakClassifiers>
        <_>
          <internalNodes>
            0 -1 156 -4.5686841011047363e-01</internalNodes>
          <leafValues>
            4.7483587265014648e-01 -6.8744009733200073e-01</leafValues></_>
        <_>
          <internalNodes>
            0 -1 222 -1.6639067232608795e-01</internalNodes>
          <leafValues>
            7.3816215991973877e-01 -2.9538637399673462e-01</leafValues></_>
        <_>
          <internalNodes>
            0 -1 61 1.2583063542842865e-01</internalNodes>
          <leafValues>
            -4.4665977358818054e-01 6.8696868419647217e-01</leafValues></_>
        <_>
          <internalNodes>
            0 -1 220 -1.7666444182395935e-01</internalNodes>
          <leafValues>
            3.1414073705673218e-01 -4.6968597173690796e-01</leafValues></_>
        <_>
          <internalNodes>
            0 -1 228 -5.7058878242969513e-02</internalNodes>
          <leafValues>
            4.9127626419067383e-01 -1.9230459630489349e-01</leafValues></_>
        <_>
          <internalNodes>
            0 -1 132 2.8478294610977173e-01</internalNodes>
          <leafValues>
            -1.2262290716171265e-01 6.7363202571868896e-01</leafValues></_>
        <_>
          <internalNodes>
            0 -1 6 -3.4334484487771988e-02</internalNodes>
          <leafValues>
            -7.4132464826107025e-02 8.6343079805374146e-01</leafValues></_>
        <_>
          <internalNodes>
            0 -1 67 -4.2128868401050568e-02</internalNodes>
          <leafValues>
            7.2329759597778320e-01 -1.0677566379308701e-01</leafValues></_>
        <_>
          <internalNodes>
            0 -1 450 -6.9209903478622437e-02</internalNodes>
          <leafValues>
            1.2056579440832138e-01 -7.6971322298049927e-01</leafValues></_>
        <_>
          <internalNodes>
            0 -1 621 4.0566744282841682e-03</internalNodes>
          <leafValues>
            1.8121366202831268e-01 -4.1595461964607239e-01</leafValues></_>
        <_>
          <internalNodes>
            0 -1 218 1.3821043074131012e-01</internalNodes>
          <leafValues>
            -1.3303327560424805e-01 5.9428304433822632e-01</leafValues></_>
        <_>
          <internalNodes>
            0 -1 654 -2.3265689611434937e-02</internalNodes>
          <leafValues>
            3.6267375946044922e-01 -1.7416675388813019e-01</leafValues></_>
        <_>
          <internalNodes>
            0 -1 462 -4.1917622089385986e-02</internalNodes>
          <leafValues>
            2.7870959043502808e-01 -2.1816048026084900e-01</leafValues></_>
        <_>
          <internalNodes>
            0 -1 877 -1.0356774553656578e-02</internalNodes>
          <leafValues>
            -7.4112838506698608e-01 1.0023927688598633e-01</leafValues></_>
        <_>
          <internalNodes>
            0 -1 131 -1.6462120413780212e-01</internalNodes>
          <leafValues>
            5.6085616350173950e-01 -1.3251414895057678e-01</leafValues></_>
        <_>
          <internalNodes>
            0 -1 324 1.1342544853687286e-01</internalNodes>
          <leafValues>
            -1.6494898498058319e-01 4.1379025578498840e-01</leafValues></_>
        <_>
          <internalNodes>
            0 -1 691 7.1881609037518501e-03</internalNodes>
          <leafValues>
            2.5254368782043457e-01 -2.9096251726150513e-01</leafValues></_>
        <_>
          <internalNodes>
            0 -1 454 -3.9377145469188690e-02</internalNodes>
          <leafValues>
            8.5660129785537720e-01 -9.4427734613418579e-02</leafValues></_>
        <_>
          <internalNodes>
            0 -1 370 -1.8827419728040695e-02</internalNodes>
          <leafValues>
            9.9444933235645294e-02 -9.2851036787033081e-01</leafValues></_>
        <_>
          <internalNodes>
            0 -1 500 -9.9505037069320679e-03</internalNodes>
          <leafValues>
            9.6179112792015076e-02 -5.2555632591247559e-01</leafValues></_>
        <_>
          <internalNodes>
            0 -1 35 -3.7600085488520563e-04</internalNodes>
          <leafValues>
            -5.4581993818283081e-01 1.1888353526592255e-01</leafValues></_>
        <_>
          <internalNodes>
            0 -1 209 8.6232125759124756e-03</internalNodes>
          <leafValues>
            -2.1534706652164459e-01 3.0161827802658081e-01</leafValues></_>
        <_>
          <internalNodes>
            0 -1 847 -1.5389724285341799e-04</internalNodes>
          <leafValues>
            -3.7807807326316833e-01 1.9146120548248291e-01</leafValues></_>
        <_>
          <internalNodes>
            0 -1 438 -3.9117358624935150e-02</internalNodes>
          <leafValues>
            5.3874802589416504e-01 -1.2332769483327866e-01</leafValues></_>
        <_>
          <internalNodes>
            0 -1 269 7.8163053840398788e-03</internalNodes>
          <leafValues>
            -1.5902280807495117e-01 3.8271290063858032e-01</leafValues></_>
        <_>
          <internalNodes>
            0 -1 182 -1.9182997941970825e-01</internalNodes>
          <leafValues>
            6.1514091491699219e-01 -1.0380381345748901e-01</leafValues></_>
        <_>
          <internalNodes>
            0 -1 563 3.4468696685507894e-04</internalNodes>
          <leafValues>
            -2.2722245752811432e-01 2.5726467370986938e-01</leafValues></_>
        <_>
          <internalNodes>
            0 -1 347 2.2384600015357137e-04</internalNodes>
          <leafValues>
            -2.3649603128433228e-01 2.7632677555084229e-01</leafValues></_>
        <_>
          <internalNodes>
            0 -1 343 3.8681267760694027e-03</internalNodes>
          <leafValues>
            -2.2948770225048065e-01 3.2248404622077942e-01</leafValues></_>
        <_>
          <internalNodes>
            0 -1 198 -1.4145109057426453e-01</internalNodes>
          <leafValues>
            4.3884128332138062e-01 -1.5515522658824921e-01</leafValues></_>
        <_>
          <internalNodes>
            0 -1 136 1.6047345101833344e-01</internalNodes>
          <leafValues>
            -1.6513280570507050e-01 3.9741250872612000e-01</leafValues></_>
        <_>
          <internalNodes>
            0 -1 52 -1.9415488839149475e-01</internalNodes>
          <leafValues>
            7.7862870693206787e-01 -6.8535715341567993e-02</leafValues></_>
        <_>
          <internalNodes>
            0 -1 18 3.0992422252893448e-02</internalNodes>
          <leafValues>
            -1.3710696995258331e-01 4.4353348016738892e-01</leafValues></_>
        <_>
          <internalNodes>
            0 -1 298 -4.1440762579441071e-03</internalNodes>
          <leafValues>
            4.7284936904907227e-01 -1.5761449933052063e-01</leafValues></_>
        <_>
          <internalNodes>
            0 -1 9 1.6311168670654297e-01</internalNodes>
          <leafValues>
            -7.6639205217361450e-02 8.2099533081054688e-01</leafValues></_>
        <_>
          <internalNodes>
            0 -1 241 3.7562638521194458e-02</internalNodes>
          <leafValues>
            -1.0310021787881851e-01 5.4735398292541504e-01</leafValues></_>
        <_>
          <internalNodes>
            0 -1 275 -1.2454463541507721e-01</internalNodes>
          <leafValues>
            5.0836175680160522e-01 -1.6680274903774261e-01</leafValues></_>
        <_>
          <internalNodes>
            0 -1 214 -6.6496534273028374e-03</internalNodes>
          <leafValues>
            1.3091517984867096e-01 -5.0400269031524658e-01</leafValues></_>
        <_>
          <internalNodes>
            0 -1 503 1.2251174775883555e-03</internalNodes>
          <leafValues>
            1.8030841648578644e-01 -3.6276277899742126e-01</leafValues></_>
        <_>
          <internalNodes>
            0 -1 367 -5.0678174942731857e-02</internalNodes>
          <leafValues>
            6.9876217842102051e-01 -1.1211472004652023e-01</leafValues></_>
        <_>
          <internalNodes>
            0 -1 643 -1.8277576193213463e-02</internalNodes>
          <leafValues>
            8.1209518015384674e-02 -9.4815748929977417e-01</leafValues></_>
        <_>
          <internalNodes>
            0 -1 115 -5.9332195669412613e-03</internalNodes>
          <leafValues>
            -4.4499152898788452e-01 1.3416451215744019e-01</leafValues></_>
        <_>
          <internalNodes>
            0 -1 872 -1.6734806122258306e-03</internalNodes>
          <leafValues>
            -1.1578200757503510e-01 5.5809402465820313e-01</leafValues></_>
        <_>
          <internalNodes>
            0 -1 823 1.3547487556934357e-02</internalNodes>
          <leafValues>
            8.6665548384189606e-02 -7.8083521127700806e-01</leafValues></_>
        <_>
          <internalNodes>
            0 -1 352 -4.8343166708946228e-02</internalNodes>
          <leafValues>
            1.1581277847290039e-01 -4.9370893836021423e-01</leafValues></_>
        <_>
          <internalNodes>
            0 -1 863 -6.3249142840504646e-04</internalNodes>
          <leafValues>
            2.9771062731742859e-01 -2.1562837064266205e-01</leafValues></_>
        <_>
          <internalNodes>
            0 -1 444 -1.1948154866695404e-01</internalNodes>
          <leafValues>
            -5.5501824617385864e-01 1.1766318231821060e-01</leafValues></_>
        <_>
          <internalNodes>
            0 -1 170 -3.1761616468429565e-01</internalNodes>
          <leafValues>
            3.5193121433258057e-01 -2.1029917895793915e-01</leafValues></_>
        <_>
          <internalNodes>
            0 -1 203 -8.0970872659236193e-05</internalNodes>
          <leafValues>
            -3.0881282687187195e-01 2.0559829473495483e-01</leafValues></_>
        <_>
          <internalNodes>
            0 -1 38 9.0079799294471741e-02</internalNodes>
          <leafValues>
            -1.7854872345924377e-01 3.6820566654205322e-01</leafValues></_>
        <_>
          <internalNodes>
            0 -1 76 -3.0945047736167908e-02</internalNodes>
          <leafValues>
            6.2426811456680298e-01 -1.0683855414390564e-01</leafValues></_>
        <_>
          <internalNodes>
            0 -1 84 -4.3466762872412801e-04</internalNodes>
          <leafValues>
            -4.9471089243888855e-01 1.2677919864654541e-01</leafValues></_>
        <_>
          <internalNodes>
            0 -1 456 -2.9540717601776123e-02</internalNodes>
          <leafValues>
            4.6174225211143494e-01 -1.2883196771144867e-01</leafValues></_>
        <_>
          <internalNodes>
            0 -1 405 1.2843647599220276e-01</internalNodes>
          <leafValues>
            -1.6677492856979370e-01 4.1199222207069397e-01</leafValues></_>
        <_>
          <internalNodes>
            0 -1 717 9.5267751021310687e-04</internalNodes>
          <leafValues>
            1.1817849427461624e-01 -5.6496524810791016e-01</leafValues></_>
        <_>
          <internalNodes>
            0 -1 51 -8.9950086548924446e-03</internalNodes>
          <leafValues>
            3.9898550510406494e-01 -1.5088801085948944e-01</leafValues></_>
        <_>
          <internalNodes>
            0 -1 580 7.0425937883555889e-04</internalNodes>
          <leafValues>
            -1.4180740714073181e-01 4.1945090889930725e-01</leafValues></_>
        <_>
          <internalNodes>
            0 -1 229 2.0079530077055097e-04</internalNodes>
          <leafValues>
            -2.1834063529968262e-01 2.7118608355522156e-01</leafValues></_></weakClassifiers></_>
    <!-- stage 5 -->
    <_>
      <maxWeakCount>100</maxWeakCount>
      <stageThreshold>-5.7603609561920166e-01</stageThreshold>
      <weakClassifiers>
        <_>
          <internalNodes>
            0 -1 502 1.4483693987131119e-02</internalNodes>
          <leafValues>
            -4.2647057771682739e-01 7.9710148274898529e-02</leafValues></_>
        <_>
          <internalNodes>
            0 -1 248 -4.3886549770832062e-02</internalNodes>
          <leafValues>
            2.1151170134544373e-02 -8.4445446729660034e-01</leafValues></_>
        <_>
          <internalNodes>
            0 -1 194 -1.2259965762495995e-02</internalNodes>
          <leafValues>
            -6.1299573630094528e-02 6.5472030639648438e-01</leafValues></_>
        <_>
          <internalNodes>
            0 -1 128 -5.6999865919351578e-03</internalNodes>
          <leafValues>
            -2.1895737946033478e-01 1.5895289182662964e-01</leafValues></_>
        <_>
          <internalNodes>
            0 -1 356 -1.0283226147294044e-02</internalNodes>
          <leafValues>
            3.7007123231887817e-01 -9.1376014053821564e-02</leafValues></_>
        <_>
          <internalNodes>
            0 -1 590 2.3168932646512985e-02</internalNodes>
          <leafValues>
            -4.2400110512971878e-02 7.5258225202560425e-01</leafValues></_>
        <_>
          <internalNodes>
            0 -1 796 2.5430170819163322e-02</internalNodes>
          <leafValues>
            -9.5589220523834229e-02 3.3734413981437683e-01</leafValues></_>
        <_>
          <internalNodes>
            0 -1 477 3.7009723018854856e-03</internalNodes>
          <leafValues>
            -7.1614503860473633e-02 3.9699363708496094e-01</leafValues></_>
        <_>
          <internalNodes>
            0 -1 557 7.2769201360642910e-03</internalNodes>
          <leafValues>
            -1.2234096229076385e-01 2.7369645237922668e-01</leafValues></_>
        <_>
          <internalNodes>
            0 -1 576 1.0729234199970961e-03</internalNodes>
          <leafValues>
            -1.1751506477594376e-01 3.1375136971473694e-01</leafValues></_>
        <_>
          <internalNodes>
            0 -1 66 -2.8786163777112961e-02</internalNodes>
          <leafValues>
            4.2684760689735413e-01 -5.4103970527648926e-02</leafValues></_>
        <_>
          <internalNodes>
            0 -1 786 -7.5863585807383060e-03</internalNodes>
          <leafValues>
            3.0008089542388916e-01 -1.1674311012029648e-01</leafValues></_>
        <_>
          <internalNodes>
            0 -1 256 1.3878992199897766e-01</internalNodes>
          <leafValues>
            -5.6948188692331314e-02 6.5848582983016968e-01</leafValues></_>
        <_>
          <internalNodes>
            0 -1 161 -1.9947341643273830e-03</internalNodes>
          <leafValues>
            2.9428476095199585e-01 -1.0677859187126160e-01</leafValues></_>
        <_>
          <internalNodes>
            0 -1 50 -7.4142003431916237e-03</internalNodes>
          <leafValues>
            -8.9784336090087891e-01 6.3859641551971436e-02</leafValues></_>
        <_>
          <internalNodes>
            0 -1 617 -2.1634709089994431e-02</internalNodes>
          <leafValues>
            -5.5891519784927368e-01 3.2087069004774094e-02</leafValues></_>
        <_>
          <internalNodes>
            0 -1 581 -9.9401106126606464e-04</internalNodes>
          <leafValues>
            2.8682625293731689e-01 -1.2464633584022522e-01</leafValues></_>
        <_>
          <internalNodes>
            0 -1 578 -1.5341507270932198e-02</internalNodes>
          <leafValues>
            5.8329445123672485e-01 -6.0928683727979660e-02</leafValues></_>
        <_>
          <internalNodes>
            0 -1 390 1.7354032024741173e-02</internalNodes>
          <leafValues>
            9.8808519542217255e-02 -4.4040852785110474e-01</leafValues></_>
        <_>
          <internalNodes>
            0 -1 668 -1.6102835536003113e-01</internalNodes>
          <leafValues>
            -6.5616786479949951e-01 4.0712825953960419e-02</leafValues></_>
        <_>
          <internalNodes>
            0 -1 868 -2.1683499217033386e-03</internalNodes>
          <leafValues>
            -6.3615137338638306e-01 4.0358938276767731e-02</leafValues></_>
        <_>
          <internalNodes>
            0 -1 771 3.9466063026338816e-04</internalNodes>
          <leafValues>
            1.4542640745639801e-01 -2.5907197594642639e-01</leafValues></_>
        <_>
          <internalNodes>
            0 -1 252 -4.2681698687374592e-03</internalNodes>
          <leafValues>
            3.4545177221298218e-01 -1.0057400166988373e-01</leafValues></_>
        <_>
          <internalNodes>
            0 -1 204 -2.1322263404726982e-02</internalNodes>
          <leafValues>
            4.9249109625816345e-01 -6.5355800092220306e-02</leafValues></_>
        <_>
          <internalNodes>
            0 -1 715 1.3053003931418061e-03</internalNodes>
          <leafValues>
            9.9976137280464172e-02 -3.3822894096374512e-01</leafValues></_>
        <_>
          <internalNodes>
            0 -1 427 -5.6641004979610443e-02</internalNodes>
          <leafValues>
            -4.3755200505256653e-01 7.3117129504680634e-02</leafValues></_>
        <_>
          <internalNodes>
            0 -1 175 -3.4079208970069885e-02</internalNodes>
          <leafValues>
            4.5142376422882080e-01 -9.7320869565010071e-02</leafValues></_>
        <_>
          <internalNodes>
            0 -1 286 -1.2381844222545624e-02</internalNodes>
          <leafValues>
            -1.3296279311180115e-01 2.7887958288192749e-01</leafValues></_>
        <_>
          <internalNodes>
            0 -1 192 -2.8127543628215790e-02</internalNodes>
          <leafValues>
            1.2686546146869659e-01 -3.0154091119766235e-01</leafValues></_>
        <_>
          <internalNodes>
            0 -1 279 4.7705927863717079e-03</internalNodes>
          <leafValues>
            -1.0606548190116882e-01 3.3483070135116577e-01</leafValues></_>
        <_>
          <internalNodes>
            0 -1 366 5.4273698478937149e-03</internalNodes>
          <leafValues>
            6.0749597847461700e-02 -6.2635594606399536e-01</leafValues></_>
        <_>
          <internalNodes>
            0 -1 388 -7.6447316678240895e-04</internalNodes>
          <leafValues>
            3.1618291139602661e-01 -1.2148718535900116e-01</leafValues></_>
        <_>
          <internalNodes>
            0 -1 729 3.7254046648740768e-02</internalNodes>
          <leafValues>
            -5.8313582092523575e-02 5.2988296747207642e-01</leafValues></_>
        <_>
          <internalNodes>
            0 -1 311 -9.3739237636327744e-03</internalNodes>
          <leafValues>
            3.1894090771675110e-01 -8.9045882225036621e-02</leafValues></_>
        <_>
          <internalNodes>
            0 -1 157 -2.0849591121077538e-02</internalNodes>
          <leafValues>
            -5.6824147701263428e-01 5.5068898946046829e-02</leafValues></_>
        <_>
          <internalNodes>
            0 -1 24 -1.5247477591037750e-01</internalNodes>
          <leafValues>
            3.1321394443511963e-01 -1.1454406380653381e-01</leafValues></_>
        <_>
          <internalNodes>
            0 -1 850 -2.0068362355232239e-03</internalNodes>
          <leafValues>
            -7.3674097657203674e-02 4.5540136098861694e-01</leafValues></_>
        <_>
          <internalNodes>
            0 -1 425 -2.9697496443986893e-02</internalNodes>
          <leafValues>
            3.5994801670312881e-02 -8.7935185432434082e-01</leafValues></_>
        <_>
          <internalNodes>
            0 -1 27 -2.4775583297014236e-03</internalNodes>
          <leafValues>
            -4.0257140994071960e-01 7.3426589369773865e-02</leafValues></_>
        <_>
          <internalNodes>
            0 -1 553 4.8556983470916748e-02</internalNodes>
          <leafValues>
            3.2917845994234085e-02 -8.2915896177291870e-01</leafValues></_>
        <_>
          <internalNodes>
            0 -1 547 7.8199272975325584e-03</internalNodes>
          <leafValues>
            -8.0188930034637451e-02 4.7073805332183838e-01</leafValues></_>
        <_>
          <internalNodes>
            0 -1 646 -1.5372304478660226e-03</internalNodes>
          <leafValues>
            3.0622297525405884e-01 -1.0016012191772461e-01</leafValues></_>
        <_>
          <internalNodes>
            0 -1 680 1.0680520534515381e-01</internalNodes>
          <leafValues>
            -3.8760323077440262e-02 8.8080340623855591e-01</leafValues></_>
        <_>
          <internalNodes>
            0 -1 611 -4.5272461138665676e-03</internalNodes>
          <leafValues>
            4.9517509341239929e-01 -5.4496865719556808e-02</leafValues></_>
        <_>
          <internalNodes>
            0 -1 205 -1.4695281162858009e-02</internalNodes>
          <leafValues>
            7.9968166351318359e-01 -4.0023013949394226e-02</leafValues></_>
        <_>
          <internalNodes>
            0 -1 702 -3.0328452587127686e-02</internalNodes>
          <leafValues>
            3.3465623855590820e-01 -9.4523452222347260e-02</leafValues></_>
        <_>
          <internalNodes>
            0 -1 69 1.5461543574929237e-02</internalNodes>
          <leafValues>
            -5.3038779646158218e-02 5.5638337135314941e-01</leafValues></_>
        <_>
          <internalNodes>
            0 -1 778 -1.6583106116740964e-05</internalNodes>
          <leafValues>
            1.8954336643218994e-01 -1.7154648900032043e-01</leafValues></_>
        <_>
          <internalNodes>
            0 -1 731 -1.1959147639572620e-02</internalNodes>
          <leafValues>
            6.6777247190475464e-01 -4.4154595583677292e-02</leafValues></_>
        <_>
          <internalNodes>
            0 -1 341 -5.3781922906637192e-03</internalNodes>
          <leafValues>
            2.7857494354248047e-01 -1.0271699726581573e-01</leafValues></_>
        <_>
          <internalNodes>
            0 -1 303 5.4725551605224609e-01</internalNodes>
          <leafValues>
            -3.4626018255949020e-02 8.6552351713180542e-01</leafValues></_>
        <_>
          <internalNodes>
            0 -1 848 1.3717319816350937e-02</internalNodes>
          <leafValues>
            -7.0200741291046143e-02 3.9157807826995850e-01</leafValues></_>
        <_>
          <internalNodes>
            0 -1 179 1.3406848302111030e-04</internalNodes>
          <leafValues>
            -1.3237178325653076e-01 2.3805676400661469e-01</leafValues></_>
        <_>
          <internalNodes>
            0 -1 305 -4.3543716892600060e-03</internalNodes>
          <leafValues>
            -7.3086750507354736e-01 4.1764326393604279e-02</leafValues></_>
        <_>
          <internalNodes>
            0 -1 296 -5.9894606471061707e-02</internalNodes>
          <leafValues>
            -1.0904385149478912e-01 3.0384147167205811e-01</leafValues></_>
        <_>
          <internalNodes>
            0 -1 59 -2.8608930110931396e-01</internalNodes>
          <leafValues>
            8.9812815189361572e-02 -3.8994610309600830e-01</leafValues></_>
        <_>
          <internalNodes>
            0 -1 350 -6.9824822247028351e-02</internalNodes>
          <leafValues>
            -1.9749358296394348e-01 1.7050382494926453e-01</leafValues></_>
        <_>
          <internalNodes>
            0 -1 340 -9.4178458675742149e-03</internalNodes>
          <leafValues>
            2.5637266039848328e-01 -1.6647541522979736e-01</leafValues></_>
        <_>
          <internalNodes>
            0 -1 381 6.0637434944510460e-03</internalNodes>
          <leafValues>
            -1.3542798161506653e-01 2.4643760919570923e-01</leafValues></_>
        <_>
          <internalNodes>
            0 -1 387 -1.6083329916000366e-01</internalNodes>
          <leafValues>
            7.0770698785781860e-01 -4.1380982846021652e-02</leafValues></_>
        <_>
          <internalNodes>
            0 -1 602 -8.4207944571971893e-02</internalNodes>
          <leafValues>
            -5.9022241830825806e-01 6.5441787242889404e-02</leafValues></_>
        <_>
          <internalNodes>
            0 -1 270 -2.1455287933349609e-01</internalNodes>
          <leafValues>
            4.7330856323242188e-01 -7.7578350901603699e-02</leafValues></_>
        <_>
          <internalNodes>
            0 -1 141 -6.2523841857910156e-02</internalNodes>
          <leafValues>
            2.2368972003459930e-01 -1.6389574110507965e-01</leafValues></_>
        <_>
          <internalNodes>
            0 -1 257 1.0199489071965218e-02</internalNodes>
          <leafValues>
            -7.4817486107349396e-02 4.8376193642616272e-01</leafValues></_>
        <_>
          <internalNodes>
            0 -1 353 -6.2131388112902641e-03</internalNodes>
          <leafValues>
            -8.0847322940826416e-01 4.5054212212562561e-02</leafValues></_>
        <_>
          <internalNodes>
            0 -1 392 -2.3159656673669815e-02</internalNodes>
          <leafValues>
            4.4784346222877502e-01 -8.6078941822052002e-02</leafValues></_>
        <_>
          <internalNodes>
            0 -1 428 -2.1710092551074922e-04</internalNodes>
          <leafValues>
            2.7814427018165588e-01 -1.1013203859329224e-01</leafValues></_>
        <_>
          <internalNodes>
            0 -1 819 4.7346791252493858e-03</internalNodes>
          <leafValues>
            -1.3052530586719513e-01 2.5243747234344482e-01</leafValues></_>
        <_>
          <internalNodes>
            0 -1 800 -7.0894183591008186e-03</internalNodes>
          <leafValues>
            3.0454653501510620e-01 -1.2129200249910355e-01</leafValues></_>
        <_>
          <internalNodes>
            0 -1 842 -4.1224695742130280e-03</internalNodes>
          <leafValues>
            -6.5467083454132080e-01 4.7983203083276749e-02</leafValues></_>
        <_>
          <internalNodes>
            0 -1 245 1.3709164224565029e-02</internalNodes>
          <leafValues>
            -2.2020301222801208e-01 1.4117275178432465e-01</leafValues></_>
        <_>
          <internalNodes>
            0 -1 876 -7.5574284419417381e-03</internalNodes>
          <leafValues>
            -5.0783872604370117e-01 5.9771008789539337e-02</leafValues></_>
        <_>
          <internalNodes>
            0 -1 112 -3.1758495606482029e-03</internalNodes>
          <leafValues>
            3.2958835363388062e-01 -9.5229819416999817e-02</leafValues></_>
        <_>
          <internalNodes>
            0 -1 551 9.1646332293748856e-03</internalNodes>
          <leafValues>
            -4.7857344150543213e-02 6.0692232847213745e-01</leafValues></_>
        <_>
          <internalNodes>
            0 -1 181 -1.6800124198198318e-02</internalNodes>
          <leafValues>
            3.7579646706581116e-01 -7.4450299143791199e-02</leafValues></_>
        <_>
          <internalNodes>
            0 -1 263 -2.2255495190620422e-02</internalNodes>
          <leafValues>
            -7.8183814883232117e-02 3.8740959763526917e-01</leafValues></_>
        <_>
          <internalNodes>
            0 -1 566 -5.5814012885093689e-03</internalNodes>
          <leafValues>
            3.7656766176223755e-01 -8.9923456311225891e-02</leafValues></_>
        <_>
          <internalNodes>
            0 -1 561 1.8518618162488565e-05</internalNodes>
          <leafValues>
            -2.0276597142219543e-01 1.6369292140007019e-01</leafValues></_>
        <_>
          <internalNodes>
            0 -1 699 1.3036066666245461e-02</internalNodes>
          <leafValues>
            -1.6719308495521545e-01 1.8236359953880310e-01</leafValues></_>
        <_>
          <internalNodes>
            0 -1 575 4.4892048463225365e-03</internalNodes>
          <leafValues>
            -9.1964520514011383e-02 3.8176086544990540e-01</leafValues></_>
        <_>
          <internalNodes>
            0 -1 358 1.4801782090216875e-03</internalNodes>
          <leafValues>
            -1.1962752044200897e-01 2.8751537203788757e-01</leafValues></_>
        <_>
          <internalNodes>
            0 -1 400 -1.5130841347854584e-04</internalNodes>
          <leafValues>
            2.2411228716373444e-01 -1.4569956064224243e-01</leafValues></_>
        <_>
          <internalNodes>
            0 -1 351 -2.2506234236061573e-03</internalNodes>
          <leafValues>
            -5.4596835374832153e-01 6.1324898153543472e-02</leafValues></_>
        <_>
          <internalNodes>
            0 -1 661 -1.7352699069306254e-04</internalNodes>
          <leafValues>
            1.8764686584472656e-01 -1.6988411545753479e-01</leafValues></_>
        <_>
          <internalNodes>
            0 -1 534 -1.0308355558663607e-03</internalNodes>
          <leafValues>
            1.6025412082672119e-01 -1.8127351999282837e-01</leafValues></_>
        <_>
          <internalNodes>
            0 -1 524 -2.1669834852218628e-02</internalNodes>
          <leafValues>
            -1.0683297365903854e-01 3.3016091585159302e-01</leafValues></_>
        <_>
          <internalNodes>
            0 -1 110 -5.2138186991214752e-02</internalNodes>
          <leafValues>
            6.2396384775638580e-02 -5.2880454063415527e-01</leafValues></_>
        <_>
          <internalNodes>
            0 -1 541 -1.0353518649935722e-02</internalNodes>
          <leafValues>
            3.6069574952125549e-01 -1.1807431280612946e-01</leafValues></_>
        <_>
          <internalNodes>
            0 -1 565 -7.0208355784416199e-02</internalNodes>
          <leafValues>
            -7.7464210987091064e-01 3.9557185024023056e-02</leafValues></_>
        <_>
          <internalNodes>
            0 -1 766 -1.3574766926467419e-03</internalNodes>
          <leafValues>
            -6.8786036968231201e-01 4.1017968207597733e-02</leafValues></_>
        <_>
          <internalNodes>
            0 -1 223 -2.9749166220426559e-02</internalNodes>
          <leafValues>
            4.9278637766838074e-01 -7.0469506084918976e-02</leafValues></_>
        <_>
          <internalNodes>
            0 -1 149 -2.3929234594106674e-02</internalNodes>
          <leafValues>
            4.5637848973274231e-01 -6.4771272242069244e-02</leafValues></_>
        <_>
          <internalNodes>
            0 -1 632 4.6250484883785248e-03</internalNodes>
          <leafValues>
            7.0458218455314636e-02 -4.2451500892639160e-01</leafValues></_>
        <_>
          <internalNodes>
            0 -1 322 -1.7760377377271652e-03</internalNodes>
          <leafValues>
            -7.5412797927856445e-01 3.7610515952110291e-02</leafValues></_>
        <_>
          <internalNodes>
            0 -1 577 4.2874617502093315e-03</internalNodes>
          <leafValues>
            -1.0165239125490189e-01 3.2912540435791016e-01</leafValues></_>
        <_>
          <internalNodes>
            0 -1 528 3.0809605959802866e-03</internalNodes>
          <leafValues>
            -6.5037183463573456e-02 4.5716285705566406e-01</leafValues></_>
        <_>
          <internalNodes>
            0 -1 457 -2.4077460169792175e-02</internalNodes>
          <leafValues>
            6.0713022947311401e-01 -4.8458177596330643e-02</leafValues></_>
        <_>
          <internalNodes>
            0 -1 662 -7.2128968313336372e-03</internalNodes>
          <leafValues>
            1.8564128875732422e-01 -1.8107280135154724e-01</leafValues></_>
        <_>
          <internalNodes>
            0 -1 704 -7.1124839596450329e-03</internalNodes>
          <leafValues>
            -5.9268778562545776e-01 5.6808818131685257e-02</leafValues></_>
        <_>
          <internalNodes>
            0 -1 545 -8.8886339217424393e-03</internalNodes>
          <leafValues>
            1.9293135404586792e-01 -1.5403597056865692e-01</leafValues></_></weakClassifiers></_>
    <!-- stage 6 -->
    <_>
      <maxWeakCount>100</maxWeakCount>
      <stageThreshold>-2.7722072601318359e-01</stageThreshold>
      <weakClassifiers>
        <_>
          <internalNodes>
            0 -1 129 1.0056346654891968e-02</internalNodes>
          <leafValues>
            -2.1913044154644012e-01 -7.0857143402099609e-01</leafValues></_>
        <_>
          <internalNodes>
            0 -1 833 -1.4255607966333628e-03</internalNodes>
          <leafValues>
            1.4967601746320724e-02 -9.6426266431808472e-01</leafValues></_>
        <_>
          <internalNodes>
            0 -1 521 -1.4256650501920376e-05</internalNodes>
          <leafValues>
            2.4225628376007080e-01 -1.6895976662635803e-01</leafValues></_>
        <_>
          <internalNodes>
            0 -1 873 -5.1625994965434074e-03</internalNodes>
          <leafValues>
            -3.4992831945419312e-01 1.2352820485830307e-01</leafValues></_>
        <_>
          <internalNodes>
            0 -1 870 3.1792037189006805e-02</internalNodes>
          <leafValues>
            8.0065645277500153e-02 -6.6314136981964111e-01</leafValues></_>
        <_>
          <internalNodes>
            0 -1 328 8.6171843577176332e-04</internalNodes>
          <leafValues>
            5.8037728071212769e-02 -6.3593661785125732e-01</leafValues></_>
        <_>
          <internalNodes>
            0 -1 386 -5.8678835630416870e-02</internalNodes>
          <leafValues>
            -6.8156111240386963e-01 4.0012426674365997e-02</leafValues></_>
        <_>
          <internalNodes>
            0 -1 335 -1.9293183460831642e-02</internalNodes>
          <leafValues>
            3.8159272074699402e-01 -1.0560869425535202e-01</leafValues></_>
        <_>
          <internalNodes>
            0 -1 713 -2.6117157191038132e-02</internalNodes>
          <leafValues>
            4.9590343236923218e-01 -8.1608086824417114e-02</leafValues></_>
        <_>
          <internalNodes>
            0 -1 522 2.4323980323970318e-03</internalNodes>
          <leafValues>
            -6.8823218345642090e-02 4.8276630043983459e-01</leafValues></_>
        <_>
          <internalNodes>
            0 -1 36 5.0479895435273647e-04</internalNodes>
          <leafValues>
            1.4181801676750183e-01 -2.8880560398101807e-01</leafValues></_>
        <_>
          <internalNodes>
            0 -1 202 -5.8838627301156521e-03</internalNodes>
          <leafValues>
            -9.4940990209579468e-02 3.8923889398574829e-01</leafValues></_>
        <_>
          <internalNodes>
            0 -1 537 -6.0557750985026360e-03</internalNodes>
          <leafValues>
            2.9781466722488403e-01 -1.2909443676471710e-01</leafValues></_>
        <_>
          <internalNodes>
            0 -1 153 1.7189089208841324e-02</internalNodes>
          <leafValues>
            9.4560682773590088e-02 -4.0262636542320251e-01</leafValues></_>
        <_>
          <internalNodes>
            0 -1 96 1.7955336719751358e-02</internalNodes>
          <leafValues>
            -9.4622552394866943e-02 4.0337240695953369e-01</leafValues></_>
        <_>
          <internalNodes>
            0 -1 146 -1.6095910221338272e-02</internalNodes>
          <leafValues>
            4.5008790493011475e-01 -8.1424400210380554e-02</leafValues></_>
        <_>
          <internalNodes>
            0 -1 191 -3.3935306128114462e-03</internalNodes>
          <leafValues>
            -6.9914013147354126e-01 5.2959851920604706e-02</leafValues></_>
        <_>
          <internalNodes>
            0 -1 607 -6.5649934113025665e-03</internalNodes>
          <leafValues>
            3.5034599900245667e-01 -1.1599801480770111e-01</leafValues></_>
        <_>
          <internalNodes>
            0 -1 394 -3.6874329671263695e-03</internalNodes>
          <leafValues>
            -6.9828104972839355e-01 6.5008066594600677e-02</leafValues></_>
        <_>
          <internalNodes>
            0 -1 374 -3.4723037970252335e-05</internalNodes>
          <leafValues>
            1.6676001250743866e-01 -2.2070522606372833e-01</leafValues></_>
        <_>
          <internalNodes>
            0 -1 860 -1.6306026373058558e-03</internalNodes>
          <leafValues>
            5.2300786972045898e-01 -7.9164095222949982e-02</leafValues></_>
        <_>
          <internalNodes>
            0 -1 603 2.5570481084287167e-03</internalNodes>
          <leafValues>
            -4.5726809650659561e-02 7.3562908172607422e-01</leafValues></_>
        <_>
          <internalNodes>
            0 -1 826 -4.8147146590054035e-03</internalNodes>
          <leafValues>
            5.3385104984045029e-02 -7.1816372871398926e-01</leafValues></_>
        <_>
          <internalNodes>
            0 -1 43 -1.9542008638381958e-02</internalNodes>
          <leafValues>
            -9.6267825365066528e-01 2.9104486107826233e-02</leafValues></_>
        <_>
          <internalNodes>
            0 -1 213 7.1884188801050186e-03</internalNodes>
          <leafValues>
            3.5971488803625107e-02 -6.9816452264785767e-01</leafValues></_>
        <_>
          <internalNodes>
            0 -1 666 1.3432326959446073e-03</internalNodes>
          <leafValues>
            -1.4339375495910645e-01 2.3801399767398834e-01</leafValues></_>
        <_>
          <internalNodes>
            0 -1 744 1.1335226707160473e-02</internalNodes>
          <leafValues>
            8.4377735853195190e-02 -4.5147719979286194e-01</leafValues></_>
        <_>
          <internalNodes>
            0 -1 345 -1.5167830511927605e-02</internalNodes>
          <leafValues>
            -3.4951528906822205e-01 1.0827245563268661e-01</leafValues></_>
        <_>
          <internalNodes>
            0 -1 657 -1.4968207105994225e-02</internalNodes>
          <leafValues>
            -9.3245975673198700e-02 3.9271661639213562e-01</leafValues></_>
        <_>
          <internalNodes>
            0 -1 326 -1.2043495662510395e-03</internalNodes>
          <leafValues>
            -3.9123204350471497e-01 8.9028812944889069e-02</leafValues></_>
        <_>
          <internalNodes>
            0 -1 151 -1.1292722076177597e-02</internalNodes>
          <leafValues>
            5.0543791055679321e-01 -7.5692735612392426e-02</leafValues></_>
        <_>
          <internalNodes>
            0 -1 585 -4.4657662510871887e-03</internalNodes>
          <leafValues>
            5.4123487323522568e-02 -8.4269058704376221e-01</leafValues></_>
        <_>
          <internalNodes>
            0 -1 75 -8.8605808559805155e-04</internalNodes>
          <leafValues>
            -4.9885988235473633e-01 6.6439375281333923e-02</leafValues></_>
        <_>
          <internalNodes>
            0 -1 560 7.8475591726601124e-04</internalNodes>
          <leafValues>
            -1.1367752403020859e-01 3.5895156860351563e-01</leafValues></_>
        <_>
          <internalNodes>
            0 -1 493 -8.2794949412345886e-03</internalNodes>
          <leafValues>
            3.6243274807929993e-01 -1.0792212933301926e-01</leafValues></_>
        <_>
          <internalNodes>
            0 -1 479 1.2132013216614723e-03</internalNodes>
          <leafValues>
            -1.1325097829103470e-01 3.1888517737388611e-01</leafValues></_>
        <_>
          <internalNodes>
            0 -1 469 1.4563020318746567e-02</internalNodes>
          <leafValues>
            -1.4566488564014435e-01 2.3683163523674011e-01</leafValues></_>
        <_>
          <internalNodes>
            0 -1 485 -3.9572371169924736e-03</internalNodes>
          <leafValues>
            6.1090600490570068e-01 -6.0438312590122223e-02</leafValues></_>
        <_>
          <internalNodes>
            0 -1 435 2.0076192915439606e-02</internalNodes>
          <leafValues>
            6.9144465029239655e-02 -5.7243728637695313e-01</leafValues></_>
        <_>
          <internalNodes>
            0 -1 516 -3.9610913954675198e-03</internalNodes>
          <leafValues>
            4.3884289264678955e-01 -8.4587737917900085e-02</leafValues></_>
        <_>
          <internalNodes>
            0 -1 468 -5.7496209628880024e-03</internalNodes>
          <leafValues>
            -2.9981443285942078e-01 1.3297970592975616e-01</leafValues></_>
        <_>
          <internalNodes>
            0 -1 292 4.9685329198837280e-02</internalNodes>
          <leafValues>
            9.1249942779541016e-02 -4.0900260210037231e-01</leafValues></_>
        <_>
          <internalNodes>
            0 -1 97 7.3512434959411621e-02</internalNodes>
          <leafValues>
            -6.2819495797157288e-02 6.9287604093551636e-01</leafValues></_>
        <_>
          <internalNodes>
            0 -1 17 5.7716593146324158e-02</internalNodes>
          <leafValues>
            4.6977333724498749e-02 -8.9012807607650757e-01</leafValues></_>
        <_>
          <internalNodes>
            0 -1 317 -5.6781568564474583e-03</internalNodes>
          <leafValues>
            -6.6190916299819946e-01 3.7596974521875381e-02</leafValues></_>
        <_>
          <internalNodes>
            0 -1 489 8.4928739815950394e-03</internalNodes>
          <leafValues>
            -6.7323312163352966e-02 5.2420496940612793e-01</leafValues></_>
        <_>
          <internalNodes>
            0 -1 718 1.1901183053851128e-02</internalNodes>
          <leafValues>
            5.4864078760147095e-02 -6.4767485857009888e-01</leafValues></_>
        <_>
          <internalNodes>
            0 -1 741 4.2682271450757980e-03</internalNodes>
          <leafValues>
            4.7639824450016022e-02 -5.8364361524581909e-01</leafValues></_>
        <_>
          <internalNodes>
            0 -1 638 1.3818822335451841e-03</internalNodes>
          <leafValues>
            -7.6152779161930084e-02 4.8060393333435059e-01</leafValues></_>
        <_>
          <internalNodes>
            0 -1 145 -7.4387784115970135e-03</internalNodes>
          <leafValues>
            -6.8862271308898926e-01 5.6007824838161469e-02</leafValues></_>
        <_>
          <internalNodes>
            0 -1 499 -2.9121907427906990e-03</internalNodes>
          <leafValues>
            -6.0738795995712280e-01 4.9175880849361420e-02</leafValues></_>
        <_>
          <internalNodes>
            0 -1 461 -4.8342987429350615e-04</internalNodes>
          <leafValues>
            2.0384323596954346e-01 -1.6806054115295410e-01</leafValues></_>
        <_>
          <internalNodes>
            0 -1 31 -6.1182081699371338e-02</internalNodes>
          <leafValues>
            -6.1573040485382080e-01 6.1397250741720200e-02</leafValues></_>
        <_>
          <internalNodes>
            0 -1 109 3.3191971480846405e-02</internalNodes>
          <leafValues>
            9.2586629092693329e-02 -3.8095235824584961e-01</leafValues></_>
        <_>
          <internalNodes>
            0 -1 714 2.7479301206767559e-03</internalNodes>
          <leafValues>
            4.8288941383361816e-02 -7.0956593751907349e-01</leafValues></_>
        <_>
          <internalNodes>
            0 -1 313 3.0717506888322532e-05</internalNodes>
          <leafValues>
            -1.7170545458793640e-01 1.9669362902641296e-01</leafValues></_>
        <_>
          <internalNodes>
            0 -1 570 -1.3584139943122864e-01</internalNodes>
          <leafValues>
            -5.0678783655166626e-01 6.4480304718017578e-02</leafValues></_>
        <_>
          <internalNodes>
            0 -1 5 -3.5061311721801758e-01</internalNodes>
          <leafValues>
            2.7973157167434692e-01 -1.3735601305961609e-01</leafValues></_>
        <_>
          <internalNodes>
            0 -1 775 5.8900222182273865e-02</internalNodes>
          <leafValues>
            -8.7609566748142242e-02 3.7819308042526245e-01</leafValues></_>
        <_>
          <internalNodes>
            0 -1 11 5.5873505771160126e-02</internalNodes>
          <leafValues>
            4.8185933381319046e-02 -7.4864304065704346e-01</leafValues></_>
        <_>
          <internalNodes>
            0 -1 378 -4.6131061390042305e-04</internalNodes>
          <leafValues>
            -2.5792694091796875e-01 1.6086420416831970e-01</leafValues></_>
        <_>
          <internalNodes>
            0 -1 857 -5.2025150507688522e-03</internalNodes>
          <leafValues>
            4.5877507328987122e-01 -8.1286959350109100e-02</leafValues></_>
        <_>
          <internalNodes>
            0 -1 481 1.4884601347148418e-02</internalNodes>
          <leafValues>
            -6.3949026167392731e-02 5.2364087104797363e-01</leafValues></_>
        <_>
          <internalNodes>
            0 -1 261 -2.6023602485656738e-01</internalNodes>
          <leafValues>
            -5.9753309935331345e-02 5.2820706367492676e-01</leafValues></_>
        <_>
          <internalNodes>
            0 -1 497 -9.6473358571529388e-03</internalNodes>
          <leafValues>
            7.5245104730129242e-02 -5.3154665231704712e-01</leafValues></_>
        <_>
          <internalNodes>
            0 -1 814 3.9905542507767677e-03</internalNodes>
          <leafValues>
            7.7430665493011475e-02 -4.1376283764839172e-01</leafValues></_>
        <_>
          <internalNodes>
            0 -1 44 2.4018891155719757e-02</internalNodes>
          <leafValues>
            3.0918015167117119e-02 -9.2227125167846680e-01</leafValues></_>
        <_>
          <internalNodes>
            0 -1 13 -3.4628576040267944e-01</internalNodes>
          <leafValues>
            -6.8468201160430908e-01 3.9874512702226639e-02</leafValues></_>
        <_>
          <internalNodes>
            0 -1 506 8.4733456606045365e-04</internalNodes>
          <leafValues>
            -9.9776074290275574e-02 3.8941636681556702e-01</leafValues></_>
        <_>
          <internalNodes>
            0 -1 364 -4.8292241990566254e-04</internalNodes>
          <leafValues>
            -3.5324817895889282e-01 1.1125404387712479e-01</leafValues></_>
        <_>
          <internalNodes>
            0 -1 571 -4.3002725578844547e-04</internalNodes>
          <leafValues>
            2.2399269044399261e-01 -1.6861081123352051e-01</leafValues></_>
        <_>
          <internalNodes>
            0 -1 472 -3.4318961203098297e-02</internalNodes>
          <leafValues>
            -4.7342836856842041e-01 8.3284713327884674e-02</leafValues></_>
        <_>
          <internalNodes>
            0 -1 186 2.6679981965571642e-03</internalNodes>
          <leafValues>
            5.5750738829374313e-02 -5.9169739484786987e-01</leafValues></_>
        <_>
          <internalNodes>
            0 -1 673 -4.0118875913321972e-03</internalNodes>
          <leafValues>
            -1.1165744066238403e-01 3.2992103695869446e-01</leafValues></_>
        <_>
          <internalNodes>
            0 -1 98 -2.1251189708709717e-01</internalNodes>
          <leafValues>
            7.8827059268951416e-01 -4.8581752926111221e-02</leafValues></_>
        <_>
          <internalNodes>
            0 -1 527 1.2741712853312492e-03</internalNodes>
          <leafValues>
            -6.3999488949775696e-02 4.8446628451347351e-01</leafValues></_>
        <_>
          <internalNodes>
            0 -1 139 1.5447700396180153e-02</internalNodes>
          <leafValues>
            -8.3471268415451050e-02 4.0260395407676697e-01</leafValues></_>
        <_>
          <internalNodes>
            0 -1 85 -8.0500103649683297e-05</internalNodes>
          <leafValues>
            -2.7544283866882324e-01 1.3650038838386536e-01</leafValues></_>
        <_>
          <internalNodes>
            0 -1 767 -2.8477109968662262e-02</internalNodes>
          <leafValues>
            8.3697430789470673e-02 -4.0101745724678040e-01</leafValues></_>
        <_>
          <internalNodes>
            0 -1 188 -1.1615858972072601e-01</internalNodes>
          <leafValues>
            4.6746602654457092e-01 -9.7910776734352112e-02</leafValues></_>
        <_>
          <internalNodes>
            0 -1 342 -2.1998728811740875e-01</internalNodes>
          <leafValues>
            -3.3535331487655640e-01 1.0747190564870834e-01</leafValues></_>
        <_>
          <internalNodes>
            0 -1 163 2.7891777455806732e-02</internalNodes>
          <leafValues>
            4.9007005989551544e-02 -6.7533987760543823e-01</leafValues></_>
        <_>
          <internalNodes>
            0 -1 761 2.2444957867264748e-03</internalNodes>
          <leafValues>
            -1.2332408130168915e-01 3.1796455383300781e-01</leafValues></_>
        <_>
          <internalNodes>
            0 -1 720 1.5045735985040665e-02</internalNodes>
          <leafValues>
            5.4877929389476776e-02 -7.0534402132034302e-01</leafValues></_>
        <_>
          <internalNodes>
            0 -1 774 -2.9981671832501888e-03</internalNodes>
          <leafValues>
            -4.5980927348136902e-01 7.8469373285770416e-02</leafValues></_>
        <_>
          <internalNodes>
            0 -1 703 2.4892817600630224e-04</internalNodes>
          <leafValues>
            -1.6910818219184875e-01 2.1739278733730316e-01</leafValues></_>
        <_>
          <internalNodes>
            0 -1 706 -1.7590520437806845e-03</internalNodes>
          <leafValues>
            2.7482116222381592e-01 -1.3957232236862183e-01</leafValues></_>
        <_>
          <internalNodes>
            0 -1 225 -2.7603514492511749e-02</internalNodes>
          <leafValues>
            4.9237242341041565e-01 -7.6100245118141174e-02</leafValues></_>
        <_>
          <internalNodes>
            0 -1 421 -8.4442188381217420e-05</internalNodes>
          <leafValues>
            2.1637953817844391e-01 -1.5906734764575958e-01</leafValues></_>
        <_>
